tree
version=v4
num_class=1
num_tree_per_iteration=1
label_index=0
max_feature_idx=14
objective=binary sigmoid:1
feature_names=v_ratio v_dry ma20_bias atr_14_ratio hl_ratio cost_concentration vp_corr_10 intraday_pos mom_accel smart_vol_5d amihud_shock smart_dumb_diff divergence_rank rs_rank ind_excess
feature_infos=[0.00059832507140792864:2.1700942067940563] [0.034926527732506533:2.1227646641525699] [-0.16699067910612103:0.16944399748268396] [0.00011929051424476487:0.079999987692309593] [0:0.080191679126257021] [0.0080427118446066235:1.1174192907231584] [-0.98762765182926326:0.99542839360097946] [0:1.0014142655105402] [-0.13384367143307885:0.13593622671195527] [0.040530049139419821:0.90702586725866163] [1.4657807794271199e-15:0.00054074969108114791] [-0.023028885884003997:0.024884625773924991] [0.016666666666666666:1] [0.019036740909956214:100] [-0.24213891491322262:0.21979999335357489]
tree_sizes=3520 3481 3492 3470 3480 3514 3511 3476 3523 3516 3510 3535 3511 3502 3486 3535 3523 3521 3534 3527 3524 3525 3542 3532 3515 3544 3506 3531 3531 3554 3527 3540 3540 3558 3545 3551 3506 3570 3568 3513 3540 3561 3536 3549 3532 3539 3558 3532 3547 3551 3551 3554 3551 3566 3552 3560 3540 3574 3558 3553 3546 3558 3572 3554 3550 3555 3568 3573 3554 3553 3552 3553 3585 3606 3548 3550 3536 3588 3568 3543 3572 3533 3541 3575 3558 3553 3575 3579 3619 3592 3565 3580 3582 3553 3579 3578 3584 3586 3564 3579 3587 3607 3573 3565 3602 3561 3610 3616 3589 3571 3634 3576 3562 3631 3567 3562 3585 3573 3596 3570 3600 3566 3627 3561 3544 3573 3598 3556 3568 3592 3586 3583 3600 3569 3574 3581 3571 3594 3649 3564 3605 3570 3568 3624 3549 3563 3573 3571 3216 3588 3535 3567 3567 3613 3574 3591 3563 3621 3616 3558 3609 3552 3539 3566 3588 3659 3577 3574 3638 3582 3555 3557 3605 3553 3591 3571 3618 3614 3575 3560 3572 3535 3553 3596 3579 3634 3584 3566 3555 3566 3584 3590 3612 3603 3565 3578 3437 3581 3569 3580 3569 3608 3607 3581 3593 3599 3586 3574 3605 3619 3602 3564 3585 3562 3600 3598 3572 3585 3551 3589 3584 3632 3588 3628 3562 3586 3570 3573 3627 3627 3560 3601 3589 3566 3561 3558 3447 3560 3589 3586 3580 3623 3575 3624 3596 3563 3577 3605 3556 3567 3563 3585 3549 3603 3579 3573 3559 3567 3586 3594 3542 3607 3569 3573 3613 3556 3543 3605 3571 3575 3610 3555 3629 3555 3437 3588 3573 3564 3556 3574 3584 3580 3594 3606 3569 3618 3611 3573 3576 3588 3579 3593 3568 3560 3548 3616 3574 3608 3551 3624 3593 3560 3583 3579 3575 3581 3568 3553 3603 3621 3571 3604 3603 3576 3563 3551 3561 3561 3599 3583 3554 3594 3567 3579 3601 3560 3542 3583 3568 3578 3584 3582 3625 3584 3585 3582 3565 3615 3570 3563 3596 3569 3582 3613 3524 3593 3518 3573 3562 3563 3615 3556 3593 3571 3605 3605 3580 3582 3572 3555 3576 3592 3570 3567 3581 3564 3596 3566 3593 3596 3539 3561 3568 3543 3599 3559 3631 3576 3580 3567 3622 3555 3436 3600 3574 3574 3587 3568 3550 3599 3570 3620 3467 3591 3586 3571 3578 3560 3459 3559 3615 3620 3574 3569 3589 3594 3593 3589 3554 3585 3548 3586 3595 3566 3576 3579 3566 3587 3565 3600 3589 3364 3653 3558 3591 3595 3581 3543 3579 3559 3602 3563 3590 3570 3591 3552 3584 3586 3582 3600 3448 3557 3595 3551 3590 3554 3586 3606 3547 3552 3559 3587 3563 3579 3584 3624 3559 3563 3596 3536 3612 3469 3540 3564 3581 3586 3600 3583 3581 3583 3570 3621 3590 3601 3581 3537 3558 3566 3591 3576 3567 3613 3560 3598 3621 3562 3561 3565 3623 3579 3445 3560 3594 3615 3603 3559 3608 3588 3598 3586

Tree=0
num_leaves=31
num_cat=0
split_feature=10 2 3 1 3 10 10 1 10 10 10 3 3 10 10 2 10 5 2 5 12 5 11 14 1 5 3 11 10 5
split_gain=6.42493e+06 1.82601e+06 1.7306e+06 1.51556e+06 1.03424e+06 928322 759935 695806 537421 496745 1.16656e+06 584638 486593 432024 320207 319764 276634 209679 200518 170354 164071 142926 141416 119649 105920 84659.6 81340.9 49741.3 43471.9 42259.7
threshold=0.00015912101059095658 -0.01041559648984367 0.035737907608838375 1.4172217162968341 0.037987673705672624 1.8243769545429813e-09 0.00054073807380253778 1.3260926435853209 0.00054073807380253778 4.3134773787802342e-10 3.3249686078481407e-05 0.015893608599494499 0.032502105002714533 3.8581939328755114e-05 0.00050230301058145114 -0.0099391445801857558 5.5203580878723599e-11 0.86891060361376715 0.0052887176919099834 0.81337598279244916 0.55833333333333346 1.000817425255625 -0.0067162776260630006 0.045698362283756164 1.5030967486753233 1.1174131557752711 0.024858684363027315 -0.0029018820044166747 2.4475401624360153e-11 0.3939244764875432
decision_type=2 2 2 2 2 2 2 2 2 2 2 2 2 2 2 2 2 2 2 2 2 2 2 2 2 2 2 2 2 2
left_child=2 6 3 9 7 16 12 14 25 11 -11 -1 26 24 -3 -15 28 22 -5 -14 -9 -10 -8 -20 -7 -6 -2 -19 -4 -18
right_child=1 4 5 18 8 13 17 20 21 10 -12 -13 19 15 -16 -17 29 27 23 -21 -22 -23 -24 -25 -26 -27 -28 -29 -30 -31
leaf_value=-3.7808270149601393 -2.919088478751954 -2.8220138600351667 -3.7592755589054119 -3.2410866923737816 -3.2406314957074946 -4.2711018215659324 -3.2187045885155134 -2.1550596107300954 -2.6940990580783066 -3.9835481267591009 -3.2983182902759767 -2.7667405983526359 -3.6977712995213854 -4.0322935208832824 -2.4122428326953496 -3.5765903126265841 -2.9167150072982704 -2.6276510074554702 -2.4486242514229857 -3.1966952520926823 -2.5700903683355625 -2.0083705107567535 -2.7920190140949317 -2.9414744365757919 -3.7127618712935426 -2.5726029228492715 -3.211276398844781 -2.1521039050247386 -3.0039384894917038 -2.1192498746799373
leaf_weight=706.78652431536466 1662.7947402978316 4923.0450738118961 175.61495715938509 464.5910539040342 3310.7013011323288 2311.4390446096659 968.64745858870447 4427.6885299542919 1366.2824895931408 3258.0042480146512 7128.2399716908112 1853.3090204438195 2551.0812175888568 2150.9509609499946 2634.8695307252929 3895.8732902128249 72.268346739001572 367.1501096393913 1921.3660476347432 802.80852842424065 1063.0950428983197 342.04163953009993 2512.0208403281868 576.29532927740365 352.41201157588512 180.02135933563113 1770.5312094511464 429.5720936935395 112.508934260346 346.81491382885724
leaf_count=50573 71710 196547 12441 24971 177895 202775 51348 79354 48782 254909 396589 70612 175549 171751 69577 252515 3111 12304 53042 41974 33608 4475 97804 25279 24425 5706 93422 7657 5167 5806
internal_value=-3.12177 -2.81938 -3.47175 -3.28094 -2.635 -3.79405 -3.12345 -2.49243 -2.9928 -3.421 -3.51326 -3.04671 -3.32083 -3.87892 -2.67916 -3.73869 -2.74874 -2.81027 -2.66879 -3.57783 -2.23542 -2.5568 -2.91076 -2.56234 -4.19724 -3.20618 -3.06977 -2.37125 -3.46433 -2.25677
internal_weight=54638.8 29312.4 25326.5 15908.6 18247.7 9417.88 11064.6 13048.7 5199.05 12946.3 10386.2 2560.1 6787.22 8710.68 7557.91 6046.82 707.207 4277.39 2962.25 3353.89 5490.78 1708.32 3480.67 2497.66 2663.85 3490.72 3433.33 796.722 288.124 419.083
internal_count=2721678 1167712 1553966 875975 615944 677991 551768 379086 236858 772683 651498 121185 382655 651466 266124 424266 26525 169113 103292 217523 112962 53257 149152 78321 227200 183601 165132 19961 17608 8917
is_linear=0
shrinkage=1


Tree=1
num_leaves=31
num_cat=0
split_feature=7 7 10 7 7 7 7 7 3 10 7 3 7 10 7 1 6 7 0 1 13 7 11 10 3 3 3 3 10 3
split_gain=135013 127355 159739 155048 111432 180005 135030 47765.5 44519.3 85348 39184.2 38223.1 56344.3 41240.7 29221.4 23002.8 3525.78 3018.35 1144.93 830.236 961.23 1584.77 646.276 0.196029 0.129269 0.0591483 0.0493655 0.033056 0.0125702 0.0107237
threshold=0.99999878599090664 0.99038348166542634 0.00015912101059095658 0.83332638894676014 0.32558060783625797 0.33333048773595741 1.0000000180025095e-35 0.95238945817223175 0.037987673705672624 0.00054073807380253778 0.99998339804298697 0.035894779428383379 0.99998339804298697 4.2679172445575219e-06 0.85336400993948669 1.2541358494633397 0.916479186808277 0.99999926335201683 1.5024458714004674 2.1227262320826799 90.660913354017879 0.99999926335201683 0.011964357284963159 0.00054073807380253778 0.037987673705672624 0.037987673705672624 0.037987673705672624 0.037987673705672624 0.00016113838758501699 0.037987673705672624
decision_type=2 2 2 2 2 2 2 2 2 2 2 2 2 2 2 2 2 2 2 2 2 2 2 2 2 2 2 2 2 2
left_child=1 3 11 4 6 -6 -1 14 10 -10 -4 12 -3 -13 -5 -9 19 18 29 23 24 -22 -20 26 -21 28 -2 -25 -19 -18
right_child=16 2 8 7 5 -7 -8 15 9 -11 -12 13 -14 -15 -16 -17 17 25 22 20 21 -23 -24 27 -26 -27 -28 -29 -30 -31
leaf_value=0.3581315819797477 -0.031668116460170037 0.61587567113427688 0.38319086927334162 0.16119107663837573 0.47646016586972129 0.3100926665947667 0.24834822359970093 0.054247388300939135 0.56245407513316792 0.32667804655687815 0.28499644193919543 0.33730898301345774 0.35102178311772303 0.79677154345168599 0.255575648437317 0.19560897868846094 -0.033245640772552328 -0.032059118136391986 0.11962360522004725 -0.033216736602823413 0.12103650244098724 -0.013933242406954278 0.26575592106389195 -0.033244709944949602 -0.031669923645085002 -0.031617594812111002 -0.031065009627912928 -0.032237902540942658 -0.033471467821009245 -0.031382691312783956
leaf_weight=12522.661238104105 212.22617154940963 1396.7933399118483 4740.6288516260684 3298.4111386202276 6191.4264248330146 107135.60022848658 51760.887645401061 1721.7386856023222 1967.0241445079446 4644.127683006227 16007.467432752252 226.91163684055209 1498.3815355505794 780.86511059850454 28123.057546785101 2601.1658312845975 14.093857925385239 6.6150601282715789 37.890029054135084 122.62676942162216 151.23019023425877 162.3457626644522 96.882014058530331 34.968040376901627 80.575511083006859 33.634452231228352 287.76923209615052 182.66062813997269 39.763404667377472 3.4644791036844245
leaf_count=91257 6329 9991 8244 51226 32833 1306718 776873 41711 15461 11731 33449 555 12342 11423 266665 20469 169 124 247 1493 2304 3768 193 406 1919 787 9500 2970 428 93
internal_value=0.296378 0.298098 0.354647 0.289812 0.301285 0.319182 0.269734 0.232805 0.329034 0.396829 0.307432 0.534192 0.478802 0.693319 0.245668 0.139307 0.00940968 0.11662 0.194986 -0.0107697 0.0182231 0.0511594 0.224672 -0.0316481 -0.0326034 -0.0325754 -0.031321 -0.0323997 -0.03327 -0.0328781
internal_weight=246084 244617 31262.2 213355 177611 113327 64283.5 35744.4 27359.2 6611.15 20748.1 3902.95 2895.17 1007.78 31421.5 4322.9 1466.75 232.343 152.33 1234.4 516.778 313.576 134.772 717.624 203.202 80.0129 499.995 217.629 46.3785 17.5583
internal_count=2721678 2690948 103196 2587752 2207681 1339551 868130 380071 68885 27192 41693 34311 22333 11978 317891 62180 30730 2041 702 28689 9484 6072 440 19205 3412 1339 15829 3376 552 262
is_linear=0
shrinkage=0.03


Tree=2
num_leaves=31
num_cat=0
split_feature=4 10 10 10 3 1 2 1 10 0 10 8 3 5 10 3 11 3 10 5 12 13 4 8 3 1 10 13 1 5
split_gain=50009.3 34539.2 49452.9 28277.1 71314 33027.3 22334.6 21311 28667.9 19757.1 20319.5 20984.2 30310.4 17356.4 15276.1 18985.2 15212.3 19856.5 14336 12998.8 12664.5 12599.8 9323.38 6614.76 6044.1 5857.59 12742.3 10124.1 5634.76 4440.95
threshold=0.024390238596652267 1.131681811788057e-05 1.4392017199792803e-09 0.00015912101059095658 0.023103002621187571 1.4172217162968341 -0.01041559648984367 0.83298885317228433 4.3134773787802342e-10 0.92500252507454572 0.00052101335729362174 -0.018679855929126847 0.037180958873655183 0.35819821920278333 4.2679172445575219e-06 0.021843496161142725 0.016833052814240943 0.05594390211491667 9.2708074908799928e-05 0.50982141884874022 0.35833333333333334 92.212321813762344 0.016393438092413646 0.051983517626620575 0.062900325398280318 1.7787070833761067 0.00015718364230723301 93.413422479785922 0.42115006571501656 0.40336128098299268
decision_type=2 2 2 2 2 2 2 2 2 2 2 2 2 2 2 2 2 2 2 2 2 2 2 2 2 2 2 2 2 2
left_child=1 2 7 4 5 -3 20 8 -1 10 11 21 -13 -9 28 -16 17 19 -6 -11 -5 -2 -8 -19 29 27 -27 -18 -4 -12
right_child=9 3 14 6 18 -7 22 13 -10 16 24 12 -14 -15 15 -17 25 23 -20 -21 -22 -23 -24 -25 -26 26 -28 -29 -30 -31
leaf_value=0.23366140403684382 0.21208164231196042 0.33554355930968111 0.40419590530858962 0.22844232723594918 0.20095935502588375 0.22593194380660228 0.23939588812988694 0.15438533719968539 0.42391626330696036 0.19738778548602648 0.18235200198128013 0.22476423293975129 0.2759559250878621 0.26456722616104023 0.31303730454298873 0.056001401181649473 0.24804181231184419 0.12770792776604245 0.25909822725576198 0.21987653578619501 0.27676521599611892 0.12154589072029605 0.20962378966385636 0.1992256696349205 0.14043554301670172 0.34809593875989558 0.23453620654156776 0.14508052700607388 0.0096678994504489479 0.21208473878992395
leaf_weight=8822.5445392355323 14244.38929050602 12498.66013841331 33.306254408322275 7825.8130941744894 9752.9028663290665 3084.5851604007185 14845.58817794919 5426.0577950999141 775.4489937517792 70548.788999903947 6032.7473379168659 28418.915981476195 16426.552370626479 1686.6893567070365 454.16511924564838 600.68724687024951 2984.2253194022924 4170.1991879828274 6271.8559976611286 34417.038002841175 12972.405640212819 1532.2836219659075 26127.56873877719 1614.5764176845551 1396.36657785438 1266.5724783986807 2985.388887019828 1207.2078134519979 1495.8414156297222 18043.753094581887
leaf_count=53018 249307 142573 913 64612 194338 9697 51617 88603 12242 454941 29522 188800 257157 8981 9476 24259 28743 73282 86742 254741 93605 33225 116192 20534 7415 13609 12573 17397 56856 66708
internal_value=0.221463 0.237522 0.200982 0.245072 0.268151 0.313847 0.233263 0.219868 0.249033 0.212648 0.223599 0.233046 0.243515 0.180513 0.0788444 0.166668 0.204739 0.201779 0.223714 0.204762 0.258583 0.203289 0.220411 0.147669 0.201115 0.243554 0.268363 0.218387 0.0182611 0.204635
internal_weight=317963 112674 19294.7 93379.4 31608 15583.2 61771.4 16710.7 9597.99 205289 86095 60622.1 44845.5 7112.75 2584 1054.85 119194 110751 16024.8 104966 20798.2 15776.7 40973.2 5784.78 25472.9 8443.39 4251.96 4191.43 1529.15 24076.5
internal_count=2721678 1013724 254348 759376 433350 152270 326026 162844 65260 1707954 832134 728489 445957 97584 91504 33735 875820 803498 281080 709682 158217 282532 167809 93816 103645 72322 26182 46140 57769 96230
is_linear=0
shrinkage=0.03


Tree=3
num_leaves=31
num_cat=0
split_feature=7 7 9 10 7 7 10 10 4 3 3 5 7 7 4 7 4 7 8 7 8 0 13 0 5 3 13 12 10 3
split_gain=62523.3 62028.1 69130.1 37757.6 28591.9 29884.4 21554.9 18702.8 17795.3 17007.3 11155.1 19253.4 10098.4 9175.75 8563.44 13413.1 7719.17 5924.55 2096.45 2055.82 2094.45 1989.34 1439 576.088 1117.74 336.272 114.803 525.771 0.309541 0.128488
threshold=0.99999826908363898 0.99038348166542634 0.49384479593440977 1.5993165334362301e-05 0.89999527289205428 0.19992018436228901 8.932481185950393e-10 0.00016113838758501699 0.0239999930152715 0.053932336617352888 0.037987673705672624 0.88150308356211915 0.999988892152474 0.99999878599090664 0.056369782565689024 0.999988892152474 0.077530559784475012 0.99996688325196759 0.021000374914725787 0.99999926335201683 0.078322729447068931 1.7012880094380514 91.830173351863323 1.3225845464564856 0.56686768355445549 0.024142685414592045 99.30701396056898 0.025000000000000005 0.00016113838758501699 0.037337641123093547
decision_type=2 2 2 2 2 2 2 2 2 2 2 2 2 2 2 2 2 2 2 2 2 2 2 2 2 2 2 2 2 2
left_child=1 2 4 6 5 -1 -4 14 -6 -5 12 -12 -9 16 15 -3 23 -16 -18 20 25 -22 -20 29 -25 -15 28 -28 -21 -2
right_child=13 7 3 9 8 -7 -8 10 -10 -11 11 -13 -14 19 17 -17 18 -19 22 26 21 -23 -24 24 -26 -27 27 -29 -30 -31
leaf_value=0.16321493789827093 -0.034104308907299659 0.27021944022744265 0.13442227814849009 0.16668159782982678 0.033773920113949814 0.19510280608583519 0.044426334624252113 0.21434459822082039 0.15184682854246831 0.12623499836655183 0.26026162198929315 0.1757000845935891 0.17918529451829926 0.082601194768859937 0.019983102330017165 0.17783882927852293 -0.033039341377722881 0.33930987946921243 0.11180612491223763 -0.031462527310784909 0.033103812081751179 0.15975115505761928 0.18313669003740227 -0.033948668749741825 0.12545210025867887 -0.032514503702142608 0.16916649033901104 -0.031510352323789369 -0.03264760298040123 -0.032752538034363163
leaf_weight=32307.370420087129 102.94353485479951 4324.9309992417693 7568.7542512845248 122835.01029375941 1396.3852109173313 145909.75673731044 3504.1144994953647 12573.771375309676 6479.5285566411912 10127.970237536356 6699.7879051230848 3796.4415078982711 17704.033401217312 24.713347861543298 54.658258656039834 2102.009667089209 57.17058196105063 1207.396490899846 435.29451191425323 314.75167188607156 350.44050279259682 163.79862206801772 612.96963058784604 86.795492378994823 72.798544935882092 301.01436586212367 14.447514202445744 62.936663744039834 536.46239541657269 164.27163518406451
leaf_count=271474 1162 14581 67615 823143 21571 1112309 100512 14494 54031 137097 18884 3775 24856 157 682 14571 739 1969 1941 9473 4644 493 1803 972 412 5523 269 1591 8580 2355
internal_value=0.178292 0.179425 0.174772 0.159168 0.18685 0.189322 0.105942 0.211118 0.130913 0.163601 0.203025 0.229676 0.193786 0.0482905 0.254035 0.240005 0.102028 0.32548 0.143868 0.00173346 0.0357418 0.0734443 0.153516 -0.00633771 0.0387617 -0.0237805 -0.0290289 0.00595572 -0.0322094 -0.0332733
internal_weight=381893 378592 330129 144036 186093 178217 11072.9 48463 7875.91 132963 40774 10496.2 30277.8 3300.81 7689 6426.94 1532.24 1262.05 1105.43 1768.57 839.967 514.239 1048.26 426.809 159.594 325.728 928.598 77.3842 851.214 267.215
internal_count=2721678 2681564 2587752 1128367 1459385 1383783 168127 93812 75602 960240 62009 22659 39350 40114 31803 29152 9384 2651 4483 30730 10817 5137 3744 4901 1384 5680 19913 1860 18053 3517
is_linear=0
shrinkage=0.03


Tree=4
num_leaves=31
num_cat=0
split_feature=7 7 7 7 7 14 8 7 4 10 3 4 4 1 6 2 7 1 1 14 7 0 8 3 10 3 3 3 3 10
split_gain=43349.1 36223.5 35918.8 29940.1 92780 35141.6 26217 19017.7 15965.2 10349.3 13601.2 8208.69 7959.28 3426 2311 1851.56 1662.31 1500.81 638.397 668.684 1003.1 592.022 345.86 203.385 0.299235 0.0881718 0.0698619 0.0577552 0.0193756 0.0185524
threshold=0.99999878599090664 0.99038348166542634 0.92307309370141533 0.16129003028352332 1.0000000180025095e-35 0.078718424622176861 0.024506563338383251 0.9999974909547571 0.077530559784475012 0.00050230301058145114 0.037180958873655183 0.022550205163142181 0.024806198646792208 1.3362076187810452 0.916479186808277 -0.01041559648984367 0.99999926335201683 1.6069644363874644 2.1227262320826799 0.17433563527493506 0.99999926335201683 1.5024458714004674 0.065401411139773644 0.032639114907283114 0.00054073807380253778 0.037987673705672624 0.037987673705672624 0.037987673705672624 0.037987673705672624 0.00016113838758501699
decision_type=2 2 2 2 2 2 2 2 2 2 2 2 2 2 2 2 2 2 2 2 2 2 2 2 2 2 2 2 2 2
left_child=1 2 3 4 -1 -5 12 9 13 10 -3 -8 -4 -9 18 -11 21 -10 24 23 -21 28 -23 -20 26 29 -2 -26 -16 -18
right_child=14 7 6 5 -6 -7 11 8 17 15 -12 -13 -14 -15 16 -17 25 -19 19 20 -22 22 -24 -25 27 -27 -28 -29 -30 -31
leaf_value=0.17604677909222727 -0.031929119181091169 0.17896032275560952 -0.0044772481338272293 0.1563336364848455 0.098813816645749938 0.12183108883075379 -0.0082535068163110351 -0.02799655997791051 0.099166132499692056 0.18320535206392638 0.22924663497116304 0.13945152245704104 0.07659640759742932 0.067616799915598449 -0.033975471950254722 0.16064564481864657 -0.032410732373752582 0.15908089802764552 0.014823388709242378 0.10632260442279237 -0.010914698936377851 -0.034694448421887604 0.1435215002622485 -0.032801880466206641 -0.033832914894839659 -0.031894921170880081 -0.031255271885131976 -0.032584462280162978 -0.031697782699909249 -0.034015665996485145
leaf_weight=23240.49924967438 236.43848143611103 21335.935932148248 1339.5921165971085 273288.41785599291 35203.538052139804 29429.206259736791 349.50196900870651 549.29969320259988 433.94927391409874 3842.9735794775188 6261.4771208520979 10886.13390461728 5845.1466003656387 873.83789129927754 16.581380812451247 22125.283791407943 7.5868764519691458 2830.9444598332047 118.21918568387628 125.09419494308531 138.30032720789313 10.322732076048849 193.73911288008094 254.30089092813432 39.79347687214613 38.932507395744324 334.19296512380242 205.94422868266702 4.2159458715468636 44.52377887070179
leaf_count=91257 6329 42217 24209 1745348 349986 267493 5373 7010 2297 7762 17108 44541 59545 4761 169 16427 124 5614 952 1536 2888 94 346 4108 406 787 9500 2970 93 428
internal_value=0.149882 0.15048 0.1471 0.149184 0.129526 0.152979 0.106237 0.172507 0.114566 0.177578 0.19037 0.134857 0.0614803 0.0307122 0.00163934 0.163984 0.0751765 0.151117 -0.0143565 0.00817987 0.0447649 0.118966 0.134506 -0.017688 -0.0319114 -0.032975 -0.0315345 -0.0327866 -0.0335137 -0.033782
internal_weight=439604 437836 379582 361162 58444 302718 18420.4 58253.7 4688.03 53565.7 27597.4 11235.6 7184.74 1423.14 1768.19 25968.3 315.902 3264.89 1452.28 635.915 263.395 224.859 204.062 372.52 816.369 91.0432 570.631 245.738 20.7973 52.1107
internal_count=2721678 2690948 2587752 2454084 441243 2012841 133668 103196 19682 83514 59325 49914 83754 11771 30730 24189 2041 7911 28689 9484 4424 702 440 5060 19205 1339 15829 3376 262 552
is_linear=0
shrinkage=0.03


Tree=5
num_leaves=31
num_cat=0
split_feature=7 9 7 10 10 7 7 4 7 7 7 7 10 7 10 4 1 7 4 5 12 13 10 10 5 10 1 4 10 2
split_gain=32274.8 29542 31838.8 22004.5 35184.1 15091.8 10581.6 10514.7 9814.82 67760 14081.2 10009.7 4541.73 3951.67 3427.3 3196.9 1820.68 2163.31 1088.85 1095.51 206.392 963.281 0.276126 0.110719 0.0671955 0.0638241 0.0518586 0.0442165 0.0164788 0.0116521
threshold=0.99999878599090664 0.38252474159445843 0.99038348166542634 1.131681811788057e-05 8.932481185950393e-10 0.95238945817223175 0.9999974909547571 0.077530559784475012 0.48936096070878249 0.49999331461776114 0.46666506007004488 0.56716328945081429 0.00051180052314563843 0.39999731553983525 0.00052101335729362174 0.044286628962054632 2.1227262320826799 0.99999926335201683 0.080190175327564339 0.49247154960676848 0.025000000000000005 99.30701396056898 0.00054073807380253778 0.00016113838758501699 1.000817425255625 0.00015912101059095658 1.3807987743356456 0.059730238247977609 4.3134773787802342e-10 -0.0085163195496345424
decision_type=2 2 2 2 2 2 2 2 2 2 2 2 2 2 2 2 2 2 2 2 2 2 2 2 2 2 2 2 2 2
left_child=1 8 3 4 -3 -5 14 -8 10 12 13 -11 -10 -1 -4 -12 22 18 25 -20 21 -19 26 -22 -24 -18 28 -28 -2 -26
right_child=16 2 6 5 -6 -7 7 -9 9 11 15 -13 -14 -15 -16 -17 17 20 19 -21 23 -23 24 -25 29 -27 27 -29 -30 -31
leaf_value=0.13940926094976477 -0.031627484903269887 0.11526991928267169 0.15779788406597947 0.12580396556071843 0.033953388738469023 0.078810897977882474 0.031632406736128368 0.1311215333964281 0.25174570990802936 0.10584645926811888 -0.019290511269281385 0.14553689107163589 0.17724439645518847 0.11331897587492198 0.14250146187209045 0.092474893360170118 -0.03194674818899345 -0.032550294495992865 0.10635258470100294 -0.0049438718667747421 -0.031428290984143091 0.33754500741696808 -0.032524461437608086 -0.032750551332822841 -0.033184920507990899 -0.033831065309791686 -0.032418608890770029 -0.031552035327752616 -0.031111905731489579 -0.034488144622178189
leaf_weight=41226.490972643718 73.090116154402494 20772.10684591718 27746.305101986974 291050.44487172551 6223.6732612075284 6283.3632522262633 1310.6499953027815 3533.9489135798067 5800.536001374945 6507.704017996788 626.27776799350977 47164.590375429951 843.53263633325696 5982.9900549687445 25116.523597504944 364.32569584622979 21.87479086779058 32.753124594688416 389.04916049726307 100.0703309699893 71.628585241734982 7.8456397280096999 213.29309735447168 278.95710238441825 9.0405894368886965 62.117866160348058 76.018472246825695 174.95320554822683 235.75045119877905 19.477181978523731
leaf_count=246176 1858 124471 50121 1678561 143981 46027 10380 7687 11140 51295 9220 241266 582 46159 21046 2836 456 573 2077 1232 1948 58 3124 4312 110 728 1380 4488 8213 173
internal_value=0.129572 0.130033 0.126109 0.122456 0.096523 0.124811 0.146641 0.104206 0.143847 0.151912 0.133754 0.140724 0.242287 0.136103 0.15053 0.0218147 0.00154959 0.0293232 0.0664465 0.0835821 -0.025065 0.03897 -0.0318601 -0.0324804 -0.0327073 -0.0333403 -0.0314942 -0.0318145 -0.0312339 -0.034075
internal_weight=492319 490553 382037 324330 26995.8 297334 57707.4 4844.6 108516 60316.4 48200.1 53672.3 6644.07 47209.5 52862.8 990.603 1765.92 964.297 573.112 489.119 391.184 40.5988 801.623 350.586 241.811 83.9927 559.812 250.972 308.841 28.5178
internal_count=2721678 2690948 2082274 1993040 268452 1724588 89234 18067 608674 304283 304391 292561 11722 292335 71167 12056 30730 11384 4493 3309 6891 631 19346 6260 3407 1184 15939 5868 10071 283
is_linear=0
shrinkage=0.03


Tree=6
num_leaves=31
num_cat=0
split_feature=8 10 3 5 10 10 10 1 3 3 2 3 3 4 6 2 14 12 11 5 10 3 14 8 0 2 2 10 3 1
split_gain=20946.6 18016.5 10711.7 18114.7 9964.76 25434.4 17375 9753.92 8538.48 8157.26 6141.9 11201.4 8641.07 5810.44 5586.73 4988.75 6283.36 4781.15 4088.56 3212.73 2970.03 4079.47 2952.56 3004.5 2736.83 3334.3 2391.85 2345.61 2336.07 2137.86
threshold=-0.018679855929126847 0.00011091624140408703 0.023401145672090774 0.49960655708540519 4.2679172445575219e-06 5.5144547926037596e-10 0.00016113838758501699 0.55490162023718737 0.047811052763428279 0.012043601284115347 0.03858962627704824 0.037824765674560924 0.051755836450128302 0.01114904813267409 -0.35884674217152723 -0.060185052019438662 0.069878504504246472 0.22500000000000003 0.0033410795059781854 0.6538752998276105 7.0367481607483089e-10 0.027243745124956562 -0.21443092144998602 -0.074660669385788345 0.79028332246375099 -0.068732161461491956 -0.022371664093234715 0.00016321904719574811 0.062223615742981436 1.3260926435853209
decision_type=2 2 2 2 2 2 2 2 2 2 2 2 2 2 2 2 2 2 2 2 2 2 2 2 2 2 2 2 2 2
left_child=1 15 4 10 5 13 9 -7 19 -6 12 -12 -4 -2 24 20 17 -17 -10 -5 -1 -22 27 -24 25 -3 -18 -16 -26 -8
right_child=2 14 3 8 6 7 29 -9 18 -11 11 -13 -14 -15 22 16 26 -19 -20 -21 21 -23 23 -25 28 -27 -28 -29 -30 -31
leaf_value=0.095868730758594339 0.08995615104155881 0.051949756661638993 0.10370611200237727 0.12118367292530048 0.19184376809579493 0.277372410892261 0.12355479953053297 0.012905415053045197 0.09506271362977721 0.13999560069250519 0.10699524832117593 0.13407574547181164 0.039880006885494319 0.13212291078582039 0.32147201106568468 0.066513900377675017 0.12005070170858374 0.10209191813723979 0.11718602190065679 0.13177017824778373 0.11734069235737297 0.026100993763021739 0.086591956990555718 0.10787736108204156 0.13672800344932159 0.12004530073667838 0.051690352601629692 0.14529922929458877 0.0673119607698488 0.11322014403305795
leaf_weight=1157.8586253318936 4130.8608851507306 848.91002124547958 91418.766092244536 51886.155681665987 2956.2131494749337 131.18579620495439 42149.613157592714 2901.0300606358796 12238.509712486528 35846.179907528684 52621.400125324726 18607.951870869845 1949.7477625608444 10211.608344648033 73.763924516737461 4196.3889291975647 511.60520770028234 17900.768493194133 19492.577780607156 51315.086593694985 521.58837558701634 2855.9448960982263 6663.4603033326566 57209.976589839906 10936.331721086055 2723.02202286385 4624.7515604747459 873.10173653811216 454.45552160404623 31461.558841533959
leaf_count=4111 40504 8861 503780 226995 8574 1278 114912 64524 96592 164339 137131 127032 24709 44619 462 51786 6820 182094 117511 194268 5205 59548 51054 313790 53863 15146 68360 1325 3591 28894
internal_value=0.114225 0.102643 0.117234 0.114115 0.124433 0.103289 0.127701 0.0243473 0.122263 0.143946 0.107435 0.11407 0.102373 0.119978 0.11025 0.0835365 0.088388 0.0953354 0.108653 0.126448 0.0544052 0.040191 0.106436 0.105657 0.126774 0.103862 0.0584994 0.159024 0.133959 0.119138
internal_weight=540870 111552 429318 299530 129788 17374.7 112414 3032.22 134932 38802.4 164598 71229.4 93368.5 14342.5 79783 31768.9 27233.5 22097.2 31731.1 103201 4535.39 3377.53 64820.3 63873.4 14962.7 3571.93 5136.36 946.866 11390.8 73611.2
internal_count=2721678 826016 1895662 1428018 467644 150925 316719 65802 635366 172913 792652 264163 528489 85123 448092 377924 309060 233880 214103 421263 68864 64753 366631 364844 81461 24007 75180 1787 57454 143806
is_linear=0
shrinkage=0.03


Tree=7
num_leaves=31
num_cat=0
split_feature=9 10 9 3 3 5 3 1 3 10 10 9 1 5 8 5 14 10 8 5 6 11 5 8 5 1 10 9 5 5
split_gain=18195 15805.4 17530.8 9791.18 7990.16 7749.64 15310.6 7067.5 6292.98 5785.01 6207.12 5711.8 5695.35 4834.48 3721.98 4668.61 3575.01 3258.18 3154.42 3067.86 2446.43 2105.88 2042.06 1911.96 1787.59 1631.05 1462.84 1398.71 1391.14 1135.89
threshold=0.30436224711650273 6.938589353072459e-05 0.50535872878010113 0.06767731326762623 0.028571424556579673 0.50982141884874022 0.027641876470098924 1.7505227449108915 0.014604507229391271 3.3358901774475251e-10 4.2679172445575219e-06 0.53670684347602748 1.1368870835390716 0.47656244919225638 -0.01698902616559592 0.51489356577587542 0.069878504504246472 0.00015912101059095658 0.012624498227584947 1.024556699110273 -0.62352401759356335 0.0027260084441230888 0.47429814228606343 -0.034436568554944522 0.17187867983955921 0.59365388753780934 0.00011555422074978072 0.54649293042301672 0.49486832690444393 0.54234045736442582
decision_type=2 2 2 2 2 2 2 2 2 2 2 2 2 2 2 2 2 2 2 2 2 2 2 2 2 2 2 2 2 2
left_child=8 2 4 5 13 6 -3 16 9 21 25 -7 -6 -2 15 23 -4 20 -9 28 -16 24 -19 -10 -1 -11 -12 -21 -5 -17
right_child=1 3 7 19 12 11 -8 18 14 10 26 -13 -14 -15 17 29 -18 22 -20 27 -22 -23 -24 -25 -26 -27 -28 -29 -30 -31
leaf_value=0.19409344135818318 0.10410862864131193 0.10686470108895639 0.06983294227169673 0.026007029542009046 0.079535778587317058 0.11392891939574458 0.092633670422644296 0.037089861588432693 0.062831759529692055 0.18615821670774041 0.17644760477258903 0.10185314868740419 0.1072386399683062 0.13617912642935776 0.075998287069366829 0.1657657604821012 0.035249717920848238 0.10254542118559723 0.10963794500775034 0.11312903414598137 0.13181401999890127 0.03244697035428401 0.12284580076366544 0.096802779317292378 0.28950590730828613 -0.020607725282548763 0.12746663128497931 0.064350896393740253 0.064750202039698584 0.118880476961244
leaf_weight=332.06968631781638 30558.825390666723 156488.7590928115 25297.054660603404 1026.9390993714333 22276.992070441134 89735.376953920349 120378.5940229129 600.53685584664345 2278.9017325891182 39.747093543410301 1234.2474098093808 58061.244888292626 9538.9955681236461 4910.1272095981985 735.01088930852711 522.09297043271363 3010.3655402194709 9708.4700187463313 5298.3702467009425 1686.6661066412926 18376.813262650743 44.643122404813766 8248.8492491655052 4313.2910550013185 377.77762524038553 252.2237262353301 988.0745105817914 770.89491014182568 4442.1337676905096 4256.9107087887824
leaf_count=2378 196072 400114 271448 11373 242523 351465 585639 4827 21323 305 3061 227459 73687 20353 5773 2782 43870 26826 20484 4044 93406 629 17881 23648 1637 4925 1615 3582 39980 18569
internal_value=0.102167 0.100522 0.089867 0.103022 0.098757 0.103638 0.100677 0.0723801 0.119159 0.159447 0.137585 0.109185 0.0878416 0.108548 0.11644 0.101426 0.0661552 0.121046 0.102252 0.0699862 0.129667 0.232302 0.111871 0.0850591 0.244872 0.00754011 0.15467 0.0978282 0.0574753 0.124003
internal_weight=585791 534082 101491 432591 67284.9 424664 276867 34206.3 51709.1 3268.78 2514.29 147797 31816 35469 48440.3 11371.2 28307.4 37069.1 5898.91 7926.63 19111.8 754.49 17957.3 6592.19 709.847 291.971 2222.32 2457.56 5469.07 4779
internal_count=2721678 2496920 873264 1623656 532635 1564677 985753 340629 224758 14550 9906 578924 316210 216425 210208 66322 315318 143886 25311 58979 99179 4644 44707 44971 4015 5230 4676 7626 51353 21351
is_linear=0
shrinkage=0.03


Tree=8
num_leaves=31
num_cat=0
split_feature=8 9 10 2 13 10 5 9 9 14 9 14 13 13 1 2 13 5 2 3 2 10 13 2 3 2 3 5 13 12
split_gain=16731.4 13116.5 12388.1 8469.18 10467.5 8600.49 7244.67 5561.9 5334.03 3937.29 3735.28 3532.17 3004.76 3080.11 2870.63 3901.37 6681.89 3027.51 5069.49 3054.76 2694.61 2454.41 2293.19 1976.85 1778.95 3605.35 1300.84 1109.95 992.011 637.031
threshold=-0.018679855929126847 0.26494333858735836 0.00011091624140408703 -0.035940487875276476 24.234149432835341 0.00010512577739566694 0.40336128098299268 0.45334681184920717 0.46197531974507733 0.069878504504246472 0.49763082671933417 -0.24212129291234136 87.271637919463828 46.208604529532607 0.80534569123992583 -0.02880703197728603 69.988491971527907 0.47429814228606343 -0.056026061880340088 0.047529363617038536 -1.0000000180025095e-35 0.00016526551369945951 16.193504172009323 0.0014760729481166216 0.015291805853893821 -0.014813919926381593 0.042269436365030423 0.4652280126842529 10.490122494438952 0.97500000000000009
decision_type=2 2 2 2 2 2 2 2 2 2 2 2 2 2 2 2 2 2 2 2 2 2 2 2 2 2 2 2 2 2
left_child=2 21 8 5 11 7 -6 -3 9 23 -7 -5 13 -10 17 16 -16 19 -19 -4 -11 24 -17 -1 25 -2 -26 28 -23 -29
right_child=1 3 14 4 6 10 -8 -9 12 20 -12 -13 -14 -15 15 22 -18 18 -20 -21 -22 27 -24 -25 26 -27 -28 29 -30 -31
leaf_value=0.075827110846349424 -0.0084924952870490539 0.078282310410673836 0.079212754437510954 0.15773129029317479 0.089322286240571466 0.098331086022207637 0.097850019624043424 0.038786251667998421 0.045420486049259953 0.098485240236846974 0.079104280540781183 0.10558357724339923 0.013712109940963843 0.072872952645022901 0.098546259329337249 0.13709587871630194 0.16078209888985878 0.068797120989806587 0.099009612359162336 0.043950777258123928 0.03747003016168577 0.16053032171333595 0.08467532735358467 0.096914361940665647 0.12345305017962034 0.16126572782170198 0.092021835757323089 0.11668520551531893 0.093698380380465796 0.042731686813251443
leaf_weight=9615.7247135508806 119.95639249309897 7422.0148986894637 19076.921079933643 1191.9748174976557 195627.99443649501 19905.319717237726 165518.21023827419 5652.9803540445864 7341.94075217098 833.30825043842196 16743.219212152064 60642.081038396806 1436.1641013883054 7371.2879621386528 18796.984640877694 773.8746456541121 1692.3928172979504 6956.6218479219824 17757.277475319803 2500.964734936133 2984.4611808629707 207.49202132597566 25485.13168682158 6852.2577666277066 10885.12328148447 1835.3779084943235 1329.849036956206 5239.6093677803874 5455.8037633560598 106.97004083544016
leaf_count=88615 1808 62627 96469 2417 693969 100986 566260 64867 90265 8693 97082 222043 22990 75652 89561 2559 6419 45394 76248 22911 39019 542 108531 52690 41888 7592 11826 8470 12857 428
internal_value=0.0924321 0.0949305 0.0828249 0.0938067 0.0951834 0.0820948 0.0932307 0.0612062 0.0679961 0.0782377 0.0895471 0.106589 0.0551312 0.0591741 0.0886319 0.0938757 0.103687 0.0833364 0.0905052 0.0751257 0.0507879 0.116028 0.0862202 0.0846014 0.124284 0.150851 0.120031 0.105402 0.096147 0.115206
internal_weight=627359 497884 129475 472704 422980 49723.5 361146 13075 36435.1 20285.8 36648.5 61834.1 16149.4 14713.2 93040.2 46748.4 20489.4 46291.8 24713.9 21577.9 3817.77 25180.2 26259 16468 14170.3 1955.33 12215 11009.9 5663.3 5346.58
internal_count=2721678 1895662 826016 1810251 1484689 325562 1260229 127494 377924 189017 198068 224460 188907 165917 448092 207070 95980 241022 121642 119380 47712 85411 111090 141305 63114 9400 53714 22297 13399 8898
is_linear=0
shrinkage=0.03


Tree=9
num_leaves=31
num_cat=0
split_feature=7 7 9 10 3 5 8 7 7 10 3 7 2 1 3 7 4 1 7 7 7 1 1 10 10 4 10 12 7 12
split_gain=21210.2 30645 16924.7 13810.5 11613.4 16981.3 8077.8 5993.34 12867.6 6419.08 5077.04 5348.75 4988.82 4856.17 4513 4404.1 18216.7 6589.23 4320.22 4265.52 4111.36 2836.66 2749.08 2999.73 2937.48 2259.36 2163.63 396.017 474.932 113.367
threshold=0.99038348166542634 0.99999826908363898 0.54945490304487687 9.4053691581186445e-05 0.026831407409765039 0.6538752998276105 0.030166345424924076 0.79999451312274095 0.48936096070878249 1.5993165334362301e-05 0.049261067160760959 0.91999478045583361 -0.0080252075706572206 1.7787070833761067 0.042874666889768681 0.99999166881628698 0.026011559442381187 0.75604223381642 0.99999926335201683 0.16129003028352332 0.66666349207861175 1.0521164356805783 1.3470314154798599 1.0600875247917506e-05 0.00049341818530538423 0.080190175327564339 8.932481185950393e-10 0.058333333333333341 0.99999878599090664 0.025000000000000005
decision_type=2 2 2 2 2 2 2 2 2 2 2 2 2 2 2 2 2 2 2 2 2 2 2 2 2 2 2 2 2 2
left_child=2 15 4 12 7 6 -6 8 -1 -9 19 -12 26 27 -7 22 21 -18 25 -5 -14 -17 24 -24 -2 -15 -4 28 -3 -20
right_child=1 13 3 10 5 14 -8 9 -10 -11 11 -13 20 18 -16 16 17 -19 29 -21 -22 -23 23 -25 -26 -27 -28 -29 -30 -31
leaf_value=0.08533825395199339 0.12173131415403189 0.049827092807424964 0.057489258893484621 0.067666159708600709 0.071772576448851585 0.1000746840067494 0.085577466817489886 0.028363320866930559 0.10284084845449844 0.082316061491521889 0.066471019352398159 -0.00030506898191177918 0.075012830965030003 -0.0060367584817346866 0.085230553909880893 -0.010338454100029756 0.041273293231433944 0.10319848827333128 0.0069502966884912466 0.082977741848395792 0.045320217639660376 0.053269070510667961 -0.024278830370727613 0.099564290123654003 0.10325515636551237 0.072317847676861752 0.027329220480524156 -0.030873946998412637 -0.032569760625153911 -0.033119905589196932
leaf_weight=81610.18370722048 17200.252784412354 132.13909667916596 3176.3127774465829 20137.677527591586 121299.26128513552 39891.532527919859 55649.05987864919 2169.5838946718723 70427.219903480262 23286.215145645663 12423.694828059524 1182.3127620145679 11157.759108653292 390.86687848158181 34267.37741718255 1451.8529559783638 1625.0148249883205 31995.843014966697 72.032346410676837 87630.407390147448 6727.3973931334913 1116.0745005048811 177.97400152310729 16095.733643874526 14087.521255396307 2169.8812054675072 6565.9638018850237 1167.2294831369072 120.2537928391248 539.37423526868224
leaf_count=304666 28616 517 17906 89592 750328 134427 238026 23869 195826 61978 76198 10874 82977 3117 183608 9893 7572 29305 877 265498 58041 2959 977 5457 9033 6876 93938 18788 2047 7892
internal_value=0.0843824 0.0980725 0.0822886 0.073579 0.0853164 0.0811646 0.0761141 0.0911901 0.0934459 0.0777177 0.0779365 0.0606684 0.0544353 0.0226119 0.0932155 0.10221 0.094323 0.100205 0.0432508 0.0801166 0.0638441 0.0173067 0.108211 0.0982099 0.113412 0.060358 0.0371624 -0.0235059 0.0105687 -0.0283991
internal_weight=665944 88342 577602 149002 428600 251107 176948 177493 152037 25455.8 121374 13606 27627.4 4591.78 74158.9 83750.3 36188.8 33620.9 3172.15 107768 17885.2 2567.93 47561.5 16273.7 31287.8 2560.75 9742.28 1419.62 252.393 611.407
internal_count=2721678 133926 2587752 695024 1892728 1306389 988354 586339 500492 85847 442162 87072 252862 40114 318035 93812 49729 36877 18762 355090 141018 12852 44083 6434 37649 9993 111844 21352 2564 8769
is_linear=0
shrinkage=0.03


Tree=10
num_leaves=31
num_cat=0
split_feature=7 7 7 3 7 7 7 7 7 1 1 7 4 4 7 8 4 3 7 3 7 1 4 10 10 8 12 7 13 13
split_gain=19703 25694.7 14323.6 12800.2 9767.7 36595.9 8577.28 16893.8 9831.49 8419.27 4466.2 4031.1 9070.97 4112.65 3892.43 2573.82 2541.85 2289.35 2274.69 2233.89 2387.62 2340.8 1977.33 1104.57 693.743 566.055 385.24 440.724 380.524 118.853
threshold=0.99038348166542634 0.99999826908363898 0.95238945817223175 0.027915601174162263 1.0000000180025095e-35 0.076922479551771172 0.19992018436228901 1.0000000180025095e-35 0.19999769326572556 1.3470314154798599 1.7787070833761067 0.9999964290568194 0.034081782160954158 0.077530559784475012 0.99999926335201683 0.025055522171529936 0.033566428773357408 0.040141777263041974 0.98147965439790019 0.037662332647610201 0.99998339804298697 1.2379931098976418 0.080190175327564339 0.00054073807380253778 0.00014392341306768903 -0.11916159678255443 0.058333333333333341 0.99999878599090664 89.905062340393584 99.30701396056898
decision_type=2 2 2 2 2 2 2 2 2 2 2 2 2 2 2 2 2 2 2 2 2 2 2 2 2 2 2 2 2 2
left_child=2 11 3 6 24 -6 7 -1 -8 16 26 19 25 -14 22 23 28 -18 -17 20 -2 -21 -12 -11 -5 -13 27 -3 -4 -16
right_child=1 10 9 4 5 -7 8 -9 -10 15 14 12 13 -15 29 18 17 -19 -20 21 -22 -23 -24 -25 -26 -27 -28 -29 -30 -31
leaf_value=0.093090282088035034 0.10191413108825989 0.046921588678997837 -0.025759125150163525 0.10973230568244742 0.011665748503136572 0.072817518865865502 0.13045629638739695 0.056942491871941524 0.082840268773635969 -0.0056701872829100861 -0.005880444666787105 0.15683068187256982 0.059863031150888618 0.099275273564412694 -0.033174795240284778 0.080582986048913771 0.051919953280809651 -0.0029898543570808975 -0.0020814812046559428 0.096457600545606842 0.08907061424864271 0.11731828407028294 0.067328817329920493 0.056711718593439549 0.09120355212952834 -0.028754833613839695 -0.030716431428624711 -0.032490115536070285 0.043298451652369931 0.0078266895617528053
leaf_weight=18202.648572493345 19994.858770743012 136.04958323016763 1482.7182715646923 2036.9521416518837 9071.7857590913773 302419.09353873506 3975.0853054337204 32255.545071028173 214061.10480960459 578.2126641087234 389.24417900294065 15.103005807846783 3827.0405634976923 6314.6378041431308 524.98865521140397 4055.3340653777122 1424.714454581961 1313.2981500700116 323.48776003904641 11529.452083159238 37381.104946218431 8345.2999320328236 2259.3073942735791 457.6506482437253 16969.540529645979 717.20789231173694 1138.4538740077987 116.98150962870568 75.46800191141665 72.404174780473113
leaf_count=48685 18359 517 20957 10118 77543 1553805 7198 159534 636235 5009 3117 32 9659 5240 7518 8492 8610 14850 1953 15421 34971 4753 6876 1472 32454 5377 18788 2047 837 1251
internal_value=0.0776401 0.0905197 0.0756774 0.0762633 0.0723105 0.0710365 0.0811289 0.0699827 0.0837084 0.0395342 0.0216912 0.0941417 0.0770399 0.0844028 0.0409674 0.0644162 0.00817436 0.0255823 0.0744761 0.096549 0.0935464 0.105217 0.0565696 0.0218905 0.0931893 -0.0249274 -0.0232746 0.0102079 -0.0224144 -0.0282054
internal_weight=701465 92762.1 608703 598992 330497 311491 268494 50458.2 218036 9710.88 4637.43 88124.7 10874 10141.7 3245.94 5414.69 4296.2 2738.01 4378.82 77250.7 57376 19874.8 2648.55 1035.86 19006.5 732.311 1391.48 253.031 1558.19 597.393
internal_count=2721678 133926 2587752 2525572 1673920 1631348 851652 208219 643433 62180 40114 93812 20308 14899 18762 16926 45254 23460 10445 73504 53330 20174 9993 6481 42572 5409 21352 2564 21794 8769
is_linear=0
shrinkage=0.03


Tree=11
num_leaves=31
num_cat=0
split_feature=7 7 3 10 10 10 10 10 7 7 7 1 1 10 1 10 7 1 7 7 4 1 4 7 7 4 8 10 3 13
split_gain=18667.4 21895.9 12228.2 9375.69 15152.1 13325.5 7246.16 15910.6 8354.96 7174.31 7880.62 6285.31 5751.21 5523.71 5194.36 7296.66 5505.22 4119.06 3524.59 3369.9 7982.25 3498.42 2004.64 10346.7 9784.1 1743.5 495.223 176.285 407.691 116.928
threshold=0.99038348166542634 0.99999826908363898 0.027915601174162263 9.4053691581186445e-05 3.2642429295236506e-09 1.131681811788057e-05 1.0600875247917506e-05 7.0367481607483089e-10 0.85714110366620511 0.92307309370141533 0.19992018436228901 0.55490162023718737 1.0476056967336722 5.0064244821223811e-12 0.80534569123992583 0.00015912101059095658 0.91139123025460378 1.7787070833761067 0.99999926335201683 0.9999964290568194 0.034081782160954158 1.2541358494633397 0.031791902920245273 0.99996688325196759 0.999988892152474 0.080190175327564339 -0.11916159678255443 0.00042143824905057416 0.028304264944394534 99.30701396056898
decision_type=2 2 2 2 2 2 2 2 2 2 2 2 2 2 2 2 2 2 2 2 2 2 2 2 2 2 2 2 2 2
left_child=2 19 6 4 13 -6 7 8 -1 10 -5 -9 -11 -4 16 -16 -8 27 25 22 26 -22 24 -24 -2 -19 -21 -3 -29 -20
right_child=1 17 3 9 5 -7 14 11 -10 12 -12 -13 -14 -15 15 -17 -18 18 29 20 21 -23 23 -25 -26 -27 -28 28 -30 -31
leaf_value=0.074972637716262849 0.093755972917445321 -0.032432918745840172 -0.010248108276521612 0.060114548320573474 0.0060367433845422407 0.054913303567244276 0.070479671937371202 0.13945569364246072 -0.0043980889280727875 0.023476617168848329 0.073100643030530127 0.015111825137987431 0.062482938237805596 0.083071100240758547 0.087519790946730583 0.0747934732061869 0.0018983007921006499 -0.0057276008996055257 -0.033075051117707491 0.13620513842136367 0.037268774535994885 0.085819572405629735 -0.0342340322245651 0.096291403329837724 0.061076533592588245 0.062956967018617221 -0.028421619017505586 0.069000001752640719 -0.018489648998439162 0.0075398556268817685
leaf_weight=29438.985746707767 30659.77600780502 776.02613417524844 587.69138858094811 53550.504916846752 5459.8474762085825 62353.275486774743 66167.475071612746 386.98023437894881 1244.0610330030322 5205.6605401989073 195968.06035294384 6705.0420141071081 9818.5645568817854 19934.965943710878 61734.165582671762 118145.80699150264 1070.4697891902179 387.6666679289192 510.98609660379589 16.838630154728889 1568.9218739196658 8987.2604537382722 554.49793658405542 38270.483416087925 11278.661964803934 2342.3784988615662 704.04787560924888 52.651501711457968 535.2201218996197 72.896188531070948
leaf_count=107708 28368 15972 5409 234375 92911 558102 230398 3199 12999 36818 713455 99319 33221 43878 198140 210491 7329 3117 7518 32 6029 8870 3427 17630 24079 6876 5377 98 5282 1251
internal_value=0.0718706 0.084152 0.0700081 0.0662756 0.0578133 0.0509781 0.0746313 0.062394 0.0717545 0.0691013 0.0703136 0.0218967 0.0489679 0.0803988 0.0765019 0.0791611 0.0693878 0.0208356 0.0388957 0.0873699 0.0720079 0.0786037 0.089515 0.0944272 0.0849674 0.0532038 -0.0245762 -0.0230456 -0.0106538 -0.0280044
internal_weight=734490 96718.3 637772 352879 88335.8 67813.1 284893 37775.1 30683 264543 249519 7092.02 15024.2 20522.7 247118 179880 67237.9 4677.83 3313.93 92040.5 11277.1 10556.2 80763.4 38825 41938.4 2730.05 720.887 1363.9 587.872 583.882
internal_count=2721678 133926 2587752 1718169 700300 651013 869583 223225 120707 1017869 947830 102518 70039 49287 646358 408631 237727 40114 18762 93812 20308 14899 73504 21057 52447 9993 5409 21352 5380 8769
is_linear=0
shrinkage=0.03


Tree=12
num_leaves=31
num_cat=0
split_feature=7 7 7 7 1 7 7 7 8 7 1 7 7 4 4 4 7 7 4 10 4 10 4 4 10 8 10 3 13 1
split_gain=17963.1 18936.4 11498 52814.1 16594 13403.2 36482.1 22968.8 7627.92 6775.13 3808.23 3205.3 2874.23 7089.88 3263.34 1845.63 12761.3 6954.9 1547.27 1301.48 4535.88 3942.14 2435.75 1933.57 1598.99 440.965 175.488 386.624 115.061 0.993618
threshold=0.99038348166542634 0.99999826908363898 1.0000000180025095e-35 0.088607481369461408 1.3061500208839238 0.74999674486662127 0.74509729079856624 0.77732452549357534 0.039117700080940954 0.055555233461987458 1.7787070833761067 0.99999926335201683 0.9999964290568194 0.034081782160954158 0.077530559784475012 0.025333330787815623 0.999988892152474 0.99996688325196759 0.080190175327564339 5.09295948646789e-06 1.0000000180025095e-35 2.9696796166052463e-05 0.013611446597174989 0.0084991607717426476 0.00014392341306768903 -0.11916159678255443 0.00042143824905057416 0.03423082112262605 99.30701396056898 1.4172217162968341
decision_type=2 2 2 2 2 2 2 2 2 2 2 2 2 2 2 2 2 2 2 2 2 2 2 2 2 2 2 2 2 2
left_child=2 12 19 4 9 6 -5 -7 -6 -4 26 18 15 25 -15 16 -2 -17 -12 20 29 22 -21 -22 -23 -14 -3 -28 -13 -1
right_child=1 10 3 5 8 7 -8 -9 -10 -11 11 28 13 14 -16 17 -18 -19 -20 21 23 24 -24 -25 -26 -27 27 -29 -30 -31
leaf_value=-0.032993293647604609 0.085934970978768288 -0.032359446860156349 -0.019252937474180953 0.066592524320811142 0.032126437155220178 0.015864710355332125 0.10800539246837849 0.061392374414245929 0.10976953372648467 0.019541762527515966 -0.0055781782634033448 -0.0329786256356287 0.12068204259842703 0.052371468452165559 0.086275958408492906 0.0026033766727067563 0.031947719301603623 0.08831809623259361 0.059089600005039489 0.20849852312752024 0.14034733063284366 0.095789156883646212 0.10512692490996707 0.06308776245145864 0.077917136189242592 -0.028092270151540588 0.040688042411745708 -0.022127138184264459 0.0072654164816050183 -0.037030051417543279
leaf_weight=330.94919424876571 25743.982870906591 754.77517184428871 6662.4924904238433 419113.87124465965 2415.5358613971621 10670.500999629498 20061.223824672401 152593.55492079072 2154.5236443057656 10338.225744409487 386.13319153897464 497.31217882968485 18.407980401068926 4074.8558570928872 6850.1393004357815 865.99385937675834 4652.7136478871107 52595.530642651021 2419.5792864169925 335.12418854236603 361.3826273791492 5234.9407499618828 528.96065794676542 1508.4778152033687 32333.292345177382 691.12922767549753 108.34567581489682 473.95751221850514 73.372821759432554 65.786431789398193
leaf_count=4647 25414 15972 64835 1704979 12177 62135 30988 546180 2356 72845 3117 7518 32 9659 5240 4023 15868 28199 6876 992 1016 16345 2379 6874 58519 5377 392 4988 1251 485
internal_value=0.0668971 0.0787377 0.0651121 0.0641044 0.0179807 0.0657559 0.0684842 0.0584168 0.0687307 0.00433832 0.0200377 0.037007 0.0816351 0.0676619 0.0736301 0.0835737 0.0776713 0.0869297 0.0501898 0.0805618 0.0584711 0.0818647 0.145218 0.0780195 0.0804075 -0.0242325 -0.0228132 -0.0104395 -0.0278045 -0.0336627
internal_weight=764915 100206 664709 624010 21570.8 602439 439175 163264 4570.06 17000.7 4713.48 3376.4 95492.8 11634.5 10925 83858.2 30396.7 53461.5 2805.71 40698.9 2266.6 38432.3 864.085 1869.86 37568.2 709.537 1337.08 582.303 570.685 396.736
internal_count=2721678 133926 2587752 2496495 152213 2344282 1735967 608315 14533 137680 40114 18762 93812 20308 14899 73504 41282 32222 9993 91257 13022 78235 3371 7890 74864 5409 21352 5380 8769 5132
is_linear=0
shrinkage=0.03


Tree=13
num_leaves=31
num_cat=0
split_feature=7 7 9 14 2 7 7 7 7 7 13 5 7 4 8 2 7 6 4 7 7 6 3 13 7 2 9 8 5 5
split_gain=17545.7 16794.9 10911.4 8779.59 7846.75 7588.04 61573.4 14101.9 6444 17772.5 6092.41 5093.82 4920.21 6048.7 4623.13 2841.18 2295.05 2048.31 1899.46 5265.45 3471.98 1283.98 1178.76 1092.6 747.861 647.423 430.08 425.1 562.228 183.663
threshold=0.99038348166542634 0.99999878599090664 0.51420279937259594 0.091351474763659207 0.016060715396047091 0.48936096070878249 0.49999500004999786 0.4285706241431439 1.0000000180025095e-35 0.076922479551771172 67.754494651806723 0.6538752998276105 0.9999974909547571 0.069454412800120227 0.032032643489024383 0.15504710968584859 1.0000000180025095e-35 0.64037894789815442 0.061762539906976492 0.99999372981993828 0.99998339804298697 0.916479186808277 0.0083506646448212977 85.07865357061381 0.99999926335201683 0.13621565167451272 0.73394434200165259 0.12690484013121767 0.51232123897292503 0.24569868907132855
decision_type=2 2 2 2 2 2 2 2 2 2 2 2 2 2 2 2 2 2 2 2 2 2 2 2 2 2 2 2 2 2
left_child=2 12 3 5 8 7 -7 -1 22 -10 15 14 18 17 -5 -6 -12 -14 19 -2 -20 27 -4 -13 26 -15 -23 29 -29 -3
right_child=1 21 4 11 10 6 -8 -9 9 -11 16 23 13 25 -16 -17 -18 -19 20 -21 -22 24 -24 -25 -26 -27 -28 28 -30 -31
leaf_value=0.06274490190197024 0.079726717794838337 0.00080429446936000333 0.1748814070295121 0.033039056477227109 0.069177223258181916 0.1139413214510461 0.063035623641594346 0.031750293578566229 -0.0031354040547763177 0.051202139426707961 0.082912121635838471 0.038643701520720809 -0.024652081711105622 0.056945923006791181 0.060098211164030343 0.0003653324222503477 0.053309286399218912 0.041021335280454457 -0.026562112470796904 0.060294338580562844 0.089539747607619916 -0.0025639176722799871 0.069997857755810217 0.074662020331475357 -0.033348898462021506 0.077143481841175823 0.077720942084111011 0.028622980798455371 -0.032830478188078528 -0.033148624362722798
leaf_weight=176874.17054635659 63379.882893405855 165.65210112370551 97.158315632492304 16699.044398134574 56006.634514592588 24012.139819346368 195433.84461893141 14277.820484194905 5685.797195320949 114765.98773486912 2464.177467122674 856.85574946179986 996.6225446946919 2779.8834311272949 8613.9290852081031 545.28382285684347 54216.54314451851 748.38781407289207 235.62243132665753 15647.815597441047 14345.220802210271 77.71476667560637 13026.987038984895 6568.2707247566432 101.25156432203948 2937.8623426184058 264.21494503319263 322.58709626831114 229.17506807856262 1066.7952968748286
leaf_count=665421 51816 3338 331 108966 128729 31261 680096 79127 49155 552196 3012 4252 8325 5101 35017 2248 192822 2433 1396 25135 5167 415 33455 21664 1339 3823 287 3420 3828 18103
internal_value=0.0625188 0.07405 0.0607929 0.0636074 0.0557372 0.0647995 0.0686058 0.0604298 0.0508122 0.0486372 0.0615471 0.0486563 0.0758457 0.052403 0.0422472 0.0685137 0.0545963 0.00351347 0.0777146 0.075879 0.0876636 -0.00743513 0.0707743 0.0705055 0.0382669 0.0673237 0.0594736 -0.0187871 0.00309821 -0.028585
internal_weight=793443 103299 690145 443336 246809 410598 219446 191152 133576 120452 113233 32738.1 101071 7462.76 25313 56551.9 56680.7 1745.01 93608.5 79027.7 14580.8 2227.39 13124.1 7425.13 443.181 5717.75 341.93 1784.21 551.762 1232.45
internal_count=2721678 133926 2587752 1625804 961948 1455905 711357 744548 635137 601351 326811 169899 103196 19682 143983 130977 195834 10758 83514 76951 6563 30730 33786 25916 2041 8924 702 28689 7248 21441
is_linear=0
shrinkage=0.03


Tree=14
num_leaves=31
num_cat=0
split_feature=7 7 7 8 7 7 7 7 7 7 4 6 1 4 7 7 6 1 1 7 4 14 7 1 13 13 6 9 12 1
split_gain=17173.7 14917.8 9900.08 9743.14 7271.55 43939.6 14863.5 6170.08 4732.2 4348.58 5412.02 3536.56 1890.25 1821.32 8738.6 7782.47 1208.5 955.018 839.455 824.248 1033.85 703.197 685.74 606.647 550.426 422.82 556.109 399.143 267.899 1.08952
threshold=0.99038348166542634 0.99999878599090664 0.96825242713277448 -0.018679855929126847 0.66666349207861175 0.65999932791065141 0.69892397686053831 0.92307309370141533 0.32558060783625797 0.9999974909547571 0.077530559784475012 0.59966989773377966 1.3362076187810452 0.031639497702917123 0.999988892152474 0.99996688325196759 0.916479186808277 1.2620912264450583 1.0568938483087875 0.97435707741803668 0.038647333430599971 0.020802532593206795 0.99999926335201683 1.6275137149391787 99.30701396056898 90.660913354017879 0.59096073282724082 0.67946570834678666 0.90833333333333344 1.7787070833761067
decision_type=2 2 2 2 2 2 2 2 2 2 2 2 2 2 2 2 2 2 2 2 2 2 2 2 2 2 2 2 2 2
left_child=2 9 3 7 5 -5 -6 8 -1 13 12 19 -11 14 -2 -15 25 28 -9 20 -4 -19 27 -12 -21 29 -27 -18 -13 -3
right_child=1 16 11 4 6 -7 -8 18 -10 10 23 17 -14 15 -16 -17 22 21 -20 24 -22 -23 -24 -25 -26 26 -28 -29 -30 -31
leaf_value=0.045779733975123214 0.076879013092645346 -0.032071864169365617 -0.027974472216038354 0.058923882730884808 0.02043378204901709 0.10136752855103598 0.056589374818449056 -0.0047332123217853151 0.056172963598775882 -0.031097586931645119 0.039945345041139071 -0.034542417419326781 0.029395746156564817 -0.034304523450509779 0.047498178249977867 0.078528255945680858 -0.037527388741551565 0.064502149235567532 0.030284668008238192 -0.025931110807041718 0.033136245345843987 0.02329568101482854 -0.033242020977565748 0.068808046474102075 0.15434698431350299 -0.032317351443705213 0.016557943649055776 0.067274586363216649 0.063602355461772411 -0.03418052613140659
leaf_weight=70544.138540957123 34012.664091058075 492.12255352642387 398.66698383353651 321573.7334173806 10813.501557163894 23560.308232270181 190690.89655732922 1888.589193591848 89388.148496806622 726.6923994589597 757.8620735835284 162.98023523762822 1290.3746608793736 556.37752278521657 12444.137856349349 49237.107223343104 36.516790186986327 1140.6238158605993 914.42435429245234 1524.3490889873356 664.33786915801466 553.63936574012041 98.570270352065563 4847.5354636237025 15.396436676383017 356.29817805532366 508.59617332741618 313.43966257199645 29.572952155023813 399.59191702492535
leaf_count=347045 28322 11475 4394 1105865 53515 32148 566532 16861 428653 7010 2370 1909 4761 3438 26777 24977 283 1945 5822 16187 4144 2438 1339 5541 70 6795 5485 419 224 4934
internal_value=0.0586517 0.0699148 0.056978 0.0572591 0.0591774 0.0618213 0.0546491 0.0508153 0.0515886 0.071554 0.0497419 0.0125693 0.0076017 0.0732814 0.0690089 0.0772675 -0.00729905 0.0438417 0.00669064 -0.010101 0.0102174 0.051037 0.0366522 0.0649057 -0.0241284 -0.0185214 -0.00357651 0.0563388 -0.019469 -0.0330168
internal_weight=819941 106078 713863 709374 546638 345134 201504 162735 159932 103873 7622.46 4489.57 2017.07 96250.3 46456.8 49793.5 2205.14 1886.82 2803.01 2602.75 1063 1694.26 448.527 5605.4 1539.75 1756.61 864.894 349.956 192.553 891.714
internal_count=2721678 133926 2587752 2556441 1758060 1138013 620047 798381 775698 103196 19682 31311 11771 83514 55099 28415 30730 6516 22683 24795 8538 4383 2041 7911 16257 28689 12280 702 2133 16409
is_linear=0
shrinkage=0.03


Tree=15
num_leaves=31
num_cat=0
split_feature=7 7 7 7 8 14 7 7 10 10 7 4 7 4 4 4 7 7 5 5 10 10 4 10 2 4 5 8 13 6
split_gain=16969.4 13386.1 9706.14 41331.6 12960.9 11698.7 8261.93 6533.9 5748.83 3806.25 2950.95 2644.15 2134.87 5779.09 2392.93 1975.66 10403.9 4726.28 1525.23 1309.77 1647.09 3457.41 2202.57 863.171 1058.24 429.133 407.712 374.606 89.3779 363.752
threshold=0.99038348166542634 0.99999826908363898 1.0000000180025095e-35 0.088607481369461408 0.039875823414962604 0.082682941042676039 0.95238945817223175 0.039999839474958256 0.00029340757393943106 0.00010655943302145163 0.99999926335201683 0.080190175327564339 0.9999964290568194 0.034081782160954158 0.077530559784475012 0.024941767597966905 0.99998339804298697 0.99996688325196759 0.50202156638568185 0.40928389845596092 5.09295948646789e-06 4.3134773787802342e-10 0.013611446597174989 0.00014047923000317896 -0.015315124116848813 0.020588228332846743 0.56686768355445549 -0.11916159678255443 99.30701396056898 0.87208965790455795
decision_type=2 2 2 2 2 2 2 2 2 2 2 2 2 2 2 2 2 2 2 2 2 2 2 2 2 2 2 2 2 2
left_child=2 12 19 4 7 6 -5 -4 -7 -6 11 26 15 27 -15 16 -2 -17 -13 20 21 -1 -22 24 -21 -25 -3 -14 -12 -30
right_child=1 10 3 5 9 8 -8 -9 -10 -11 28 18 13 14 -16 17 -18 -19 -20 23 22 -23 -24 25 -26 -27 -28 -29 29 -31
leaf_value=0.063418327940032257 0.07538500699534921 -0.03456781336008749 -0.030777410326620996 0.055728233114898107 0.092919321591588735 0.034260740096402321 0.027922943734418074 0.012510881163143108 0.054017847322815386 0.029139660909442679 -0.032310422471926802 0.054088199917022413 0.10009720216697261 0.044316193355721643 0.072304832940483399 0.0080635332788785673 0.038320501716386457 0.074528742037800674 0.0032534530171374853 0.064176852030920079 0.078564982199625433 -0.023753866106812068 0.057281197193356531 0.075035332041741065 0.10026289792203542 0.066131943986748931 0.0078775330730478273 -0.028714039004507107 -0.031771053732166689 0.11228467811216437
leaf_weight=1243.5444817915559 22565.093756906688 508.46793229691684 3914.7118783183396 599979.31584902667 2050.2457989752293 37732.249189194292 9774.3385495729744 15819.780988372862 20432.588277228177 1429.1254094913602 875.84257354121655 2313.630291942507 20.919519107788801 4350.1012650988996 7470.4933256581426 979.18990421295166 9765.6945776343346 57819.409385755658 689.50776098296046 1172.3590660095215 6520.9649964496493 610.52314651012421 13303.410048976541 8175.8453391715884 1944.4650336131454 12057.629935316741 339.77574279718101 708.24841708689928 75.756562902592123 19.924802668392658
leaf_count=3924 16932 6058 38854 2006813 4799 237196 52611 102534 47662 6026 18053 6118 32 9659 5240 4072 23499 29001 4515 5164 8684 8194 31954 7689 3360 22288 3510 5377 1693 167
internal_value=0.0552003 0.0662762 0.0535678 0.0526885 0.0133363 0.0540563 0.0552825 0.00392383 0.0412012 0.0667223 0.01742 0.029206 0.0685489 0.0569485 0.0620047 0.0701464 0.0641895 0.0734219 0.0424168 0.0670635 0.0617533 0.0347135 0.0642822 0.0719934 0.0866895 0.0697296 -0.0175657 -0.0250185 -0.0293029 -0.00177271
internal_weight=844663 108502 736161 691132 23213.9 667918 609754 19734.5 58164.8 3479.37 4822.91 3851.38 103679 12549.8 11820.6 91129.4 32330.8 58798.6 3003.14 45028.7 21678.4 1854.07 19824.4 23350.3 3116.82 20233.5 848.244 729.168 971.524 95.6814
internal_count=2721678 133926 2587752 2496495 152213 2344282 2059424 141388 284858 10825 40114 20201 93812 20308 14899 73504 40431 33073 10633 91257 52756 12118 40638 38501 8524 29977 9568 5409 19913 1860
is_linear=0
shrinkage=0.03


Tree=16
num_leaves=31
num_cat=0
split_feature=7 7 3 5 10 9 3 3 10 1 1 3 9 3 7 7 4 7 1 7 6 3 13 6 1 7 13 5 9 1
split_gain=16813.2 12187.3 10525 12564.4 6926.86 13292.6 9190.98 6583.17 6407.13 5928.13 5906.63 5790.32 5197.84 4063.31 4022.27 3568.85 4524.73 1933.85 1917.29 9576.3 1809.63 1326.07 1252.55 1094.58 764.604 592.512 410.154 529.639 352.697 1.06456
threshold=0.99038348166542634 0.99999878599090664 0.027915601174162263 0.6538752998276105 1.0600875247917506e-05 0.48512309766773004 0.020089281487694389 0.062900325398280318 1.4392017199792803e-09 0.80534569123992583 0.90749252202007935 0.043085416005721501 0.40095811250645769 0.018656710592852968 0.91139123025460378 0.9999974909547571 0.069454412800120227 0.79999451312274095 0.98784997780657491 0.999988892152474 0.64037894789815442 0.037824765674560924 84.730620603892532 0.916479186808277 1.6275137149391787 0.99999926335201683 90.660913354017879 0.3128393971182401 0.67946570834678666 2.0642565112138254
decision_type=2 2 2 2 2 2 2 2 2 2 2 2 2 2 2 2 2 2 2 2 2 2 2 2 2 2 2 2 2 2
left_child=2 15 4 7 5 8 -7 10 -1 14 -4 17 -13 -11 -6 18 20 -5 19 -2 -17 -20 -9 26 -18 28 29 -28 -25 -3
right_child=1 23 3 11 9 6 -8 22 -10 13 -12 12 -14 -15 -16 16 24 -19 21 -21 -22 -23 -24 25 -26 -27 27 -29 -30 -31
leaf_value=0.059681259634329423 0.070334352636505559 -0.032161720021370042 0.040059412731430266 0.063551691767579091 0.050090353667051508 -0.0027633571555141577 0.045348498462198121 0.028906019801248052 0.017840306150700345 0.066162299686960677 0.048768254942581142 0.061906680329977384 0.042723122623408029 0.056454572226943431 -0.0045349776140641051 -0.024530394013542126 0.030709023912153258 0.050176950541727564 0.066520806968151089 0.035558221327359855 0.03673317449381984 0.076352704644495895 0.0074673214069432012 -0.037526351245437274 0.06141537369671201 -0.033066956499255069 0.041551752465723284 -0.01587372316030676 0.061279819987398274 -0.034376269861683906
leaf_weight=27244.598800316453 24591.28273589164 555.63703383225948 129462.8476480376 55812.712214646861 79340.098977755755 7652.3856481201947 6704.4169838931412 6047.2153941001743 3746.8326729107648 51346.992193512619 152835.93983486854 18126.920307423919 42552.280004091561 158868.04911488295 1232.0184289515018 979.74649298004806 846.54906537011266 11783.808895178139 49466.512467656285 10034.51318564266 778.93866165354848 16452.62718365714 4126.2299362961203 36.113309165462852 5293.4491245523095 94.070230428129435 183.72678982745856 677.85807658452541 326.26911322399974 301.30219845846295
leaf_count=79215 21685 12784 646565 150839 230398 74476 31066 44942 38468 87742 546775 63246 196863 320889 7329 8325 2767 33668 24758 26887 2433 10184 35271 283 6157 1339 1135 11145 419 3625
internal_value=0.0521119 0.0630366 0.0505152 0.0473532 0.0544732 0.0435679 0.0197042 0.0439199 0.0546227 0.0561739 0.0447744 0.0551812 0.0484539 0.0588258 0.0492551 0.0644469 0.0450297 0.0612201 0.0659723 0.0602563 0.00260383 0.0689747 0.0202107 -0.00727638 0.0571818 0.0340186 -0.0182446 -0.00362815 0.0514333 -0.0329404
internal_weight=867502 110619 756883 420748 336135 45348.2 14356.8 292472 30991.4 290787 282299 128276 60679.2 210215 80572.1 108444 7898.68 67596.5 100545 34625.8 1758.69 65919.1 10173.4 2174.98 6140 456.453 1718.52 861.585 362.382 856.939
internal_count=2721678 133926 2587752 1718169 869583 223225 105542 1273553 117683 646358 1193340 444616 260109 408631 237727 103196 19682 184507 83514 48572 10758 34942 80213 30730 8924 2041 28689 12280 702 16409
is_linear=0
shrinkage=0.03


Tree=17
num_leaves=31
num_cat=0
split_feature=7 7 10 9 7 7 7 7 7 10 3 10 6 4 7 4 14 6 4 7 7 7 4 6 7 8 14 8 9 5
split_gain=16646.7 11024.7 10076.6 11909 9427.81 27175.8 14226.2 8584.71 12749.1 7137.75 10283 7440.91 3744.1 3417.66 3327.9 5206.93 2718.28 2643.78 1985.64 9048.06 4306.06 1412.75 1341.73 1034.03 548.698 412.743 521.173 331.464 323.459 182.398
threshold=0.99038348166542634 0.99999878599090664 8.5031289985591264e-05 0.50535872878010113 0.16129003028352332 1.0000000180025095e-35 0.063491961286480034 0.16666527778935855 0.19992018436228901 8.932481185950393e-10 0.025008459619277324 4.3267022247623931e-11 0.024533440915852887 0.020053472631145878 0.9999964290568194 0.034081782160954158 0.040360204439362522 0.037174123131282898 0.024941767597966905 0.999988892152474 0.99996688325196759 0.90908222414100737 0.011952188784626812 0.916479186808277 0.99999926335201683 0.12690484013121767 0.17433563527493506 -0.11916159678255443 0.67946570834678666 0.24569868907132855
decision_type=2 2 2 2 2 2 2 2 2 2 2 2 2 2 2 2 2 2 2 2 2 2 2 2 2 2 2 2 2 2
left_child=2 14 3 9 5 22 -7 13 -9 11 -11 -1 21 -6 18 27 -14 -17 19 -2 -20 -5 -4 25 28 29 -27 -16 -25 -3
right_child=1 23 4 12 7 6 -8 8 -10 10 -12 -13 16 -15 15 17 -18 -19 20 -21 -22 -23 -24 24 -26 26 -28 -29 -30 -31
leaf_value=0.03558062562092329 0.064086359568718443 0.0015281144633768951 0.069377996579998796 0.020124681167661286 0.049744643903477007 -0.0075793416470634192 0.033999779111274143 0.017654363090862851 0.051741271908354022 0.054611958927649758 0.034920477765167254 0.063097600310092941 0.039614912721214458 0.092793764370610626 0.086104919505516839 0.011914375272151776 0.021456368159850386 0.056559980455611926 0.0054738038790048803 0.019827716095832476 0.067823371246014105 -0.024936587656480942 0.056597783591818746 -0.037267992542210499 -0.032969750799812694 -0.033500881904993618 0.026925561113650381 -0.029257545535680607 0.058256970863169111 -0.032976409718955463
leaf_weight=11793.677512779832 28859.215198509395 160.21447778027505 9733.3212137445807 15662.726803606376 2258.0517883971334 8887.9252672977746 44416.553650248796 10093.683026175946 456280.67901092395 37628.849291028455 65261.784216273576 35366.949028898031 31316.55660088174 6264.0782995484769 23.08165305107832 1308.568052161485 9723.0807196013629 13603.865387063473 1013.785557128489 4856.8455095738173 59885.517739467323 652.25965114124119 30750.360640995204 35.285273272544146 91.555121942423284 209.27151159662753 332.6680479766801 776.74042035639286 332.7986221909523 989.22449024114758
leaf_count=40353 25131 3338 7050 117283 5959 58639 177822 44866 1148638 143475 451149 72077 172003 8838 42 5466 71135 17872 4072 15300 29001 8801 59664 283 1339 3153 4095 6312 419 18103
internal_value=0.049331 0.060117 0.0477678 0.0421074 0.0498322 0.0411403 0.0270669 0.0515488 0.0510035 0.0465518 0.042122 0.0562163 0.03048 0.0813873 0.0614285 0.0486427 0.0353128 0.0526423 0.0635517 0.0577108 0.0667854 0.0183232 0.0596705 -0.007148 0.0327524 -0.0179911 0.00359172 -0.0259284 0.0490998 -0.028167
internal_weight=888569 112479 776091 207406 568685 93788.2 53304.5 474896 466374 150051 102891 47160.6 57354.6 8522.13 110328 15712.3 41039.6 14912.4 94615.4 33716.1 60899.3 16315 40483.7 2151.02 459.639 1691.38 541.94 799.822 368.084 1149.44
internal_count=2721678 133926 2587752 1076276 1511476 303175 236461 1208301 1193504 707054 594624 112430 369222 14797 103196 29692 243138 23338 73504 40431 33073 126084 66714 30730 2041 28689 7248 6354 702 21441
is_linear=0
shrinkage=0.03


Tree=18
num_leaves=31
num_cat=0
split_feature=7 7 3 5 3 10 5 2 7 2 10 10 10 1 1 7 4 7 7 7 10 10 4 7 4 10 8 12 7 12
split_gain=16522.5 10213.4 9821.37 10498.6 9763.36 8705.24 7100.46 5153.62 4634.38 4649.72 3903.63 7050.35 5161.72 2731.49 2040.94 9948.59 3073.21 2252.13 2019.98 1290.57 1016.97 1146.8 1004.61 862.527 722.499 689.559 500.39 337.978 300.504 123.149
threshold=0.99038348166542634 0.99999826908363898 0.043085416005721501 0.51489356577587542 0.027915601174162263 9.0357841774793356e-06 1.1174131557752711 0.025765379921241723 0.95238945817223175 0.023490817293783165 2.3794737838039982e-09 4.3134773787802342e-10 6.2652741037287735e-05 1.7787070833761067 0.98784997780657491 0.99999372981993828 0.02935015502881071 0.999988892152474 0.99999926335201683 0.91999478045583361 9.0357841774793356e-06 1.4392017199792803e-09 0.080190175327564339 0.9999964290568194 0.053718993396746746 1.7042335081408215e-11 0.053214400722327401 0.058333333333333341 0.99999878599090664 0.025000000000000005
decision_type=2 2 2 2 2 2 2 2 2 2 2 2 2 2 2 2 2 2 2 2 2 2 2 2 2 2 2 2 2 2
left_child=2 14 3 4 5 -1 8 -6 9 -4 11 -5 -12 27 15 17 -17 -2 22 25 21 -16 -15 -22 -21 -8 -10 28 -3 -20
right_child=1 13 6 10 7 -7 19 -9 26 -11 12 -13 -14 18 20 16 -18 -19 29 24 23 -23 -24 -25 -26 -27 -28 -29 -30 -31
leaf_value=0.035147577622890808 0.063577284424903652 0.034952531832383942 0.031076231113177841 0.062614500764768696 0.034273559269637245 0.049758037909121762 0.14502541869562977 0.044775195720601943 -0.018303042984210746 0.042799074724521408 0.036127543714382322 0.14414850637784432 0.053813303611031517 -0.0071177262599100826 0.049570372468834098 -0.025814729438814615 0.028061321253335183 0.043164320570836828 0.011791923545525216 -0.039411817408344589 0.064172522625515011 -0.026415649456970818 0.043914214191863601 0.055275933639099974 0.034299658180493138 0.057185895840388738 0.012367956702193294 -0.030466865519211322 -0.032126122488604969 -0.032473668258753259
leaf_weight=42565.093758996576 25609.656748030335 151.76184404268861 67009.423923462629 10878.528852652758 97206.332698507234 266476.10197908059 80.821949049830437 74130.442804684862 1429.5872659627348 55815.363824119791 16576.836185216904 1046.3037892356515 142751.40585387126 397.87159040942788 813.61538554355502 1310.9482785202563 3488.7974994536489 6004.9135007373989 64.753883520141244 174.59308868832886 59985.06897495687 229.08920733816922 2725.1212313696742 11724.755849003792 380.48163278028369 16711.973511109129 719.7688359618187 1017.3110616505146 99.524484817869961 447.23659658804536
leaf_count=212267 21685 517 392411 13059 414981 576090 273 210275 14626 273727 103465 700 332847 3117 1672 7952 9778 12306 877 1317 26008 1497 6876 12914 1257 35628 4829 18788 2047 7892
internal_value=0.0468093 0.0574856 0.0452754 0.0468348 0.0445612 0.0477457 0.0381358 0.0388172 0.0356392 0.0364035 0.0532124 0.0697684 0.0519732 0.0151303 0.0593882 0.0535902 0.0133462 0.0597 0.0283577 0.056121 0.0622902 0.0328757 0.0374127 0.0627179 0.0111145 0.0576087 -0.00803205 -0.0227709 0.00838535 -0.0268752
internal_weight=908023 114070 793953 651631 480378 309041 142322 171337 124974 122825 171253 11924.8 159328 4903.58 109167 36414.3 4799.75 31614.6 3634.98 17347.9 72752.5 1042.7 3122.99 71709.8 555.075 16792.8 2149.36 1268.6 251.286 511.99
internal_count=2721678 133926 2587752 1863684 1413613 788357 724068 625256 685593 666138 450071 13759 436312 40114 93812 51721 17730 33991 18762 38475 42091 3169 9993 38922 2574 35901 19455 21352 2564 8769
is_linear=0
shrinkage=0.03


Tree=19
num_leaves=31
num_cat=0
split_feature=7 10 2 14 7 1 7 7 7 7 7 7 7 7 7 1 1 7 4 7 7 4 4 10 10 4 7 10 3 13
split_gain=16449 10020.4 13004 15070.3 9323.11 8640.8 8037.53 7220.89 15659.9 3110.02 10792.4 9072.88 6008.26 3517.18 2720.76 2559.28 1998.53 9042.23 2876.85 2075.97 1873.68 1124 1108.39 942.495 1058.54 917.875 848.449 158.275 301.541 112.891
threshold=0.99038348166542634 0.00030104965576061065 -0.035310093556588353 0.068240136747400371 0.99999826908363898 1.6717893775067425 0.74999674486662127 0.48936096070878249 0.49999644290966117 0.19992018436228901 1.0000000180025095e-35 0.045454338172598412 0.19999769326572556 0.66666349207861175 1.0000000180025095e-35 1.7787070833761067 0.98784997780657491 0.99999372981993828 0.02935015502881071 0.999988892152474 0.99999926335201683 0.020715626862612819 0.011952188784626812 9.0357841774793356e-06 1.4392017199792803e-09 0.080190175327564339 0.9999974909547571 0.00042143824905057416 0.03423082112262605 99.30701396056898
decision_type=2 2 2 2 2 2 2 2 2 2 2 2 2 2 2 2 2 2 2 2 2 2 2 2 2 2 2 2 2 2
left_child=1 2 7 6 16 -5 -4 14 -9 10 22 -12 21 -14 -1 27 17 19 -19 -2 25 -11 -3 24 -18 -17 -25 -6 -29 -22
right_child=4 9 3 5 15 -7 -8 8 -10 12 11 -13 13 -15 -16 20 23 18 -20 -21 29 -23 -24 26 -26 -27 -28 28 -30 -31
leaf_value=0.043958620926893628 0.060639814726930558 0.064628051863971608 0.046866607065926102 0.020563280232474369 -0.032361463830421461 0.046772001127340354 0.035687274217475674 0.093004813772883263 0.031606704539747968 0.06321137768846638 -0.026826335098330777 0.035380872246968197 0.052123480396106862 0.044761646774280926 0.017993667624990477 -0.0069375296383990788 0.047285717797266584 -0.025407114945661693 0.026913476070820782 0.041198023574940949 -0.032500715918762371 0.094670889394411706 0.051890956541199226 0.061048212830195174 -0.026015803389953903 0.041892157753088057 0.048268425851959187 0.032389082781727113 -0.021917652616020182 0.0082225073074420878
leaf_weight=4022.0409653782845 26037.881931450218 8451.8228921666741 291907.60693928786 40256.367246039212 675.4061816399917 15751.359018884599 72195.918628120795 4245.0193221531808 31346.501468028873 1592.3076498284936 2223.7759877219796 41284.701305143535 109728.81126069278 124877.27761889994 37463.108639653772 395.98880498483777 827.12458372488618 1292.304968059063 3527.8526651635766 6101.2485722973943 428.93895930051804 2854.420791476965 22566.302711427212 67476.688272930682 225.68373751081526 2770.2453717980534 5023.5012733377516 115.50692188367248 452.54047205299139 71.474297707900405
leaf_count=14817 21685 4470 951421 243978 15972 53802 267557 7901 181639 1940 15006 130133 198235 235411 244024 3117 1672 7952 9778 12306 7518 1332 36086 31826 1497 6876 7096 392 4988 1251
internal_value=0.0445004 0.042992 0.0403433 0.0424214 0.0550965 0.0279341 0.0446499 0.0290162 0.0389297 0.0471915 0.0418407 0.0322014 0.0488597 0.0482049 0.020511 0.0146467 0.0568937 0.0512024 0.0128861 0.056949 0.0272596 0.0834057 0.0553616 0.0597535 0.0315725 0.0357852 0.0601627 -0.0225458 -0.0108749 -0.0266842
internal_weight=926190 810767 497188 420111 115422 56007.7 364104 77076.7 35591.5 313579 74526.6 43508.5 239053 234606 41485.1 4910.1 110512 36959.3 4820.16 32139.1 3666.65 4446.73 31018.1 73553 1052.81 3166.23 72500.2 1243.45 568.047 500.413
internal_count=2721678 2587752 1965139 1516758 133926 297780 1218978 448381 189540 622613 185695 145139 436918 433646 258841 40114 93812 51721 17730 33991 18762 3272 40556 42091 3169 9993 38922 21352 5380 8769
is_linear=0
shrinkage=0.03


Tree=20
num_leaves=31
num_cat=0
split_feature=7 10 8 7 6 14 7 7 7 5 3 7 4 7 7 4 6 3 1 7 6 10 6 11 7 1 8 5 5 11
split_gain=16380.3 9742.12 11264.1 8622.19 7555.2 7570.8 5847.45 4764.76 5050.49 3940.92 5872.91 2725.39 3740.85 2490.18 2469.48 2372.57 2129.19 1934.26 1925.22 6863.01 1490.98 912.822 903.054 828.777 449.887 427.122 394.352 483.766 180.289 173.432
threshold=0.99038348166542634 0.00027146812064046227 -0.018679855929126847 0.99999878599090664 -0.058698218579505045 0.098778117397891149 0.85714110366620511 0.92307309370141533 0.24311741336641882 0.49014259388319364 0.027915601174162263 0.9999974909547571 0.077530559784475012 0.16129003028352332 0.95238945817223175 0.010204077018394132 0.37583621408895929 0.045543202203949071 0.98784997780657491 0.999988892152474 0.53779780239997554 9.0357841774793356e-06 0.916479186808277 0.015409477799066817 0.99999926335201683 1.6275137149391787 0.12690484013121767 0.51232123897292503 0.24569868907132855 0.011964357284963159
decision_type=2 2 2 2 2 2 2 2 2 2 2 2 2 2 2 2 2 2 2 2 2 2 2 2 2 2 2 2 2 2
left_child=1 2 7 11 6 -6 -4 8 -1 10 13 18 20 -3 17 -12 -16 -11 19 -2 -13 -20 26 -9 29 -14 28 -28 -5 -24
right_child=3 9 4 22 5 -7 -8 23 -10 14 15 12 25 -15 16 -17 -18 -19 21 -21 -22 -23 24 -25 -26 -27 27 -29 -30 -31
leaf_value=0.018820630996204013 0.057978095753793708 0.037201070477662627 0.034536155412530821 0.0017008429688894749 0.044057729647438919 0.02495627409612166 0.0021652297737756203 -0.027016476162842352 0.034123619236416748 0.051139420217891848 0.062588467990647101 -0.024764608135710332 0.029340418472170962 0.048494902972744711 -0.0051025165578657749 0.034898878713310641 0.043919563830518475 0.043473229795411052 0.030616554584696636 0.029399269796247015 0.025731440528692983 0.058703182129168884 0.010815115960732351 0.037635592846763211 -0.032726859004267111 0.052387129326252981 0.025561517117389125 -0.032659829500602887 -0.032985173270838428 0.05603853608247486
leaf_weight=25955.519013691694 26410.320610243827 21683.351461209357 73934.443771881983 157.43024082202464 275697.5632531438 20031.435494411737 5388.2770426534116 1553.2419980783015 76966.671673171222 105028.83675162494 2885.5243878886104 950.56229775771499 836.60371540114284 92640.304285652936 1416.0260181352496 79964.48519878462 1825.2136833406985 41256.151321977377 1057.6126741655171 10596.970021497458 1178.9784793443978 68057.682705525309 105.48532186634839 201.61236256547272 85.157717753201723 5364.223682127893 334.93153907358646 208.34091235604137 940.9553378932178 276.0491026006639
leaf_count=161118 21685 49444 308516 3338 869113 105369 36463 17063 394169 183425 1537 7890 2370 125362 8434 221220 3851 100987 3116 26887 3881 31826 386 1681 1339 5541 3420 3828 18103 316
internal_value=0.042384 0.0408991 0.0381301 0.0529122 0.0405587 0.0427639 0.0323372 0.0294287 0.0302644 0.0447306 0.0419452 0.0540196 0.0374964 0.0463528 0.0484035 0.0358633 0.0225029 0.0489774 0.0553167 0.0497946 0.00319154 0.0582734 -0.00720447 -0.0195887 0.0296197 0.0492777 -0.0176729 0.00323407 -0.0280137 0.0435353
internal_weight=942990 826429 479729 116561 375052 295729 79322.7 104677 102922 346700 197174 114453 8330.37 114324 149526 82850 3241.24 146285 106123 37007.3 2129.54 69115.3 2108.35 1754.85 466.692 6200.83 1641.66 543.272 1098.39 381.534
internal_count=2721678 2587752 1893492 133926 1319461 974482 344979 574031 555287 694260 397563 103196 19682 174806 296697 222757 12285 284412 83514 48572 11771 34942 30730 18744 2041 7911 28689 7248 21441 702
is_linear=0
shrinkage=0.03


Tree=21
num_leaves=31
num_cat=0
split_feature=7 1 7 7 7 7 7 7 8 7 7 4 3 7 1 14 6 7 4 7 1 4 4 4 7 7 4 12 9 9
split_gain=16317.2 9047.37 14617 17586.3 56814.2 15743.1 7977.22 6580.27 10475.1 6208.24 6180.13 5980.59 4175.7 3055.48 2287.22 2070.84 2041.04 5608.33 5337.71 1631.86 1378.54 988.521 919.493 914.246 3515.64 2944.26 797.729 323.212 285.813 126.003
threshold=0.99038348166542634 1.1368870835390716 0.89999527289205428 0.48936096070878249 0.49999500004999786 1.0000000180025095e-35 0.99999826908363898 0.49999790558536034 0.045859120113299297 0.52830137836259816 0.49997500124994032 0.027108425314152463 0.025593837951214882 0.95238945817223175 1.7787070833761067 0.059336693162464753 0.29036188891886133 0.99999166881628698 0.032573286344583487 0.99999926335201683 1.9207608957397391 0.020053472631145878 0.017301033201344077 0.02386278715105505 0.99996688325196759 0.999988892152474 0.080190175327564339 0.058333333333333341 0.5804762061273524 0.50404254685824335
decision_type=2 2 2 2 2 2 2 2 2 2 2 2 2 2 2 2 2 2 2 2 2 2 2 2 2 2 2 2 2 2
left_child=1 2 3 5 -5 -1 16 8 10 20 -3 21 -11 -13 27 -10 17 22 -19 26 -9 -4 -2 25 -25 -18 -16 28 -8 -21
right_child=6 7 11 4 -6 -7 14 9 15 12 -12 13 -14 -15 19 -17 23 18 -20 29 -22 -23 -24 24 -26 -27 -28 -29 -30 -31
leaf_value=0.049265026903354207 0.046722798165606705 0.040067859431631339 -0.022496768975729338 0.081040980546667835 0.037972079533941418 0.029336850666485111 0.032391104786867096 -0.013341489229429794 0.065230819745869847 0.046532776063991754 0.071043292959765136 0.030602657434972241 0.037046277904848587 -0.0025007489475725054 -0.007034264979332073 0.045898957391139465 0.054676010097281402 -0.0039423559788961315 0.041926629307397399 0.012721945759846748 0.023975326764004306 -0.00010345924512319976 0.057656402628313494 -0.01346067346869507 0.058273090822679383 0.01694123633243064 0.0384154207515333 -0.030202595206594074 -0.034714416551657017 -0.032380736699619987
leaf_weight=42231.571885161102 10388.151194825768 71269.551341297105 2943.1724431663752 31614.123923197389 215270.11764434725 229897.80389273725 158.59727064147592 2261.4004177860916 30547.255894169211 65147.842178849503 6310.2987805828452 12226.935906279832 116323.86409511231 3157.4802591446787 396.01916763558984 5960.0562974736094 12435.86853788048 3124.9586021155119 8477.3153100758791 64.350100482814014 1470.163101837039 4466.6970062721521 20750.066000796854 621.89789566397667 54595.885420100763 2188.4413394611329 2840.6654660943896 960.44680542591959 89.278467410244048 416.94907768350095
leaf_count=78979 11902 200873 24674 36809 735603 939160 1189 12167 32549 92317 5862 46584 313917 23703 3117 16362 9159 13099 13339 1189 3823 24370 14319 2561 23306 6127 6876 18788 1375 7580
internal_value=0.0404322 0.0389693 0.0366568 0.0376894 0.0434872 0.0324295 0.0509038 0.0431556 0.0488232 0.0396643 0.0425874 0.0131439 0.0404519 0.0238086 0.0135369 0.0620748 0.0525389 0.0473753 0.0295723 0.0251903 0.00136061 -0.008998 0.0540088 0.0556988 0.0574652 0.0490292 0.0328545 -0.0223203 0.00822142 -0.0263505
internal_weight=958607 841098 541808 519014 246884 272129 117509 299290 114087 185203 77579.9 22794.3 181472 15384.4 4926.31 36507.3 112583 42740.5 11602.3 3717.98 3731.56 7409.87 31138.2 69842.1 55217.8 14624.3 3236.68 1208.32 247.876 481.299
internal_count=2721678 2587752 1909882 1790551 772412 1018139 133926 677870 255646 422224 206735 119331 406234 70287 40114 48911 93812 52659 26438 18762 15990 49044 26221 41153 25867 15286 9993 21352 2564 8769
is_linear=0
shrinkage=0.03


Tree=22
num_leaves=31
num_cat=0
split_feature=7 10 2 14 1 7 7 7 7 7 7 7 7 7 7 7 1 4 7 7 4 4 4 4 1 7 13 12 10 3
split_gain=16255.2 10136.1 11151.3 12853 7574.04 7424.21 6606.74 6080.78 6186.45 4509.75 2909.15 9499.09 8169.21 5144.57 3236.58 2588.49 4495.6 2178.91 7713.28 3775.14 1426.61 1354.22 1105.16 945.535 836.038 634.414 445.809 164.202 0.389863 0.19074
threshold=0.99038348166542634 0.00030491949575653539 -0.035310093556588353 0.068240136747400371 1.6717893775067425 0.99999878599090664 0.74999674486662127 0.24999365712406857 0.24999833193849877 1.0000000180025095e-35 0.19992018436228901 1.0000000180025095e-35 0.063491961286480034 0.19999769326572556 0.24311741336641882 0.9999964290568194 1.2541358494633397 0.024941767597966905 0.99998339804298697 0.99996688325196759 0.034081782160954158 0.061762539906976492 0.011952188784626812 0.01856763420592079 2.1227262320826799 0.99999926335201683 90.660913354017879 0.025000000000000005 0.00054073807380253778 0.037987673705672624
decision_type=2 2 2 2 2 2 2 2 2 2 2 2 2 2 2 2 2 2 2 2 2 2 2 2 2 2 2 2 2 2
left_child=1 2 7 6 -5 15 -4 9 -9 -1 11 22 -13 23 -15 17 21 18 -2 -19 -18 -17 -3 -12 28 26 -26 -27 -7 -30
right_child=5 10 3 4 -6 24 -8 8 -10 -11 13 12 -14 14 -16 16 20 19 -20 -21 -22 -23 -24 -25 25 27 -28 -29 29 -31
leaf_value=0.038175181512187524 0.055112183577170452 0.057902951853586883 0.040423496725175416 0.016798719375380494 0.040562326900847864 -0.031501092152659581 0.030593013608037331 0.087403486216154416 0.027802084640662042 0.0041146443574971731 0.050329392672381429 -0.006899902083166101 0.032165031864097984 0.02597836543404887 0.043089562320632241 -0.010515447246557464 -0.028462429550041805 -0.00021652581998986487 0.024828980468200694 0.056180786787146664 0.047392298957158484 0.033265587191176636 0.045375890671636034 0.081746428619789327 -0.01010548339432032 0.026741611359400824 0.035000857308332335 -0.032308877981255209 -0.034729666663949207 -0.032555706632630632
leaf_weight=4373.5961837768555 25096.115285485983 8679.1211664825678 312028.70925213397 42703.896072318777 16827.72629211843 527.39023647550493 76642.049397997558 1610.1448425799608 58998.382989741862 17487.082983855158 1139.4062987491488 5481.3757400140166 39796.467264965177 10395.293357260525 231588.13737990707 1847.2475220467895 226.87486367486417 1086.7700110860169 10839.052232485265 62568.437843739986 13565.789530394599 969.61697022244334 23499.814725100994 3543.2979814335704 286.19606504030526 48.482865883037448 634.20304316654801 336.76219567563385 44.446894165128469 198.72833671793342
leaf_count=14957 16932 4446 955126 244777 54042 15939 269086 3159 308908 123709 1534 29544 113860 28418 398728 11140 1252 4072 23499 29001 14826 2474 35755 1703 1835 631 2658 6260 421 2986
internal_value=0.0386268 0.0371844 0.0346313 0.0364968 0.0235159 0.0490506 0.038485 0.0244931 0.0293855 0.010929 0.0413645 0.0362926 0.0274358 0.0429572 0.0423545 0.0500553 0.0390912 0.0518839 0.0459779 0.0552179 0.0461446 0.0045548 0.0487546 0.074102 -0.00717901 0.00744583 0.0209751 -0.0248774 -0.0319593 -0.0329531
internal_weight=973071 854795 530672 448202 59531.6 118276 388671 82469.2 60608.5 21860.7 324123 77456.8 45277.8 246666 241983 116200 16609.5 99590.4 35935.2 63655.2 13792.7 2816.86 32178.9 4682.7 2076.21 1305.64 920.399 385.245 770.565 243.175
internal_count=2721678 2587752 1973764 1523031 298819 133926 1224212 450733 312067 138666 613988 183605 143404 430383 427146 103196 29692 73504 40431 33073 16078 13614 40201 3237 30730 11384 4493 6891 19346 3407
is_linear=0
shrinkage=0.03


Tree=23
num_leaves=31
num_cat=0
split_feature=7 10 10 10 3 4 7 7 7 7 7 7 10 1 4 1 7 4 1 7 1 7 4 10 1 7 4 12 7 12
split_gain=16179.7 10028.3 8983.73 16314.2 11401 9372.68 7544.03 20840.4 11234.6 7035.52 10203.4 6990.14 6847.02 3161.17 2786.52 2080.73 7385.13 2475.22 2054.45 1746.48 1629.39 1408.75 1305 845.614 909.703 855.858 724.619 309.482 244.585 122.771
threshold=0.99038348166542634 8.5031289985591264e-05 8.932481185950393e-10 1.131681811788057e-05 0.023706124774777796 0.01114904813267409 0.16129003028352332 1.0000000180025095e-35 0.055555233461987458 0.16666527778935855 0.19992018436228901 0.99999826908363898 3.3083416073702586e-11 0.78685039758343367 0.018433178586972788 0.98784997780657491 0.99999372981993828 0.02935015502881071 1.7787070833761067 0.99998339804298697 0.43767103323285655 0.99999926335201683 0.011952188784626812 9.0357841774793356e-06 1.180222236957007 0.9999964290568194 0.080190175327564339 0.058333333333333341 0.99999878599090664 0.025000000000000005
decision_type=2 2 2 2 2 2 2 2 2 2 2 2 2 2 2 2 2 2 2 2 2 2 2 2 2 2 2 2 2 2
left_child=1 2 5 20 -5 13 7 22 -9 14 -11 15 -7 -1 -8 16 19 -18 27 -2 -4 26 -3 24 -17 -25 -20 28 -13 -23
right_child=11 6 3 4 -6 12 9 8 -10 10 -12 18 -14 -15 -16 23 17 -19 21 -21 -22 29 -24 25 -26 -27 -28 -29 -30 -31
leaf_value=0.031278379084067984 0.053801405284104903 0.054856940026448503 0.050767786597373771 0.042616311440224104 0.024446859326958288 0.022853448477882801 0.031205725175167995 -0.018037713344776884 0.023134537999050776 0.010126897809472386 0.039110992600052429 0.03007496295543682 0.048932181037183976 -0.0029317771420986041 0.072232443539575975 0.046404090915464179 -0.026120432257786999 0.021792776718639339 -0.0076833904774209266 0.039827889629234385 -0.0011903744772772654 0.012831502177159703 0.042756289505397962 0.053575321033380648 -0.010120201360649948 0.044921307550305198 0.035290748309597289 -0.030113219662487724 -0.031916896139810767 -0.03215435575580311
leaf_weight=4385.2714200057089 20254.88758129999 10479.282513029873 559.6837387252599 44272.772229846567 104314.7095520366 11198.953250952065 1842.8930736333132 6727.3211922086775 52618.008523296565 11172.265046071261 506655.65106816217 158.07025792077184 47460.11140999198 5454.8850410878658 7779.6513737216592 698.97614353336394 1316.5856532640755 3690.3737876378 402.00215297751129 13359.498273383826 18443.329028641805 63.312439396977425 34195.210036888719 61880.217657715082 404.57925806567073 12335.369236171246 2904.8837188240141 929.82743057515472 89.832689900882542 396.73763194028288
leaf_count=13990 13876 7050 3909 117566 590977 36505 4736 44124 192337 44866 1148638 517 87470 36143 10061 1442 7952 9778 3117 20115 189716 877 59664 26008 1727 12914 6876 18788 2047 7892
internal_value=0.0369519 0.0355296 0.0302546 0.0265133 0.0298606 0.0394082 0.0375018 0.030118 0.0184673 0.038958 0.0384857 0.0473309 0.0439533 0.012314 0.0643751 0.0488463 0.0431848 0.00919394 0.0124112 0.0482479 0.000339916 0.0232237 0.0455947 0.0517493 0.0256815 0.0521369 0.0300666 -0.0221726 0.00761095 -0.0259634
internal_weight=986445 867560 236090 167590 148587 68499.2 631470 104020 59345.3 527450 517828 118885 58659.1 9840.16 9622.54 113940 38621.3 5006.96 4944.67 33614.4 19003 3766.94 44674.5 75319.1 1103.56 74215.6 3306.89 1177.73 247.903 460.05
internal_count=2721678 2587752 1076276 902168 708543 174108 1511476 303175 236461 1208301 1193504 133926 123975 50133 14797 93812 51721 17730 40114 33991 193625 18762 66714 42091 3169 38922 9993 21352 2564 8769
is_linear=0
shrinkage=0.03


Tree=24
num_leaves=31
num_cat=0
split_feature=7 1 7 7 7 7 7 7 8 7 7 4 3 7 1 7 4 12 1 7 7 1 7 4 4 2 4 12 7 12
split_gain=16087.3 9197.29 12987.8 14046.7 49946.7 13714 6498.59 5765.61 9777.69 5569.24 5507.21 5106.03 4175.85 2412.57 2113.37 7555.6 3461.3 2007.89 1934.64 1679.01 1316.82 1247.32 833.857 3182.79 1232.42 701.582 669.193 301.13 231.037 120.225
threshold=0.99038348166542634 1.1368870835390716 0.91139123025460378 0.48936096070878249 0.49999500004999786 0.44444187349602476 0.99999826908363898 0.49999790558536034 0.045859120113299297 0.52830137836259816 0.49997500124994032 0.022280468901642397 0.025593837951214882 0.95238945817223175 1.1491374818555948 0.99999372981993828 0.02906643278069752 0.54166666666666685 1.7787070833761067 0.99998339804298697 0.99999926335201683 1.9207608957397391 0.99996688325196759 0.028629850995940519 0.014209180647929941 0.085670778950423757 0.080190175327564339 0.058333333333333341 0.99999878599090664 0.025000000000000005
decision_type=2 2 2 2 2 2 2 2 2 2 2 2 2 2 2 2 2 2 2 2 2 2 2 2 2 2 2 2 2 2
left_child=1 2 3 5 -5 -1 14 8 10 21 -3 25 -11 -13 15 19 -17 -10 27 -2 26 -9 23 -16 -24 -4 -20 28 -8 -22
right_child=6 7 11 4 -6 -7 18 9 17 12 -12 13 -14 -15 22 16 -18 -19 20 -21 29 -23 24 -25 -26 -27 -28 -29 -30 -31
leaf_value=0.029310705715965939 0.052377031474337393 0.035133794828311561 -0.029757908951247039 0.071751326520730796 0.032581241340491653 -0.0037705335949530746 0.028804085293434107 -0.014695517320128118 0.060048657044897563 0.041676456929061696 0.063765313998776385 0.020743801473423373 0.03233500603291016 -0.0067867596358709903 0.049959269416132213 -0.026308531740493638 0.02482989797175628 0.044322267939604851 -0.0074911214282347392 0.040303025277045205 0.012313712298207909 0.02031993918090606 0.0036690445536527957 -0.03676426745632564 0.051837343755861576 0.08854331436234221 0.033872402531751909 -0.029950024076762297 -0.031858513933044834 -0.032088103221688119
leaf_weight=273246.77681136504 24923.246612336487 74416.942416481674 3047.342448214069 33545.489299096167 231397.2346595861 11763.795833658427 160.06194850429893 2319.3115241825581 27928.559501469135 66875.376912603155 6580.9338199533522 11972.189125586301 120981.81199637987 3765.9269602689892 2050.9141830056906 1504.8118382450193 5715.9105947203934 9895.6613962091506 399.98154974542558 17746.28058565408 63.984982471913099 1512.788940384984 481.80050598829985 467.73154615983367 61504.716011859477 45.795269135385752 2935.2476184610277 907.18970175459981 87.335078748874366 385.79519968759269
leaf_count=950233 16798 200873 26169 36809 754614 67906 517 12167 23674 92317 5862 46143 313917 27885 1289 8931 13166 25237 3117 23961 877 3823 1082 2410 26175 123 6876 18788 2047 7892
internal_value=0.0353988 0.0339961 0.0317291 0.0325679 0.0375407 0.0279453 0.0457346 0.0381486 0.0433409 0.0349301 0.0374601 0.00723067 0.0356605 0.0141561 0.0471894 0.0425528 0.0141726 0.0559343 0.0120443 0.0473554 0.0224137 -0.000872551 0.0507754 0.0338541 0.0514629 -0.0280064 0.0289118 -0.0219492 0.00738922 -0.0257716
internal_weight=998631 879296 568785 549953 264943 285011 119335 310511 118822 191689 80997.9 18831.3 187857 15738.1 114395 49890.2 7220.72 37824.2 4939.6 42669.5 3785.01 3832.1 64505.2 2518.65 61986.5 3093.14 3335.23 1154.59 247.397 449.78
internal_count=2721678 2587752 1909882 1809562 791423 1018139 133926 677870 255646 422224 206735 100320 406234 74028 93812 62856 22097 48911 40114 40759 18762 15990 30956 3699 27257 26292 9993 21352 2564 8769
is_linear=0
shrinkage=0.03


Tree=25
num_leaves=31
num_cat=0
split_feature=7 10 2 14 1 7 9 2 5 3 7 7 7 1 4 7 7 9 3 7 4 4 4 9 1 5 7 7 10 3
split_gain=16027 10515.8 10016.9 10689.2 6735.1 6075.41 5815.96 5751.38 3300.08 5536.08 3042.24 2320.23 2302.59 3855.06 2304.05 6850.96 3416.17 2282.81 2279.57 2230.14 2091.41 1261.58 1229.05 803.249 751.939 515.212 466.015 1.01906 0.340016 0.197432
threshold=0.99038348166542634 0.00027146812064046227 -0.035310093556588353 0.066658512137880141 1.6717893775067425 0.99999878599090664 0.42893107901195643 -0.0031210641860501668 0.49014259388319364 0.028177648350696544 0.48936096070878249 0.16129003028352332 0.9999964290568194 1.2882541671033492 0.024941767597966905 0.99998339804298697 0.99996688325196759 0.46079952693374587 0.047529363617038536 0.90406483923084002 0.010204077018394132 0.061762539906976492 0.034081782160954158 0.31874555056581416 2.1227262320826799 0.55128192296117551 0.99999926335201683 0.99999926335201683 0.00053114917048116322 0.037987673705672624
decision_type=2 2 2 2 2 2 2 2 2 2 2 2 2 2 2 2 2 2 2 2 2 2 2 2 2 2 2 2 2 2
left_child=1 2 6 7 -5 12 10 -4 9 11 -1 -3 14 21 15 -2 -16 23 -19 -8 -11 -14 -15 -10 28 26 -26 -27 -7 -30
right_child=5 8 3 4 -6 24 19 -9 17 20 -12 -13 13 22 16 -17 -18 18 -20 -21 -22 -23 -24 -25 25 27 -28 -29 29 -31
leaf_value=0.020788588093294289 0.049397629310998975 0.029556120728614643 0.027869614790744925 0.013743202919298538 0.035950348184723889 -0.03142030731804888 0.014870571601694638 0.035898412501685455 0.050283962543679839 0.052756493310217575 0.039578435552402334 0.040049354252499829 -0.010061551343582985 -0.028960942432463117 -0.0019939279277102688 0.021146367046689128 0.05120276342324958 0.039375078403880714 0.028561629059031892 -0.0229415903892593 0.027238025604886043 0.030139829009149483 0.042750114751445335 0.042257516109055565 0.025880907607489415 -0.035963891200467994 -0.02080431047759259 -0.031993142915513223 -0.034646681275225799 -0.032397154869559582
leaf_weight=15295.968617651612 25539.767329640687 23439.870159558952 115194.65417122841 44014.252628119662 17053.847316306084 487.23229704145342 48475.352945853025 265082.93916174769 14551.012429885566 2994.6100667566061 15730.690495254472 99343.168626360595 1956.7103414889425 218.54999415203929 1105.5252248160541 11075.515855833888 62992.258550554514 72585.912667676806 23138.676263511181 1445.6883157305419 83139.715484861284 1096.1007576268166 13621.638984419405 49039.086615949869 829.18496278859675 123.75338806211948 250.59158450178802 109.76403148379177 43.188620030879974 187.80888161808252
leaf_count=78578 16932 50701 436568 243431 52739 15872 274717 732059 17215 1525 61215 128646 11462 1153 4072 23499 29001 132356 63190 14185 216691 2652 14425 83936 3290 1203 4551 2340 428 3046
internal_value=0.0339384 0.0325534 0.0298161 0.0315954 0.0199448 0.044248 0.0201151 0.0334663 0.0364359 0.0339559 0.0303151 0.0380461 0.0451365 0.034887 0.0468557 0.0408521 0.0502853 0.0396882 0.0367612 0.0137756 0.0281252 0.00437261 0.0416177 0.0440942 -0.00718942 0.00630805 0.0150463 -0.0340975 -0.0318698 -0.0328177
internal_weight=1.01016e+06 890525 522293 441346 61068.1 119638 80947.7 380278 368232 208917 31026.7 122783 117606 16893 100713 36615.3 64097.8 159315 95724.6 49921 86134.3 3052.81 13840.2 63590.1 2031.52 1313.29 1079.78 233.517 718.23 230.998
internal_count=2721678 2587752 1893492 1464797 296170 133926 428695 1168627 694260 397563 139793 179347 103196 29692 73504 40431 33073 296697 195546 288902 218216 14114 15578 101151 30730 11384 7841 3543 19346 3474
is_linear=0
shrinkage=0.03


Tree=26
num_leaves=31
num_cat=0
split_feature=7 3 5 1 7 5 7 3 2 2 13 5 13 7 6 7 4 1 9 7 5 4 7 7 7 4 6 12 9 9
split_gain=15932.9 9031.73 8158.63 8438.85 7591.14 7028.36 5786.82 5088.2 4171.82 3278.75 4461.38 3998.54 2811.03 2397.53 2211.41 4780.61 4584.93 1747.81 1210.16 1145.78 970.482 926.726 2835.33 2417.11 871.268 613.68 380.459 288.01 252.599 131.315
threshold=0.99038348166542634 0.043085416005721501 0.47656244919225638 1.0767275536979122 0.89999527289205428 1.1174131557752711 0.99999826908363898 0.023252274625168629 -0.038552639321850178 0.023490817293783165 57.80113949897288 0.69868453200099467 49.300246305418725 0.49999644290966117 0.29036188891886133 0.99999166881628698 0.055665507224865803 1.7787070833761067 0.3792459912308957 0.99999926335201683 0.35633413573292355 0.02386278715105505 0.99996688325196759 0.999988892152474 0.93119211171547078 0.080190175327564339 -0.6536643230982756 0.058333333333333341 0.5804762061273524 0.50404254685824335
decision_type=2 2 2 2 2 2 2 2 2 2 2 2 2 2 2 2 2 2 2 2 2 2 2 2 2 2 2 2 2 2
left_child=1 2 3 4 -1 9 14 -5 12 11 -11 -3 -4 -10 15 20 -17 27 26 25 -2 23 -23 -16 -20 -19 -7 28 -8 -21
right_child=6 5 8 7 -6 18 17 -9 13 10 -12 -13 -14 -15 21 16 -18 19 24 29 -22 22 -24 -25 -26 -27 -28 -29 -30 -31
leaf_value=0.027980607747508789 0.038118716337712633 0.013110465510163798 0.02665967488159331 0.040237355776637049 0.00048727253057304683 -0.04156512382993692 0.028779552302562697 0.030949431082825565 0.042853857754062669 0.041473355892814708 0.023237223655548055 0.026899622965618347 0.048822500430901 0.036034929362462068 0.045963484846602683 0.0086506685385010079 0.046906073780657004 -0.008049843584271495 0.038479140479370004 0.015538281602627057 0.048955229352544358 -0.014292873064565541 0.050011036731563305 0.012304703823849066 -0.0067413801079230767 0.031305600915495314 0.054373256937428387 -0.029852191642990009 -0.035248632989985429 -0.032095930269801363
leaf_weight=275483.36663307622 11704.892940565944 48230.235726714134 42115.608996599913 92974.361656224355 9345.0691670104861 37.451458554714918 161.97077903244644 123729.40620179102 88829.160137601197 15792.255653303117 51278.64275117591 31150.415449423715 5868.2626164127141 97168.98168226704 12736.709210135043 7589.9002381674945 4486.2231475114822 405.00507710687816 12939.844302080572 60.634395418688655 20403.133735992014 624.11486174166203 55080.133896129206 2261.0587611310184 395.17337188310921 2983.2917334269732 5584.7168647758663 878.007718289271 84.323563636280596 369.43924456462264
leaf_count=837340 13191 275402 153359 152655 48991 258 1189 274002 181085 52217 230923 127051 15244 201008 9159 22451 3987 3117 29337 1189 13030 2561 23306 6127 1896 6876 6984 18788 1375 7580
internal_value=0.0325735 0.0312066 0.032631 0.0304729 0.0270786 0.0248726 0.0428506 0.0349343 0.0372569 0.0226477 0.027531 0.0185216 0.0293701 0.0392915 0.0442181 0.038953 0.0228624 0.0110663 0.0420607 0.0207466 0.0450048 0.0475084 0.0492906 0.0408891 0.0371391 0.0266014 0.0537342 -0.0218102 0.00685828 -0.0253802
internal_weight=1.02075e+06 900923 735514 501532 284828 165409 119829 216704 233982 146452 67070.9 79380.7 47983.9 185998 114886 44184.2 12076.1 4942.67 18957.2 3818.37 32108 70702 55704.2 14997.8 13335 3388.3 5622.17 1124.3 246.294 430.074
internal_count=2721678 2587752 1863684 1312988 886331 724068 133926 426657 550696 685593 283140 402453 168603 382093 93812 52659 26438 40114 38475 18762 26221 41153 25867 15286 31233 9993 7242 21352 2564 8769
is_linear=0
shrinkage=0.03


Tree=27
num_leaves=31
num_cat=0
split_feature=7 10 1 14 9 7 7 5 5 3 1 7 11 1 5 12 1 7 12 9 10 7 3 9 7 7 13 12 9 9
split_gain=15845.3 10514.7 9591.66 11113.5 10827.3 5420.4 3829.36 3498.38 2730.38 4808.91 2262.06 6704.49 2147.63 1812.73 1705.92 1692.57 1649.12 1549.37 1519.93 1495.95 1306.03 1262.78 1250.62 1193.4 1074.47 796.778 563.297 280.579 238.749 128.251
threshold=0.99038348166542634 0.00030491949575653539 1.6717893775067425 0.086946496949862215 0.51815293944209351 0.99999826908363898 0.33333172358503094 1.1174131557752711 0.4540979461719335 0.028177648350696544 1.1491374818555948 0.99999372981993828 -0.002820540766758823 1.1677620192340747 0.25897080999177829 0.57500000000000007 1.7787070833761067 0.99998339804298697 0.75833333333333341 0.40246406377495175 5.09295948646789e-06 1.0000000180025095e-35 0.034077447191678233 0.43156303970658433 0.99999926335201683 0.9999974909547571 91.449138439860903 0.058333333333333341 0.5804762061273524 0.50404254685824335
decision_type=2 2 2 2 2 2 2 2 2 2 2 2 2 2 2 2 2 2 2 2 2 2 2 2 2 2 2 2 2 2
left_child=1 2 3 4 -1 10 18 -5 9 13 11 17 22 -3 -8 -13 27 -2 -4 -14 23 -11 -10 -12 26 -22 -18 28 -7 -26
right_child=5 8 6 7 -6 16 14 -9 12 21 20 15 19 -15 -16 -17 24 -19 -20 -21 25 -23 -24 -25 29 -27 -28 -29 -30 -31
