tree
version=v4
num_class=1
num_tree_per_iteration=1
label_index=0
max_feature_idx=14
objective=binary sigmoid:1
feature_names=v_ratio v_dry ma20_bias atr_14_ratio hl_ratio cost_concentration vp_corr_10 intraday_pos mom_accel smart_vol_5d amihud_shock smart_dumb_diff divergence_rank rs_rank ind_excess
feature_infos=[0.00059832507140792864:2.1700942067940563] [0.034926527732506533:2.1227646641525699] [-0.16699067910612103:0.16944399748268396] [0.00011929051424476487:0.079999987692309593] [0:0.080191679126257021] [0.0080427118446066235:1.1174192907231584] [-0.98762765182926326:0.99542839360097946] [0:1.0014142655105402] [-0.13384367143307885:0.13593622671195527] [0.040530049139419821:0.90702586725866163] [1.4657807794271199e-15:0.00054074969108114791] [-0.023028885884003997:0.024884625773924991] [0.016666666666666666:1] [0.019036740909956214:100] [-0.24213891491322262:0.21979999335357489]
tree_sizes=3456 3561 3547 3553 3549 3563 3559 3534 3542 3549 3550 3551 3560 3550 3555 3559 3549 3560 3557 3571 3553 3556 3566 3575 3547 3554 3551 3583 3587 3568 3554 3575 3545 3566 3577 3583 3618 3564 3565 3570 3573 3587 3576 3594 3576 3577 3594 3585 3585 3588 3581 3599 3614 3597 3599 3609 3598 3582 3581 3600 3587 3600 3602 3604 3585 3588 3618 3613 3588 3607 3603 3617 3606 3596 3608 3625 3593 3629 3615 3613 3639 3619 3593 3622 3595 3628 3579 3605 3607 3598 3620 3603 3622 3623 3613 3609 3581 3608 3622 3586 3614 3621 3599 3607 3623 3582 3589 3606 3607 3592 3596 3620 3596 3614 3587 3581 3630 3612 3657 3589 3597 3601 3606 3611 3596 3596 3619 3597 3635 3587 3610 3611 3638 3585 3618 3592 3602 3613 3594 3615 3612 3601 3643 3592 3624 3632 3607 3590 3600 3632 3626 3623 3598 3612 3570 3627 3596 3597 3591 3627 3575 3588 3596 3598 3589 3577 3618 3582 3608 3583 3576 3593 3464 3614 3574 3429 3620 3634 3583 3618 3550 3575 2884 3609 3599 3093 3600 3631 3584 3598 3637 3564 3229 3599 3623 3592 3604 2905 3593 3602 3464 3641 3577 3119 3603 3580

Tree=0
num_leaves=31
num_cat=0
split_feature=3 3 3 1 3 4 13 10 3 4 5 2 3 2 2 2 4 5 3 5 1 2 1 3 3 4 3 5 6 1
split_gain=236322 40045.7 36326.6 9998 8420.54 7416.41 5890.4 4938.48 4712.1 2304.15 2170.46 2047.48 2046.08 2027.29 1924.38 1841.27 1422.17 1414.19 1386.81 1241.39 1203.61 1374.52 911.622 906.504 897.128 589.12 578.725 558.497 520.512 484.64
threshold=0.025304948213231065 0.017495494013009458 0.034382265158278739 1.3927752411513603 0.047017244560845724 0.028083024633160255 86.896538437722583 2.3769027463532365e-06 0.021168827109106874 0.026151926922665398 0.2842349792306535 0.16944172556989964 0.05594390211491667 0.15504710968584859 0.040930914280215051 0.01211048667918343 0.033395171587573921 0.35088047882587653 0.029482706054669131 0.3128393971182401 1.2541358494633397 0.16944172556989964 1.7505227449108915 0.013872944159440799 0.029748989322864527 0.016854884518762808 0.014962942079638384 0.53950472559320517 0.47916210134603199 1.5873652404437404
decision_type=2 2 2 2 2 2 2 2 2 2 2 2 2 2 2 2 2 2 2 2 2 2 2 2 2 2 2 2 2 2
left_child=1 7 5 8 9 10 12 16 17 27 25 -11 -6 -8 28 26 23 -3 -12 -10 24 -22 -17 -1 -7 -2 -9 -4 -5 -18
right_child=2 3 4 14 6 20 13 15 19 11 18 -13 -14 -15 -16 22 29 -19 -20 -21 21 -23 -24 -25 -26 -27 -28 -29 -30 -31
leaf_value=-1.1403828558009013 -1.0963007645971683 -1.1073521838336149 -1.0679772244030472 -1.0841075558247981 -1.0517592883658582 -1.0731279871528376 -1.057370647161836 -1.1276238966897743 -1.0955731321921642 -1.0577113733041279 -1.0790691819771863 -1.0824302089878328 -1.0445306795008749 -1.0730502689304733 -1.0586575860627243 -1.1074975463318608 -1.1134277214903741 -1.0943014411896252 -1.0713657018238527 -1.0869876036254402 -1.0605662704960355 -1.1026738741700739 -1.0792439468968449 -1.1284882738424316 -1.0652631887860327 -1.0835814849412504 -1.1160128986485822 -1.0615841322160666 -1.071069414668282 -1.0251853174118244
leaf_weight=13370.52725815773 4260.7217684388161 29238.489638030529 31144.770233988762 7071.7184406518936 71079.508520394564 21370.028646767139 36324.919305443764 6678.8049398362637 26826.630923777819 160631.3372990787 41425.047004878521 3073.5237021148205 69896.717449396849 9327.0174572169781 6525.0095874667168 6315.0725867152214 93.820588827133179 10038.278485357761 42723.840813666582 34844.034670948982 36961.80093935132 711.12923365831375 1227.5984644293785 10139.574750334024 33540.99020704627 14199.79891243577 9165.2100716531277 20323.305334419012 4515.3319554328918 139.01224660873413
leaf_count=68766 17715 128789 109774 27475 224762 77782 119420 32445 111102 529307 156279 11826 209728 33932 21639 27837 426 41288 153822 137619 124154 3058 4636 49453 116185 55002 42145 68728 16227 357
internal_value=-1.06984 -1.10148 -1.06103 -1.09221 -1.05587 -1.07165 -1.05121 -1.12488 -1.09589 -1.05992 -1.0772 -1.05818 -1.04818 -1.06057 -1.07169 -1.1151 -1.13452 -1.10402 -1.07516 -1.09072 -1.06549 -1.06136 -1.1029 -1.13525 -1.06832 -1.08652 -1.12091 -1.06545 -1.07903 -1.06074
internal_weight=763184 166189 596994 119059 401801 195193 186628 47129.6 100947 215173 102609 163705 140976 45651.9 18112.1 23386.7 23742.9 39276.8 84148.9 61670.7 92583.9 37672.9 7542.67 23510.1 54911 18460.5 15844 51468.1 11587.1 232.833
internal_count=2721678 710204 2011474 484139 1307477 703997 587842 226065 418798 719635 382818 541133 434490 153352 65341 107063 119002 170077 310101 248721 321179 127212 32473 118219 193967 72717 74590 178502 43702 783
is_linear=0
shrinkage=1


Tree=1
num_leaves=31
num_cat=0
split_feature=3 3 3 1 3 4 13 10 3 8 4 2 2 2 1 3 2 4 1 2 3 1 3 4 10 3 8 4 6 11
split_gain=211540 37441.2 31816.2 9070.34 7591.92 6315.35 5261.45 4751.89 4342.51 2690.15 2262.42 1886.27 1739.15 1702.51 1695.56 1691.96 1687.89 1188.61 1071.32 1234.39 841.369 839.643 725.005 678.011 644.496 553.981 527.392 500.662 466.386 444.42
threshold=0.025304948213231065 0.017495494013009458 0.034077447191678233 1.3927752411513603 0.048091882966330116 0.028083024633160255 87.271637919463828 2.3769027463532365e-06 0.021168827109106874 0.056950698005019035 0.024670371093905095 0.16944172556989964 0.01211048667918343 0.040930914280215051 0.55930277157840969 0.029482706054669131 0.15504710968584859 0.0211132397095509 1.3158542128749684 0.16944172556989964 0.013872944159440799 1.7505227449108915 0.029616720963052675 0.02032782795842383 8.5743024049611646e-09 0.014962942079638384 0.059522903014890126 0.020191283707438955 0.44496352364681452 -7.0539976572792451e-05
decision_type=2 2 2 2 2 2 2 2 2 2 2 2 2 2 2 2 2 2 2 2 2 2 2 2 2 2 2 2 2 2
left_child=1 7 5 8 10 15 14 9 24 20 29 -12 25 28 -6 23 -8 -10 22 -20 -1 -14 -7 -2 -3 -9 -15 -17 -5 -4
right_child=2 3 4 13 6 18 16 12 17 -11 11 -13 21 26 -16 27 -18 -19 19 -21 -22 -23 -24 -25 -26 -27 -28 -29 -30 -31
leaf_value=-0.029597444524574128 0.024232823192333403 -0.0014851269641463439 0.038988083393296076 0.024822311510920517 0.05263196161737875 0.035732365240533769 0.050001544717083256 -0.016825402650498863 0.015042085443183037 0.086110314691050738 0.049724129549033665 0.027660916715396982 0.0028413287021811485 0.043684763841192575 0.060755106370921297 0.031580570653627626 0.035420641466151627 0.023348196488178801 0.047485713020043077 0.0062808902169339022 -0.018083304211216233 0.029777608357970421 0.042635055844023419 0.030980028416634317 0.0081165345405069343 -0.0054298282860586423 0.062446598512654591 0.037957313651333355 0.036894000281780193 0.04486820363629513
leaf_weight=13166.177574232221 24857.401350840926 7859.3152061700821 23036.375860780478 6739.653291374445 29604.154485285282 22641.644970133901 34163.873585879803 6620.771131888032 33153.014889091253 199.21797290444374 190987.98211166263 3552.3216713964939 6324.4146035909653 4822.4897591769695 105690.89833754301 17475.159355387092 9034.852309346199 29129.213914617896 32790.94175350666 667.65776833891869 10088.085134148598 1246.8358463346958 34655.376490011811 29090.349013864994 31544.361230522394 9139.3887989223003 1871.7945134341717 30286.232451170683 5030.2016865611076 23237.114052355289
leaf_count=68778 95676 35305 80008 25899 92346 80723 109494 32445 135283 499 613623 13398 27837 16154 310620 64021 32296 113438 107228 2878 49725 4636 117526 107446 134772 42145 5485 106535 17803 77656
internal_value=0.0385755 0.00864239 0.0467434 0.0175081 0.0513785 0.0366452 0.0560672 -0.014126 0.0139957 -0.023662 0.0479031 0.0493213 -0.00454001 0.0368517 0.0589777 0.0315119 0.046952 0.0189268 0.0423981 0.0466635 -0.0246024 0.0072772 0.0399074 0.0278711 0.00620142 -0.0102171 0.0489308 0.0356242 0.0299815 0.0419409
internal_weight=778707 166935 611772 120150 419308 192465 178494 46784.9 101686 23453.5 240814 194540 23331.4 18464.1 135295 101709 43198.7 62282.2 90755.6 33458.6 23254.3 7571.25 57297 53947.8 39403.7 15760.2 6694.28 47761.4 11769.9 46273.5
internal_count=2721678 710204 2011474 484139 1329441 682033 544756 226065 418798 119002 784685 627021 107063 65341 402966 373678 141790 248721 308355 110106 118503 32473 198249 203122 170077 74590 21639 170556 43702 157664
is_linear=0
shrinkage=0.03


Tree=2
num_leaves=31
num_cat=0
split_feature=3 3 3 1 3 4 13 10 3 8 5 4 2 3 2 2 5 2 3 5 2 1 13 4 1 8 4 5 12 3
split_gain=190267 32262.2 31191 8272.87 6814.81 6290.57 4468.79 3893.75 3732.14 2272.03 2225.11 1986.38 1637.53 1635.48 1509.54 1471.08 1446.51 1407.3 1306.52 1016.95 913.155 1154.39 836.118 687.229 680.826 616.248 595.604 519.414 475.524 398.727
threshold=0.024573273062522123 0.033938049816164863 0.016994669395833006 1.3927752411513603 0.047017244560845724 0.029205604826350415 88.005077358012286 1.3299425133173582e-06 0.020640234708448134 0.054394285249436271 0.2842349792306535 0.026561553588585706 0.16944172556989964 0.05594390211491667 0.032950401854898503 0.16944172556989964 0.36008921129018062 0.0067412419608633813 0.029090655249837043 0.30901282012472742 0.16944172556989964 1.4571502744305256 76.665976761356333 0.020053472631145878 1.7787070833761067 0.05821086300176203 0.0098712925791913982 0.40336128098299268 0.091666666666666688 0.020276160941853378
decision_type=2 2 2 2 2 2 2 2 2 2 2 2 2 2 2 2 2 2 2 2 2 2 2 2 2 2 2 2 2 2
left_child=2 5 7 8 11 10 13 9 16 26 23 27 -13 -6 29 -8 -4 -9 -12 -10 21 -7 -22 -2 -19 -16 -1 -3 -11 -5
right_child=1 4 3 14 6 20 15 17 19 28 18 12 -14 -15 25 -17 -18 24 -20 -21 22 -23 -24 -25 -26 -27 -28 -29 -30 -31
leaf_value=-0.031367632581996319 0.015127280389691054 0.036385142147072301 0.00093756806918887539 0.017430462589709612 0.052041263389795658 0.038250764773611237 0.046886656958314815 -0.012665387057496067 0.011861228612616407 0.10285950052148325 0.028219282476457622 0.047133757375870652 0.02556435795420434 0.058254598074732412 0.039196161320018755 0.032697094762806508 0.015413208900372477 0.00016661882284092926 0.035169374553001294 0.019887599872717751 -0.036559092904415946 0.04573686187114779 0.032557929092065771 0.025710298605158281 0.025646218768057435 0.058996589295561813 -0.021159655260404215 0.042346733285172793 -0.0012707648594121976 0.030501174374753519
leaf_weight=8540.0796318352222 9542.2740140706301 19452.412249848247 29016.977094739676 3182.6091262251139 76718.691902443767 59817.412024542689 36723.117421224713 11629.623606920242 25895.20960213244 150.05297829210758 48730.413022771478 172194.55476133525 3227.1556115150452 75797.152439460158 5869.2232104092836 8009.9427830725908 7905.4160419851542 7274.2829656153917 48642.077170997858 31475.689994215965 261.40923111140728 26864.977974742651 396.36612024903297 13108.698766127229 1084.5472917854786 1863.9032737165689 12937.052957192063 40618.041177898645 53.556917399168015 6177.6904895603657
leaf_count=45608 38251 66532 128682 12516 229484 202642 115435 56086 106738 284 179306 540171 12088 214579 19700 28344 32169 32546 169174 123221 1371 85524 1466 48872 4063 5321 65805 133092 234 22374
internal_value=0.036723 0.0439079 0.00667447 0.0149577 0.0485701 0.0341784 0.0526837 -0.0154677 0.0114767 -0.0242731 0.0297211 0.0451246 0.046737 0.0551292 0.0341603 0.0443459 0.00403693 -0.00591677 0.0316912 0.0162648 0.0403037 0.0405709 0.00508985 0.0212519 0.00347256 0.0439686 -0.0252187 0.0404162 0.0754694 0.026057
internal_weight=793161 640105 153056 111387 432741 207364 197249 41669.2 94293.3 21680.7 120023 235492 175422 152516 17093.4 44733.1 36922.4 19988.5 97372.5 57370.9 87340.2 86682.4 657.775 22651 8358.83 7733.13 21477.1 60070.5 203.61 9360.3
internal_count=2721678 2066331 655347 450721 1339725 726606 587842 204626 390810 111931 435603 751883 552259 444063 59911 143779 160851 92695 348480 229959 291003 288166 2837 87123 36609 25021 111413 199624 518 34890
is_linear=0
shrinkage=0.03


Tree=3
num_leaves=31
num_cat=0
split_feature=3 3 3 4 3 4 13 10 5 8 8 5 4 8 3 7 4 4 3 5 8 5 4 5 7 3 3 4 5 12
split_gain=171891 29269.3 28699.2 6895.02 6038.59 5674.78 4320.69 3755.28 3230.91 2114.03 2003.72 1988.24 1871.67 1239.76 1231.71 1199.23 1053.89 948.773 938.917 862.491 700.2 658.142 655.686 616.435 602.964 588.254 523.232 492.34 489.601 412.906
threshold=0.024573273062522123 0.016994669395833006 0.033938049816164863 0.026011559442381187 0.049861529839557446 0.027519262066870626 83.989697805660825 1.3299425133173582e-06 0.31100865385499271 0.054394285249436271 0.032032643489024383 0.31100865385499271 0.024670371093905095 0.080601507313838597 0.020089281487694389 0.9999964290568194 0.036091058426113577 0.021764030814200256 0.029090655249837043 0.61594823040447022 0.13593292667006926 0.21302465779822613 0.016544114401621578 0.4652280126842529 0.96825242713277448 0.013872944159440799 0.042466818580860759 0.035505963438578501 0.48093999738121429 0.091666666666666688
decision_type=2 2 2 2 2 2 2 2 2 2 2 2 2 2 2 2 2 2 2 2 2 2 2 2 2 2 2 2 2 2
left_child=1 7 5 8 12 11 13 9 14 25 27 22 26 -6 -3 -8 23 21 -13 -14 -18 -9 -2 -7 -12 -1 -4 -5 -10 -11
right_child=2 3 4 10 6 16 15 17 28 29 24 18 19 -15 -16 -17 20 -19 -20 -21 -22 -23 -24 -25 -26 -27 -28 -29 -30 -31
leaf_value=-0.028873941613978417 0.012594260781865096 -0.00092170258843235335 0.036323479235652746 0.020048097515624946 0.052425380209376489 0.032183746063470624 0.044416854326476733 -0.014317335263825524 0.014605134720137672 0.095249683431581439 0.037525996871789952 0.027052494290705466 0.043292594674288018 0.061159832945883438 0.0090034365849120165 0.026939757377470331 0.04133737140380063 0.010452391884600173 0.033530673886633361 0.047305288076647099 0.01431005896022741 -0.00255745020413665 0.023513530390413678 0.038919455168736197 0.061543493409918118 -0.018670567331441498 0.043056932283056897 0.029924027328874572 0.022607864030452125 -0.0012334151828445013
leaf_weight=12721.151137813926 6355.7917411625385 20000.366953909397 37183.311604574323 16258.546754390001 100509.0708489269 32210.164111226797 44212.221768900752 8514.1117826402187 28421.266414135695 157.06549347937107 5252.7380293756723 40283.483026057482 155171.9073804915 17116.067402496934 25730.736124545336 3840.4494910240173 48646.305203229189 2793.9072511047125 40258.8078443259 69936.460649773479 878.27361088991165 8618.8440332710743 22367.180479124188 19711.446840971708 1146.0077873170376 8472.0894417017698 14411.942404285073 6304.8451212048531 9077.9396440088749 53.523828163743019
leaf_count=68475 25521 89219 123300 62785 284358 110493 136170 41387 113932 284 17506 146294 481760 44973 106924 13527 155280 11791 137866 210418 3476 39517 83131 64545 3163 42938 45219 22609 34583 234
internal_value=0.0350154 0.00645173 0.0417299 0.0144022 0.0460702 0.0326177 0.0505998 -0.01513 0.0100151 -0.0238553 0.0270098 0.0278739 0.043358 0.0536964 0.00466271 0.0430201 0.0377272 -0.00575799 0.0302906 0.0445393 0.0408581 -0.00840145 0.0210973 0.0347409 0.0418275 -0.0247951 0.0382043 0.0228077 0.0165425 0.0707273
internal_weight=806616 153523 653093 112192 442381 210711 165678 41330.7 83230.3 21403.8 28962.1 109265 276704 117625 45731.1 48052.7 101446 19926.9 80542.3 225108 49524.6 17133 28723 51921.6 6398.75 21193.2 51595.3 22563.4 37499.2 210.589
internal_count=2721678 655347 2066331 450721 1339725 726606 479028 204626 344658 111931 106063 392812 860697 329331 196143 149697 333794 92695 284160 692178 158756 80904 108652 175038 20669 111413 168519 85394 148515 518
is_linear=0
shrinkage=0.03


Tree=4
num_leaves=31
num_cat=0
split_feature=3 3 3 1 4 10 3 3 2 8 3 8 2 2 2 1 2 1 14 10 4 3 1 14 7 4 4 8 3 12
split_gain=155893 31353.1 21979.2 7231.23 5536.91 4238.64 3973.73 3643.58 3352.14 2173.84 2009.68 1661.2 1566.98 1349.4 1336.08 1263.57 999.343 968.997 943.119 844.721 821.97 793.087 775.774 700.814 663.182 662.661 603.405 573.339 484.338 315.269
threshold=0.025447223380642658 0.017495494013009458 0.036200556406804849 1.4050489971125109 0.029661012488458025 2.3769027463532365e-06 0.049861529839557446 0.022006026214756783 0.14460573484640518 0.056950698005019035 0.029748989322864527 0.12690484013121767 0.0072200063055029547 0.023490817293783165 0.16944172556989964 0.59365388753780934 0.16944172556989964 1.4571502744305256 0.044583287287844602 0.00036826992407389646 0.0211132397095509 0.013872944159440799 1.4050489971125109 0.059336693162464753 0.99996688325196759 0.0199203143871414 0.020191283707438955 0.054394285249436271 0.014962942079638384 0.10833333333333335
decision_type=2 2 2 2 2 2 2 2 2 2 2 2 2 2 2 2 2 2 2 2 2 2 2 2 2 2 2 2 2 2
left_child=1 5 4 7 10 9 14 19 11 21 25 -8 28 -5 15 -4 17 -6 -18 -3 -9 -1 -14 -16 -10 -2 -12 -15 -7 -11
right_child=2 3 6 13 16 12 8 20 24 29 26 -13 22 27 23 -17 18 -19 -20 -21 -22 -23 -24 -25 -26 -27 -28 -29 -30 -31
leaf_value=-0.028358211249185659 0.021271835211193781 0.0051962954082782169 0.037612788538204475 0.023220038773905424 0.036546061809658088 -0.017525986389102306 0.048407773902983835 0.01445993548548927 0.036554731541291074 0.08910586863657044 0.028364580252467107 0.061644081386188938 -0.00022504467504516585 0.035280558323267923 -0.0096660456647389478 0.043354389012619468 -0.03022341373621373 0.042692254419885736 0.029911479981447987 0.01522474774673347 0.021778379081832278 -0.016980920778396174 0.018794104790409296 0.02960449713645914 0.019838800366805461 0.02760402199314595 0.034254487512297815 0.050594411856446517 -0.0060207112284307472 -0.000959326369169286
leaf_weight=12586.696962192655 24421.464976117015 42430.021321490407 42440.93457710743 7983.6175810396671 76711.390517622232 5577.9969727844 148472.07468797266 28022.763219475746 8973.7306379824877 176.8579411059618 22592.801714405417 9053.9487864077091 6880.1727422326803 8328.2673811912537 457.27216976881027 184287.61989146471 362.91176772117615 33025.049819245934 664.51810368895531 9198.1803734451532 27236.981313243508 9813.5680929720402 2682.8075791299343 3873.3505706191063 2803.3621578961611 38045.976365819573 50972.957208961248 2990.3679207712412 8038.9097006320953 43.603141322731972
leaf_count=68778 90577 180563 133381 29108 245851 28063 417620 110772 28725 312 78249 22502 30930 27406 1975 552003 1833 100018 2365 36874 101865 49725 10522 13346 10181 134084 167836 8479 37548 187
internal_value=0.0334351 0.00804843 0.040182 0.0157651 0.0331403 -0.0132127 0.0445227 0.0127133 0.0480143 -0.0224512 0.0290855 0.0491685 -0.00419705 0.0326647 0.0419643 0.0422796 0.03812 0.0383958 0.00867046 0.00698298 0.0180671 -0.0233738 0.00511061 0.0254579 0.0325758 0.0251285 0.0324456 0.0393265 -0.0107337 0.0712926
internal_weight=819150 171991 647159 126190 246797 45800.6 400362 106888 169303 22620.7 136033 157526 23179.9 19302.3 231059 226729 110764 109736 1027.43 51628.2 55259.7 22400.3 9562.98 4330.62 11777.1 62467.4 73565.8 11318.6 13616.9 220.461
internal_count=2721678 721132 2000546 495067 820813 226065 1179733 430074 479028 119002 470746 440122 107063 64993 700705 685384 350067 345869 4198 217437 212637 118503 41452 15321 38906 224661 246085 35885 65611 499
is_linear=0
shrinkage=0.03


Tree=5
num_leaves=31
num_cat=0
split_feature=4 5 5 10 4 5 5 4 5 2 4 4 4 2 2 10 9 8 2 5 2 5 2 13 4 7 5 5 5 2
split_gain=107634 33693.2 17815.2 8299.38 8021.16 5218.39 4030.72 3917.45 2697.41 2565.71 2093.48 1903.41 1670.61 1591.03 1396.67 824.942 793.038 766.034 2601.59 686.146 670.136 621.758 607.384 1031.45 664.924 604.745 546.259 320.968 245.783 141.969
threshold=0.020191283707438955 0.28608845560983787 0.36390097893221557 1.3299425133173582e-06 0.033057844789025147 0.75595215491531509 0.49486832690444393 0.029508191618032149 0.26315785206321857 0.16944172556989964 0.015100668359939959 0.014012736863897018 0.01114904813267409 0.023490817293783165 0.028024164410973527 8.1345210202892739e-08 0.50136417529100463 0.074097687097467238 -0.010880314122441307 0.35261328147722232 0.024061547876989827 0.2073039492306569 0.16944172556989964 75.217580989936948 0.04233842901603093 0.56716328945081429 0.16371880360572963 0.6538752998276105 0.20141563897592582 0.013059658680823165
decision_type=2 2 2 2 2 2 2 2 2 2 2 2 2 2 2 2 2 2 2 2 2 2 2 2 2 2 2 2 2 2
left_child=1 3 4 12 8 7 10 14 15 -9 19 26 28 -10 -4 -2 -14 25 -19 -3 -12 -13 24 -24 -6 -7 -5 29 -1 -8
right_child=2 6 5 11 22 17 27 9 13 -11 20 21 16 -15 -16 -17 -18 18 -20 -21 -22 -23 23 -25 -26 -27 -28 -29 -30 -31
leaf_value=-0.030473661869662431 0.0043165420335127946 0.005205305234022242 0.032380545729857692 -0.015868942940530841 0.034089192227105977 0.04288504137855878 0.026720846781298914 0.041281422188848671 0.023930248808070591 0.025792394032503517 0.019652542687055029 0.001119135910961025 -0.0058959688043974372 0.034179828372970567 0.040393842896682963 0.018510822208170484 -0.02013359468091757 0.066568277815972202 0.042251237420514766 0.015352043346130839 0.028791364464520432 0.010582544091560677 -0.029745816372903015 0.029991944631477661 0.039802705346376782 0.047900492234160263 -0.0027241414974134882 0.034501594318540073 -0.020484262575017738 0.032501089293443926
leaf_weight=8183.4119832962751 4182.9195881038904 11397.904188796878 90632.201232239604 3658.248162701726 36929.570557281375 46794.664210736752 14307.559059336782 260530.05404643714 42674.637718692422 9994.2511926740408 34356.258150815964 9630.1651916950941 7842.0197253525257 20027.062908962369 24968.445935040712 30957.939182713628 6389.9740922152996 6740.5738320350647 9597.8448123037815 12660.305615618825 9143.3326427191496 17793.367979064584 319.57534654438496 1398.491355791688 36401.979310259223 40245.649921923876 12804.446947515011 11990.726853072643 3040.3068020045757 5219.2571336776018
leaf_count=45520 17961 47939 294307 17987 117301 135131 49591 764584 150673 34352 127296 42025 37029 64639 75663 115739 32566 15320 27552 48804 31525 72110 1591 4749 108921 111409 57516 38756 15772 17350
internal_value=0.0319679 0.0105533 0.0374127 -0.00548591 0.0291342 0.0403366 0.0217791 0.0387339 0.0234749 0.0407092 0.017646 0.00241859 -0.0191134 0.027204 0.0341113 0.0168212 -0.0122885 0.0463229 0.0522835 0.0105449 0.0215735 0.00725933 0.0365123 0.0188802 0.0369254 0.0452041 -0.00564511 0.0306382 -0.0277677 0.0282658
internal_weight=830813 168417 662396 69341.9 172892 489504 99075.3 386125 97842.6 270524 67557.8 43886.2 25455.7 62701.7 115601 35140.9 14232 103379 16338.4 24058.2 43499.6 27423.5 75049.6 1718.07 73331.5 87040.3 16462.7 31517.5 11223.7 19526.8
internal_count=2721678 681786 2039892 320525 581574 1458318 361261 1168906 349012 798936 255564 189638 130887 215312 369970 133700 69595 289412 42872 96743 158821 114135 232562 6340 226222 246540 75503 105697 61292 66941
is_linear=0
shrinkage=0.03


Tree=6
num_leaves=31
num_cat=0
split_feature=3 3 3 1 3 4 10 2 3 8 4 5 5 2 2 1 2 5 5 3 2 4 8 4 4 1 2 5 8 12
split_gain=132161 24263.3 22117.5 5736.13 5431.4 3999.08 3308.57 2932.97 2375.74 1830.74 1714.41 1621.67 1397.03 1377.62 1241.85 1227.2 1121.66 957.606 852.257 807.429 686.404 642.207 614.758 586.444 564.463 553.799 394.994 366.366 323.294 321.107
threshold=0.024000306199131138 0.032639114907283114 0.016994669395833006 1.3927752411513603 0.047017244560845724 0.025470650504444661 1.3299425133173582e-06 0.15504710968584859 0.020089281487694389 0.054394285249436271 0.02935015502881071 0.81337598279244916 0.43951984541537009 0.16944172556989964 0.0067412419608633813 1.3362076187810452 0.044250575299147832 0.36573088645174151 0.3128393971182401 0.028177648350696544 0.16944172556989964 0.015763545146684259 0.098772250649789006 0.017730491422136035 0.0098712925791913982 1.7787070833761067 0.0086690416640386441 0.32921936301496574 0.063858725210069037 0.10833333333333335
decision_type=2 2 2 2 2 2 2 2 2 2 2 2 2 2 2 2 2 2 2 2 2 2 2 2 2 2 2 2 2 2
left_child=2 5 6 8 10 12 9 11 17 24 23 -6 21 -12 27 19 26 -4 -10 -7 -17 -2 -9 -3 -1 -16 -5 -8 -18 -11
right_child=1 4 3 16 7 15 14 22 18 29 13 -13 -14 -15 25 20 28 -19 -20 -21 -22 -23 -24 -25 -26 -27 -28 -29 -30 -31
leaf_value=-0.029896532063061129 0.013523754400787045 0.027753288171616663 -0.00055443180003968075 0.015905117943452517 0.042547781513946552 0.024852081974971844 -0.014202881665523701 0.034485152763235674 0.0086136220228180561 0.081479347947172945 0.038928003649005644 0.048976015819197222 0.027378557368072241 0.020036000035077654 0.00010984816438985084 0.036248671254752431 0.035723722775802866 0.012876351445627175 0.015995949695404237 0.031384176091005439 0.0011888588389071997 0.021369952387898829 0.020596900202353986 0.034572608315320663 -0.019693343884530007 0.022765281582954842 0.027496912209163435 0.0012987783615233004 0.053578175300628889 -0.0070639271532669653
leaf_weight=8041.1352722942829 11762.536391288042 13017.191221997142 24828.263840198517 4393.9031795859337 156304.93810836971 27541.614492058754 9878.1641930937767 6735.8566832095385 27452.241718679667 175.49706827104092 178913.99961064756 45631.520692020655 34860.350863918662 3542.6794491112232 7280.2935517132282 34478.302199736238 3844.6494783908129 5916.2752633243799 28881.129551261663 44627.842476934195 510.01177345216274 46518.166769251227 4996.0620838552713 88605.327935039997 12412.480549544096 1120.5285581946373 6649.2928233742714 1593.4978078752756 1196.8892583847046 46.663704574108124
leaf_count=45608 45183 42899 109811 16324 431725 93900 48903 21006 111890 306 520727 117868 117930 12665 32546 104126 11846 23373 109777 142269 2180 166158 17243 272608 65805 4063 22506 7183 3038 212
internal_value=0.030598 0.0359917 0.0043995 0.011778 0.0395397 0.0271747 -0.0143729 0.0431532 0.00873768 -0.0227743 0.0368219 0.0440004 0.0226279 0.0385612 -0.0056319 0.0311268 0.0282375 0.0020301 0.0123984 0.0288914 0.0357376 0.0197864 0.0285708 0.0336991 -0.0237046 0.0031317 0.0228847 -0.0120496 0.0399625 0.0628813
internal_weight=841757 698046 143711 103163 497748 200299 40548.3 213668 87077.9 20675.8 284079 201936 93141.1 182457 19872.5 107158 16084.7 30744.5 56333.4 72169.5 34988.3 58280.7 11731.9 101623 20453.6 8400.82 11043.2 11471.7 5041.54 222.161
internal_count=2721678 2108487 613191 408565 1436741 671746 204626 587842 354851 111931 848899 549593 329271 533392 92695 342475 53714 133184 221667 236169 106306 211341 38249 315507 111413 36609 38830 56086 14884 518
is_linear=0
shrinkage=0.03


Tree=7
num_leaves=31
num_cat=0
split_feature=3 3 3 1 3 1 13 10 3 3 8 1 1 6 5 5 10 1 8 3 8 5 8 6 13 5 8 6 12 3
split_gain=120871 22039.2 20819.6 5541.35 4928.4 3247.29 3121 2940.63 2523.79 2087.64 1596.94 1277.04 1184.82 1054.8 988.444 904.149 793.577 783.337 623.16 621.242 592.45 584.082 543.518 524.3 499.154 494.008 490.221 422.419 279.874 250.201
threshold=0.024000306199131138 0.032639114907283114 0.01673208870916525 1.3927752411513603 0.047017244560845724 1.2008293884231611 89.905062340393584 1.3299425133173582e-06 0.020089281487694389 0.028304264944394534 0.054394285249436271 0.63276903652981931 0.75321200455996207 0.49579079673158416 0.36390097893221557 0.4652280126842529 0.00043475201598051054 1.4172217162968341 0.012624498227584947 0.037987673705672624 0.13593292667006926 0.2996567320590397 0.044057287988525921 0.28566756654986125 82.51883874501894 0.32921936301496574 0.13593292667006926 0.6259799111760439 0.091666666666666688 0.021673917063356946
decision_type=2 2 2 2 2 2 2 2 2 2 2 2 2 2 2 2 2 2 2 2 2 2 2 2 2 2 2 2 2 2
left_child=2 5 7 8 12 9 11 10 14 15 24 -6 19 29 -4 -2 -10 25 -8 -3 -14 -11 -15 -7 -1 -9 -25 -19 -12 -5
right_child=1 4 3 13 6 23 18 17 16 21 28 -13 20 22 -16 -17 -18 27 -20 -21 -22 -23 -24 26 -26 -27 -28 -29 -30 -31
leaf_value=-0.024767347179068221 0.018004281213429361 0.029863068659509835 -0.0010471775666578743 0.014485707725692949 0.039101662347039171 0.028337937560596754 0.036903270014328166 -0.01093316967893616 0.010379311718245743 0.021569098059964979 0.078930723416589577 0.044665430655197777 0.036931168246010483 0.028689174831060427 0.012176808061840747 0.025427124516927302 0.01994939819478217 -8.521265782142889e-05 0.02951457649870191 0.03457428988871749 0.026614119636573442 0.028398322521969076 0.044397393261005086 0.035224326176310196 -0.0018261901852482292 0.004527898852472614 0.010789535271822887 0.024417199752899563 -0.0058617995413711736 0.025290852182703872
leaf_weight=18636.891718134284 51372.181726485491 42772.68958722055 26458.057309448719 4562.0697032958269 53568.883764639497 17795.014468237758 25266.918785452843 13225.619321838021 47320.870776757598 13645.056280568242 160.38938423991203 120978.50720670819 179007.88648222387 5662.1422097980976 6298.0129029452801 20727.51569019258 9336.9966436475515 1793.9128886014223 17312.118480801582 61281.382791951299 5153.5922878831625 64790.281982943416 3050.5096929520369 33504.098171755672 894.55615583062172 2164.303462728858 755.61854550242424 978.72429031133652 44.82515861093998 3341.3674035221338
leaf_count=103612 185425 133389 117783 16922 146906 56672 72390 64367 187184 47401 262 314968 517503 18415 24840 69896 34483 7902 53578 181375 16632 209005 8359 100447 4481 9507 2900 3568 201 11305
internal_value=0.0293212 0.0344166 0.00425904 0.0110806 0.0377681 0.0260566 0.0411815 -0.0148255 0.00812411 0.0238231 -0.0228419 0.0429579 0.0351966 0.02699 0.0014954 0.0201382 0.0119564 -0.00611441 0.0338991 0.0326377 0.0366425 0.0272103 0.034189 0.0325155 -0.0237166 -0.00875886 0.0346854 0.00856399 0.0604094 0.0190538
internal_weight=851861 707932 143929 106030 505342 202590 217126 37899.2 89413.9 150535 19736.7 174547 288216 16616.1 32756.1 72099.7 56657.9 18162.6 42579 104054 184161 78435.3 8712.65 52054.7 19531.4 15389.9 34259.7 2772.64 205.215 7903.44
internal_count=2721678 2108487 613191 419291 1436741 671746 587842 193900 364290 511727 108556 461874 848899 55001 142623 255321 221667 85344 125968 314764 534135 256406 26774 160019 108093 73874 103347 11470 463 28227
is_linear=0
shrinkage=0.03


Tree=8
num_leaves=31
num_cat=0
split_feature=3 3 3 1 3 10 1 13 5 3 8 3 1 2 1 2 3 2 5 3 8 5 2 2 13 8 1 2 3 3
split_gain=110794 20106.1 19603.4 4967.43 4575.52 3078.42 2924.61 2874.32 2052.98 1836.19 1618.48 1258.3 1221.87 1158.47 1108.56 1149.44 1004.29 999.175 828.845 550.355 547.135 539.517 519.335 497.733 556.479 534.631 488.532 449.894 363.546 340.179
threshold=0.024000306199131138 0.032502105002714533 0.016994669395833006 1.2149497966389007 0.047017244560845724 1.3299425133173582e-06 1.2008293884231611 83.989697805660825 0.3128393971182401 0.028304264944394534 0.054394285249436271 0.059889731335584763 1.7505227449108915 0.0067412419608633813 0.63646084890538501 0.16944172556989964 0.020089281487694389 0.16944172556989964 0.4652280126842529 0.013872944159440799 0.088593030800758893 0.2996567320590397 0.010660978900328124 0.16944172556989964 78.126009149623272 0.053214400722327401 2.0642565112138254 -0.034059582214820271 0.013872944159440799 0.021343194922535339
decision_type=2 2 2 2 2 2 2 2 2 2 2 2 2 2 2 2 2 2 2 2 2 2 2 2 2 2 2 2 2 2
left_child=2 6 5 8 14 10 9 11 16 18 19 -6 20 28 27 -16 -4 -9 -2 -1 -5 -11 -14 25 -25 -8 -15 -3 -7 -10
right_child=1 4 3 12 7 13 23 17 29 21 -12 -13 22 26 15 -17 -18 -19 -20 -21 -22 -23 -24 24 -26 -27 -28 -29 -30 -31
leaf_value=-0.027036602614425996 0.017326447270125171 0.027529263643574612 -0.0023756535559125683 0.017588313592514178 0.0395269924002725 -0.019781550719325944 0.029632672512792592 0.035448865451434095 0.0092969782249109467 0.020549708541924366 0.057026512067852198 0.045121268446374319 0.016090870107225746 0.00094972679443102641 0.034898143089722895 0.018512457366420501 0.0068523359537771798 0.024680223447179829 0.024398577550284295 -0.016881020619594771 0.072731578817695444 0.027172190622385295 0.036011250660366992 -0.036269011152779911 0.026634208297402113 0.036813177246106069 0.027383348358766851 0.032541865351902607 -0.0080716752793710423 0.01517210053535737
leaf_weight=11845.881260812283 51774.197002828121 30524.667417749763 18504.099976092577 16670.052513420582 102937.7650012821 3410.613159686327 39029.83625780046 52472.622628957033 15756.969966053963 13414.9088101089 230.54537826776505 55801.712987333536 1438.5322242081165 7716.3468833118677 226899.53711736202 3919.5519484877586 24893.409095287323 9099.4043261259794 20949.78423345089 8077.3365403264761 163.52780640125275 63378.555491060019 6500.1544105261564 206.94244660437107 325.91981703042984 12264.866130679846 685.1179376244545 34136.460565492511 7943.8517790734768 20293.169166266918
leaf_count=68475 185425 93861 83056 60946 272643 17811 120014 146924 63029 46245 518 138774 5179 34276 650290 13647 101207 29501 69896 42938 339 202246 19107 1102 1129 35193 2333 101597 38275 75702
internal_value=0.0281249 0.0329487 0.00412366 0.0109703 0.0360872 -0.0137555 0.0249088 0.0393594 0.007313 0.02278 -0.0220048 0.0414935 0.0226995 -0.00534008 0.0336473 0.0346199 0.00291765 0.0338574 0.0193637 -0.0229193 0.018124 0.0260153 0.0324016 0.0310499 0.00220511 0.0313496 0.00310532 0.0301756 -0.011589 0.0126042
internal_weight=861266 717137 144130 104220 515792 39909.7 201345 220312 79447.6 149517 20153.8 158739 24772.3 19755.9 295480 230819 43397.5 61572 72724 19923.2 16833.6 76793.5 7938.69 51827.6 532.862 51294.7 8401.46 64661.1 11354.5 36050.1
internal_count=2721678 2108487 613191 408565 1447237 204626 661250 587842 322994 503812 111931 411417 85571 92695 859395 663937 184263 176425 255321 111413 61285 248491 24286 157438 2231 155207 36609 195458 56086 138731
is_linear=0
shrinkage=0.03


Tree=9
num_leaves=31
num_cat=0
split_feature=3 3 3 1 3 4 2 3 10 4 8 5 8 7 2 2 5 2 1 5 5 2 8 3 4 4 2 8 1 12
split_gain=101806 19988.4 17101.3 4864.31 4627.33 3302.66 2483.11 2356.34 2263.39 1749.05 1706.69 1290.67 1239.57 1018.28 1009.49 967.976 912.779 905.428 820.605 795.008 557.433 497.051 494.66 488.097 431.484 418.373 335.507 334.887 313.666 312.101
threshold=0.02355112886445122 0.03179518778630476 0.016179136934182634 1.3927752411513603 0.044614141304755141 0.026829261633828226 0.11728725715971509 0.019485877709534499 1.3299425133173582e-06 0.029508191618032149 0.098772250649789006 0.31100865385499271 0.050883786317908325 0.99996688325196759 0.042590948325781579 0.16944172556989964 0.37499997103240462 0.0067412419608633813 1.4437698176330558 0.3128393971182401 0.50715784345580983 0.15504710968584859 -0.054222493807780305 0.027106712080455123 0.017443044350949895 0.0095011853400182866 0.0072200063055029547 0.062351664518156449 2.0642565112138254 0.10833333333333335
decision_type=2 2 2 2 2 2 2 2 2 2 2 2 2 2 2 2 2 2 2 2 2 2 2 2 2 2 2 2 2 2
left_child=2 5 8 7 9 11 10 16 12 20 -6 24 25 -8 26 -11 -4 -10 22 -9 -3 -20 -7 -13 -2 -1 -5 -16 -19 -14
right_child=1 4 3 14 6 18 13 19 17 15 -12 23 29 -15 27 -17 -18 28 21 -21 -22 -23 -24 -25 -26 -27 -28 -29 -30 -31
leaf_value=-0.029670256171533117 0.0090401331962496195 0.02680944209336969 -0.0027437582596641372 0.012394802056272735 0.037437568492786226 0.037641212801452779 0.031156685342956125 0.0064116558236038783 -0.013569355254972534 0.03387055944317989 0.046841696985735662 0.018826669725378182 0.072786084598665299 0.015681851259868419 0.030898583154113785 0.016444742943435498 0.011852413733096753 -0.00059954597410172099 0.032344178267136738 0.013524297165166187 0.031167655264236874 0.0049554520087207151 0.024912070480957029 0.023779402509566516 0.016734984801003685 -0.020176651413699717 0.023226506949598234 0.048830896764295743 0.023792678968836949 -0.01880186761670271
leaf_weight=6806.8374356031418 9469.723712131381 61169.789526239038 25331.698371738195 4186.0477248132229 217887.24249748886 2878.2266291379929 19929.066577106714 28907.304023519158 8523.0313487201929 168018.56197617948 18872.840378537774 31016.307549640536 150.75894597172737 4736.5471054762602 3990.295630723238 2918.7749059796333 4548.2688643038273 5866.4369461238384 26482.447117179632 27692.168483898044 46485.38543023169 610.0864594578743 60531.692003831267 42375.8355884552 21334.101432159543 10816.501631334424 6681.6507778614759 1225.0230974704027 516.2188756018877 43.047250539064407
leaf_count=40593 36671 188254 114970 15511 576057 8313 57764 118072 43077 471725 44861 108456 255 15909 12028 10251 17883 26328 76512 104386 136470 2402 192792 138634 76087 60205 22309 2920 1771 212
internal_value=0.0270019 0.0314056 0.00308629 0.00911108 0.0343767 0.0231647 0.0372435 0.00629357 -0.0157971 0.0316866 0.0381872 0.0195232 -0.0230137 0.028185 0.024261 0.033573 -0.000521958 -0.00717089 0.0273571 0.00989163 0.0286913 0.0317274 0.0254899 0.0216863 0.0143694 -0.0238435 0.0190543 0.0351107 0.00137326 0.052443
internal_weight=870002 734717 135285 102562 540018 194698 261426 86479.4 32722.8 278593 236760 104196 17817.1 24665.6 16083 170937 29880 14905.7 90502.5 56599.5 107655 27092.5 63409.9 73392.1 30803.8 17623.3 10867.7 5215.32 6382.66 193.806
internal_count=2721678 2141158 580520 408079 1501291 639867 694591 355311 172441 806700 620918 359848 101265 73673 52768 481976 132853 71176 280019 222458 324724 78914 201105 247090 112758 100798 37820 14948 28099 467
is_linear=0
shrinkage=0.03


Tree=10
num_leaves=31
num_cat=0
split_feature=3 3 3 1 4 10 2 3 3 13 8 2 2 4 2 2 7 3 3 3 10 13 1 8 8 3 10 4 4 13
split_gain=93808.1 21443 13199.4 4660.71 3587.55 3323.6 2407.94 2725.9 2129.55 1842.78 1590.04 1238.15 1212.7 1203.14 1108 774.049 753.692 731.942 708.026 646.251 631.485 528.612 477.832 437.757 436.337 430.1 427.02 276.53 252.24 230.405
threshold=0.025447223380642658 0.017495494013009458 0.036686449615268409 1.2223228619424569 0.023602480868027461 2.3769027463532365e-06 0.16944172556989964 0.052121694816372001 0.021168827109106874 80.686736928234822 0.056950698005019035 0.01211048667918343 0.030462571324961506 0.036091058426113577 -0.031072797086116152 0.16944172556989964 0.85336400993948669 0.029888765523406757 0.013872944159440799 0.029482706054669131 0.00051180052314563843 89.142339127431811 1.7505227449108915 0.05821086300176203 0.12690484013121767 0.013872944159440799 8.5743024049611646e-09 0.015100668359939959 0.016393438092413646 75.217580989936948
decision_type=2 2 2 2 2 2 2 2 2 2 2 2 2 2 2 2 2 2 2 2 2 2 2 2 2 2 2 2 2 2
left_child=1 5 4 8 17 10 7 14 26 -9 18 25 21 19 -4 -15 29 27 -1 -6 -10 -5 -13 -14 -18 -7 -3 -2 -19 -8
right_child=2 3 6 12 13 11 16 9 20 -11 -12 22 23 15 -16 -17 24 28 -20 -21 -22 -23 -24 -25 -26 -27 -28 -29 -30 -31
leaf_value=-0.026199168949714805 0.012951351084257486 -0.002970864913321828 0.029932666827034313 0.016747304632791726 0.022927550026637572 -0.017290316745380278 4.0799673849393885e-06 0.039990660912434806 0.011402649463328605 0.032721751229787432 0.056088321077613107 0.0024841847591207129 0.026526955883837113 0.031360162903209636 0.034086877646348296 0.0062757793851738863 0.022311931192537961 0.018950789986843571 -0.015091240200701775 0.027733327915050322 0.020125679092480527 0.054036654592717968 0.022105431975333295 0.039687893721794716 0.006491112663212539 -0.0058262225845518148 0.0051305081189050956 0.019125035333683951 0.02460444546874687 0.029397196375717204
leaf_weight=11551.096541851759 7986.1914013624191 7298.8682488203049 85759.312949299812 17664.307344600558 38019.970472216606 3981.7653949856758 248.8189490288496 104485.5647611171 54688.291243225336 44868.043469041586 242.1346974670887 6358.3711658120155 10277.68930003047 75148.393813863397 177135.23946624994 1123.6987463980913 3009.3465600460768 8886.1444449275732 9340.6535262018442 74590.369851008058 8650.6097935736179 348.9030472189188 1355.0880946666002 2921.0492602884769 3277.8894125819206 11315.193749412894 29613.642204686999 35804.643098816276 35379.255335181952 6785.793691188097
leaf_count=68778 28976 32443 241911 62376 122136 20828 912 257857 206017 121728 499 27837 32289 213585 482674 4399 9642 29524 49725 222160 30368 948 4636 7616 11856 53762 123010 121974 110768 20444
internal_value=0.0259451 0.0063332 0.0308475 0.0124079 0.0257499 -0.0117576 0.0341648 0.0345704 0.00925613 0.037807 -0.020347 -0.00386871 0.0225314 0.0280813 0.0327317 0.0309906 0.0216116 0.0207491 -0.0212328 0.0261108 0.012594 0.0174696 0.00593121 0.0294396 0.0140636 -0.0088103 0.00352859 0.0179991 0.0234695 0.0283575
internal_weight=878116 175608 702509 131463 276939 44144.3 425570 412248 100251 149354 21133.9 23010.4 31211.9 188882 262895 76272.1 13321.8 88056.2 20891.8 112610 63338.9 18013.2 7713.46 13198.7 6287.24 15297 36912.5 43790.8 44265.4 7034.61
internal_count=2721678 721132 2000546 495067 853522 226065 1147024 1104170 391838 379585 119002 107063 103229 562280 724585 217984 42854 291242 118503 344296 236385 63324 32473 39905 21498 74590 155453 150950 140292 21356
is_linear=0
shrinkage=0.03


Tree=11
num_leaves=31
num_cat=0
split_feature=3 3 3 1 3 4 13 10 3 4 8 1 1 2 6 2 4 7 3 10 3 13 11 7 2 1 1 4 3 3
split_gain=86649.1 17383.7 14867.9 4164.75 3979.34 2919.48 2351.21 2112.33 2002.34 1530.16 1117.67 1099.7 1070.77 925.221 844.618 825.039 697.086 663.339 634.398 610.658 577.88 493.664 489.824 479.608 438.501 277.547 275.004 233.67 222.76 202.829
threshold=0.023401145672090774 0.03179518778630476 0.016179136934182634 1.4050489971125109 0.046006389990397453 0.023054752544974168 93.819808539696922 1.3299425133173582e-06 0.018656710592852968 0.028083024633160255 0.050883786317908325 1.4437698176330558 0.55930277157840969 0.16944172556989964 0.53779780239997554 0.0067412419608633813 0.022550205163142181 0.999988892152474 0.027915601174162263 8.5743024049611646e-09 0.027106712080455123 82.165340403079156 0.00061271275001147628 0.99038348166542634 0.15504710968584859 1.4878617803294378 2.0642565112138254 0.014209180647929941 0.020276160941853378 0.013872944159440799
decision_type=2 2 2 2 2 2 2 2 2 2 2 2 2 2 2 2 2 2 2 2 2 2 2 2 2 2 2 2 2 2
left_child=2 5 7 8 9 20 12 10 19 22 21 18 -6 -11 28 29 -10 -8 -7 -4 -2 -1 -3 -16 -13 -12 -17 -22 -5 -9
right_child=1 4 3 14 6 11 17 15 16 13 25 24 -14 -15 23 26 -18 -19 -20 -21 27 -23 -24 -25 -26 -27 -28 -29 -30 -31
leaf_value=-0.024238168184527849 0.014152695570275134 0.024385763708311949 -0.010774584318454272 0.010097124321085798 0.031381439092154483 0.01984762508069261 0.028394879193820187 -0.018796890983756791 0.0062406202120376224 0.031112808139565622 -0.03420075366943038 0.029740707212821262 0.036672783860559485 0.015454449847594198 0.026921126461502885 -0.000587380575127391 0.01305700633767252 0.015177836849526935 0.024812993730167564 0.00074201963427669075 0.013006633857506559 -0.0004057321934452312 0.028560964613285767 0.049589640097336289 0.0042363772351162012 0.063858782804302877 0.022062001730961268 0.020183378682565662 0.020229442318596975 -0.0092649173254842326
leaf_weight=16327.179369047284 38376.451580226421 53709.908230870962 5673.0461024343967 3474.2573515325785 43114.46308760345 41796.223475217819 26472.036408022046 3316.8734883666039 44560.879063680768 202893.10679401457 30.759391382336617 29223.577135384083 170676.16524997354 3454.0342697054148 6519.1891157031059 5864.4026115685701 19373.069694474339 3924.1020311713219 51931.80998557806 15371.339311107993 4631.2906026691198 821.59669840335846 47790.455298691988 964.25207571685314 619.57963867485523 167.10464976727962 525.72013314068317 34495.573980942369 4459.3231274783611 5095.8090349286795
leaf_count=96487 137767 161740 27877 12866 114253 137998 74710 17811 179571 557827 163 83126 429156 11932 19718 26328 72804 12939 158939 67554 16443 4311 138734 2306 2418 304 1771 113805 14754 25266
internal_value=0.0249484 0.028885 0.00258081 0.00826665 0.0316358 0.0213329 0.0344957 -0.0151748 0.00566407 0.0293673 -0.0222784 0.0241957 0.0356057 0.0308507 0.022612 -0.00685041 0.0083061 0.0266886 0.0225988 -0.00236257 0.0167684 -0.0230964 0.0263516 0.029842 0.0292112 0.0486147 0.001276 0.0193339 0.0157923 -0.0130231
internal_weight=885654 753109 132545 100395 552034 201075 244187 32149.4 84978.3 307848 17346.6 123571 213791 206347 15417 14802.8 63933.9 30396.1 93728 21044.4 77503.3 17148.8 101500 7483.44 29843.2 197.864 6390.12 39126.9 7933.58 8412.68
internal_count=2721678 2151787 569891 397450 1501291 650496 631058 172441 347806 870233 101265 382481 543409 569759 49644 71176 252375 87649 296937 95431 268015 100798 300474 22024 85544 467 28099 130248 27620 43077
is_linear=0
shrinkage=0.03


Tree=12
num_leaves=31
num_cat=0
split_feature=3 3 3 1 4 3 13 10 5 5 4 3 8 1 2 2 4 2 2 4 5 2 8 13 10 2 2 1 1 0
split_gain=80023.4 16112.6 14038.9 3913.47 3272.6 3142.9 2481.55 2043.74 1912.83 1258.79 1125.71 1069.73 1057.12 1035.15 1018.87 856.677 853.896 784.356 679.787 594.082 536.821 511.877 481.885 478.194 378.668 342.751 338.301 256.304 256.302 238.269
threshold=0.023401145672090774 0.033201334010415348 0.016179136934182634 1.2149497966389007 0.025470650504444661 0.049861529839557446 83.989697805660825 1.3299425133173582e-06 0.32009167545021433 0.43951984541537009 0.023602480868027461 0.018656710592852968 0.050883786317908325 0.61174888554381257 0.030462571324961506 0.16944172556989964 0.036091058426113577 0.0067412419608633813 0.14460573484640518 0.016077166465421264 0.46304098281147349 0.16944172556989964 0.066996157772135342 82.165340403079156 0.00041486704384971533 0.0038359202555920549 -0.02822487156897855 2.0642565112138254 1.4878617803294378 0.77447287612705817
decision_type=2 2 2 2 2 2 2 2 2 2 2 2 2 2 2 2 2 2 2 2 2 2 2 2 2 2 2 2 2 2
left_child=2 4 7 8 9 10 13 12 11 19 26 -4 23 -7 24 -12 20 -9 -8 -2 -6 -18 -16 -1 -5 -10 -3 -19 -14 -11
right_child=1 5 3 14 16 6 18 17 25 29 15 -13 28 -15 22 -17 21 27 -20 -21 -22 -23 -24 -25 -26 -27 -28 -29 -30 -31
leaf_value=-0.023860573883043752 0.0099026864321818328 0.021943805414384471 -0.006081530861569825 0.011010980588176194 0.020628533034381839 0.031933604630600868 0.030130424202708599 -0.012725011151986309 0.0082682240422285516 0.019273297366585358 0.029943714794489765 0.0038441032069294421 -0.033763003736192267 0.037692254782289547 0.023560106952570475 0.017176021969336253 0.027814534599244795 -0.00056993115354911068 0.021911568144623916 0.016556963238506851 0.025890467467885259 -0.0004497023063537925 0.043823630354590491 -0.00039365419811252715 0.022886122756976556 0.015031666004555348 0.026852636609487064 0.021206519373696039 0.061058875266928846 0.023838678118221105
leaf_weight=16091.581943899393 15561.102759689093 20506.918840348721 14073.411815628409 11461.592818334699 48337.402211710811 39916.333510130644 43047.119338586926 8352.5050455778837 20514.581138670444 19508.482924774289 273440.19075331092 31976.651932403445 30.231464385986328 94849.709468796849 8393.3735139966011 4812.9606267362833 52128.953566774726 5862.6670595854521 11470.597619250417 53899.7358314991 27307.076314941049 583.1292429715395 1208.2741713225842 821.40185797214508 3062.4224309325218 10045.701279163361 32917.807967036963 530.44616203010082 169.48626779019833 21769.819153085351
leaf_count=96487 57380 61762 66227 42688 152613 102017 114675 43077 79448 63422 742136 131857 163 227314 26605 15995 148703 26328 35022 183371 81306 2439 2833 4311 10347 37445 95094 1771 304 68538
internal_value=0.0240065 0.0277582 0.002501 0.00799065 0.0213106 0.0307173 0.0338018 -0.0148573 0.00467243 0.0175319 0.028957 0.000810719 -0.0219106 0.0359866 0.0185276 0.0297229 0.0245706 -0.00667168 0.0284012 0.0150662 0.0225281 0.0275019 0.0261101 -0.0227209 0.0135149 0.0104915 0.0249684 0.00123689 0.0467056 0.021681
internal_weight=892652 760057 132594 100736 239096 520962 189284 31858.3 76610.3 110739 331678 46050.1 17112.7 134766 24125.7 278253 128357 14745.6 54517.7 69460.8 75644.5 52712.1 9601.65 16913 14524 30560.3 53424.7 6393.11 199.718 41278.3
internal_count=2721678 2151787 569891 397450 757772 1394015 479028 172441 314977 372711 914987 198084 101265 329331 82473 758131 385061 71176 149697 240751 233919 151142 29438 100798 53035 116893 156856 28099 467 131960
is_linear=0
shrinkage=0.03


Tree=13
num_leaves=31
num_cat=0
split_feature=3 3 3 4 4 5 3 5 2 3 8 4 5 4 5 4 7 2 3 2 4 8 5 5 6 0 6 2 5 4
split_gain=74085.8 16204.1 12002.9 3754.13 3072.9 2378.82 2165.22 2041.12 1551.02 1276.75 1082.16 1058.88 1010.49 874 725.258 702.701 623.266 603.888 602.651 592.655 522.602 504.393 500.022 486.422 443.833 375.837 372.331 304.096 250.409 212.116
threshold=0.024718663026213412 0.016994669395833006 0.036200556406804849 0.026011559442381187 0.023602480868027461 0.81337598279244916 0.013872944159440799 0.3052657558162658 0.16944172556989964 0.051118263039985172 0.032032643489024383 0.0357142650422912 0.2842349792306535 0.021764030814200256 0.43951984541537009 0.014749637193804519 0.85336400993948669 0.16944172556989964 0.052457371896638148 0.013059658680823165 0.0098712925791913982 0.047771152184177941 0.35088047882587653 0.49486832690444393 0.51637216633071492 1.4206474557728093 0.81211754790913726 -0.061283346179193503 0.22375058018918728 0.016393438092413646
decision_type=2 2 2 2 2 2 2 2 2 2 2 2 2 2 2 2 2 2 2 2 2 2 2 2 2 2 2 2 2 2
left_child=1 6 4 7 12 8 20 15 9 -4 27 14 29 22 -6 -3 -10 -13 -7 -9 28 -15 -8 -14 -12 -20 -22 -5 -1 -2
right_child=2 3 5 10 11 18 13 19 16 -11 24 17 23 21 -16 -17 -18 -19 25 -21 26 -23 -24 -25 -26 -27 -28 -29 -30 -31
leaf_value=-0.028482374688119819 0.0061811760687649842 -0.0032235772173259607 0.028240829485524102 0.028765875834099147 0.020484080700416237 0.032396457832692183 -0.010379185625994502 0.0093137907536560201 0.025171683484478728 0.031990358185975787 0.018062117385702434 0.027513167767098473 0.017583159328289043 0.0048649439447230325 0.025286716882750918 0.0048409170351247904 0.011858710327595532 0.0047324660555793244 0.03653358927180745 0.017192359740530787 -0.016693029461333476 0.052404468626330927 0.0059290894281546335 0.022459367200821079 0.033689885972226385 0.045557286832440994 0.019399230159127263 0.014866314657768033 -0.012603299612061306 0.013516379693153927
leaf_weight=6510.8080326914787 4970.6096413582563 13927.887424901128 233196.38751582801 1505.8113907128572 61710.464943811297 40359.198198497295 16369.479215562344 31005.552795737982 6704.243863761425 125836.97522798181 2411.4977381974459 77878.782218337059 49047.283230066299 3194.9325158447027 52268.859682768583 32219.989177763462 5995.1168369203806 1061.5607772916555 33100.055306658149 11887.758976906538 8953.0909109413624 214.33953660726547 1887.1247015893459 29476.711447417736 5083.1375043839216 4750.2179292291403 264.85255245864391 23914.154080569744 1036.0278906226158 12397.513936817646
leaf_count=40537 18852 61365 630705 4828 190297 103930 84124 117513 19855 316356 7921 216297 160463 14086 151998 130508 20151 4147 78455 42161 50100 494 8391 90863 13610 10281 1089 83654 5805 42842
internal_value=0.023115 0.0046333 0.0271274 0.00998618 0.0223545 0.0301911 -0.0123535 0.00678601 0.0291905 0.029555 0.0186433 0.0245361 0.0179653 -0.00608964 0.0226865 0.00240697 0.0188869 0.0272068 0.0349467 0.0114973 -0.0204486 0.00785373 -0.00869345 0.0194136 0.0286614 0.0376661 -0.015656 0.0156897 -0.0263025 0.0114171
internal_weight=899140 160386 738754 121956 288812 449942 38430.7 89041.2 371733 359033 32914.6 192920 95892.1 21665.9 113979 46147.9 12699.4 78940.3 78209.5 42893.3 16764.8 3409.27 18256.6 78524 7494.64 37850.3 9217.94 25420 7546.84 17368.1
internal_count=2721678 666186 2055492 461560 875759 1179733 204626 351547 987067 947061 110013 562739 313020 107095 342295 191873 40006 220444 192666 159674 97531 14580 92515 251326 21531 88736 51189 88482 46342 61694
is_linear=0
shrinkage=0.03


Tree=14
num_leaves=31
num_cat=0
split_feature=4 4 4 2 2 4 8 13 2 4 8 2 11 8 4 1 1 7 1 1 9 9 13 2 11 13 6 8 11 11
split_gain=53497.6 11059.1 7675.73 2034.33 2012.26 1775.29 1756.38 1557.52 1448.97 1344.95 1025.21 2170.28 1019.74 931.57 867.363 701.325 677.707 588.29 573.176 565.277 509.817 460.303 449.109 442.77 385.573 384.356 382.849 337.191 189.416 180.589
threshold=0.020053472631145878 0.013224640103568296 0.031016039409869658 0.029244156066289398 0.16944172556989964 0.010204077018394132 0.10311349889044598 75.217580989936948 0.053895442513834275 0.016393438092413646 0.076146119721424946 -0.022371664093234715 0.0057365699961595242 -0.02355995328389995 0.037650597985947311 0.75604223381642 0.76524889995974898 0.85336400993948669 0.76824064152667138 0.74113448158972306 0.48020491839634211 0.4741189622257288 74.443976677530344 0.022909451709298766 0.0020160481884543289 58.970926676637824 0.67495422774298797 0.13593292667006926 0.0029534937498055577 0.0056323636379806922
decision_type=2 2 2 2 2 2 2 2 2 2 2 2 2 2 2 2 2 2 2 2 2 2 2 2 2 2 2 2 2 2
left_child=1 5 3 6 10 8 12 26 15 19 14 -12 -2 22 -4 -1 24 -9 29 28 -20 -21 -5 -18 -11 -15 -6 -8 -3 -7
right_child=2 9 4 13 7 18 27 17 -10 16 11 -13 -14 25 -16 -17 23 -19 20 21 -22 -23 -24 -25 -26 -27 -28 -29 -30 -31
leaf_value=-0.0078025961925447191 0.019326915407393914 0.0096862793393052444 0.026037209738394462 0.040203064363249538 0.0072889857252948177 0.0023225956508615901 0.036543758874936001 0.025948294585999971 0.020506040340298352 0.014940913229332969 0.046245472797715743 0.02974532168729185 0.025556859410614797 0.028757267900743413 0.029008980274012611 -0.020272246462519156 0.0090801601041399452 0.01327168782669684 -0.00016292884579237086 0.0083317535431416453 -0.01204962049465807 4.570557805658991e-05 0.029060646849977834 0.016230569318420675 0.021260407381830666 0.022924569556912362 -0.033864728486076003 0.059028221328733692 0.016032369141943469 0.014354113319534918
leaf_weight=6975.677658110857 183012.83469928801 18652.416944772005 134153.20804384351 5468.7683229446411 300.92489883303642 13552.430015280843 1539.7415306419134 6638.1763745248318 1098.8928070366383 27596.754796534777 8602.2464773058891 43221.187568023801 27154.901064217091 14491.173305273056 259129.01962029934 9709.5393422394991 25245.656953915954 6541.6862945109606 7552.4771485775709 13592.426312193274 5696.9544866383076 10850.416931539774 8044.8197082430124 11274.787316814065 12682.63456979394 34083.264316931367 628.06818631291389 983.83351144194603 5475.6111663430929 1224.1950562298298
leaf_count=33273 571456 67997 369728 13047 989 55476 3719 19258 3398 92311 17959 111064 76719 40705 676663 56280 96916 21718 34893 54803 28519 46682 21662 38818 39331 100834 3002 1773 18397 4288
internal_value=0.0222691 0.00716691 0.0257912 0.0218253 0.0281644 -0.00544762 0.0204306 0.0170101 -0.0128614 0.0117762 0.0285179 0.0324842 0.0201319 0.0266029 0.0279953 -0.015059 0.0142473 0.0196564 -0.000743152 0.007869 -0.00527394 0.0046535 0.0335698 0.0112877 0.0169307 0.0246646 -0.020534 0.0453095 0.0111265 0.00331937
internal_weight=905175 171181 733994 274779 459215 45810.2 212691 14108.9 17784.1 125371 445106 51823.4 210168 62088 393282 16685.2 76799.8 13179.9 28026.1 48570.9 13249.4 24442.8 13513.6 36520.4 40279.4 48574.4 928.993 2523.58 24128 14776.6
internal_count=2721678 671382 2050296 829915 1220381 216127 653667 44967 92951 455255 1175414 129023 648175 176248 1046391 89553 267376 40976 123176 187879 63412 101485 34709 135734 131642 141539 3991 5492 86394 59764
is_linear=0
shrinkage=0.03


Tree=15
num_leaves=31
num_cat=0
split_feature=4 5 5 10 4 5 5 4 5 2 4 4 2 4 2 2 5 5 2 5 5 5 11 8 7 7 8 5 5 11
split_gain=49574 18476.4 9114.67 5239.98 3984.22 2884.53 2095.47 1579.18 1572.49 1354.59 1262.3 1093.94 1032.65 1029.93 915.375 512.103 463.354 452.239 429.904 426.809 383.527 358.868 322.198 379.479 297.279 254.797 202.378 178.779 163.802 101.908
threshold=0.020053472631145878 0.28608845560983787 0.37310721573328037 1.3299425133173582e-06 0.033395171587573921 0.78652073275511192 0.49720364820593482 0.031161464142475562 0.2698026757181578 0.16944172556989964 0.010204077018394132 0.013224640103568296 0.016060715396047091 0.015100668359939959 0.024061547876989827 0.026883296808056241 1.0524948292273271 0.20141563897592582 0.017579199988939399 0.21302465779822613 0.35450465438994261 0.15935611333185043 0.003830460225365278 -0.090792761023943069 0.9999964290568194 0.56716328945081429 0.072215327564357876 0.6538752998276105 0.21577445519224292 -0.0017879771325354521
decision_type=2 2 2 2 2 2 2 2 2 2 2 2 2 2 2 2 2 2 2 2 2 2 2 2 2 2 2 2 2 2
left_child=1 3 4 10 8 7 13 14 15 -9 28 21 -10 20 -4 -2 25 -12 -15 -13 -3 -5 23 -6 -24 -7 -18 -8 -1 -29
right_child=2 6 5 11 22 16 27 9 12 -11 17 19 -14 18 -16 -17 26 -19 -20 -21 -22 -23 24 -25 -26 -27 -28 29 -30 -31
leaf_value=-0.028462472091665459 0.0091472223241472386 0.0031976112236098853 0.022018641521428534 -0.016036083283809364 0.039565170919496261 0.028297169119092663 0.019345828173458059 0.02757369671618742 0.015637494838487406 0.016760892781358207 -0.017034975380849266 -0.00048725537168908941 0.022915294390033571 0.012875223322822782 0.027439231132311333 0.016477178800597337 0.033308626213279839 -0.0067676688098698527 0.01943325546658459 0.006743947464883643 0.010606682624658064 -0.003866974709947972 0.026880021686078486 0.022150787602344089 0.016695061837056688 0.031907885211247621 0.039466867231819414 0.020707897325995327 -0.017412315465138096 0.026134091955203075
leaf_weight=6514.5494337230921 30523.129252761602 11969.376357093453 113860.72539183497 2751.2083828449249 1154.0298937708139 35489.968832790852 20310.987055972219 270306.97582884133 45402.127489537001 10845.699871823192 7476.6618988066912 12076.38667717576 28599.514807358384 33382.075138047338 37198.092124775052 11931.413220107555 25550.623345270753 7983.8883641511202 12315.291994571686 18754.287812009454 13247.254576608539 10523.59033626318 38277.513195976615 46693.740677505732 2765.5706761628389 34873.021083533764 5914.5329893678427 5343.2559909820557 1481.9822954237461 7469.7244751602411
leaf_count=41913 111527 48998 331079 14306 2666 91330 63810 704253 146758 34061 41551 51827 83940 115511 100881 38714 62150 38449 39583 73135 48206 48009 102537 133025 8216 86074 13085 16107 8438 21539
internal_value=0.0214607 0.00693392 0.0248321 -0.00528164 0.0194606 0.0268976 0.0148667 0.0258274 0.0158097 0.0271566 -0.0167379 0.00081125 0.0184502 0.0119569 0.0233535 0.0112072 0.03144 -0.0117329 0.0146426 0.00391148 0.00708988 -0.00638903 0.0242436 0.0225708 0.0261937 0.0300867 0.0344662 0.0210964 -0.0264146 0.0238713
internal_weight=910987 171601 739387 67562.6 205347 534040 104038 432211 116456 281153 23457.1 44105.5 74001.6 70914 151059 42454.5 101828 15460.6 45697.4 30830.7 25216.6 13274.8 88890.9 47847.8 41043.1 70363 31465.2 33124 7996.53 12813
internal_count=2721678 671382 2050296 317628 627383 1422913 353754 1170274 380939 738314 130351 187277 230698 252298 431960 150241 252639 80000 155094 124962 97204 62315 246444 135691 110753 177404 75235 101456 50351 37646
is_linear=0
shrinkage=0.03


Tree=16
num_leaves=31
num_cat=0
split_feature=3 3 3 10 1 4 5 5 1 13 3 5 12 1 3 6 3 3 7 7 5 3 6 10 6 5 4 14 4 1
split_gain=61931 15131.2 8977.31 3149.06 3061.66 2277.03 1855.51 1314.42 1088.69 1039.55 1144.1 1026.2 943.139 898.727 769.176 766.26 663.763 605.859 546.198 536.885 491.358 473.418 433.935 389.198 372.332 371.124 327.286 312.114 289.638 221.014
threshold=0.025447223380642658 0.01799999446606038 0.037496736044850425 2.3769027463532365e-06 1.2223228619424569 0.029205604826350415 0.81337598279244916 0.35450465438994261 1.6069644363874644 96.342567635439977 0.052121694816372001 0.28608845560983787 0.15833333333333335 0.97239993749797116 0.020640234708448134 0.40627512267605775 0.014239667228043667 0.029748989322864527 0.99996688325196759 0.96825242713277448 0.4499571693197823 0.052457371896638148 0.6259799111760439 0.00024506172013478267 0.28566756654986125 0.31825680149306584 0.036091058426113577 0.14046695933968081 0.016854884518762808 0.62592429560514506
decision_type=2 2 2 2 2 2 2 2 2 2 2 2 2 2 2 2 2 2 2 2 2 2 2 2 2 2 2 2 2 2
left_child=1 3 5 8 7 11 9 14 16 10 -4 28 -10 25 -3 27 -1 -13 -11 -17 26 -8 -15 -23 -22 -5 -7 -6 -2 -9
right_child=2 4 6 13 15 20 21 29 12 18 -12 17 -14 22 -16 19 -18 -19 -20 -21 24 23 -24 -25 -26 -27 -28 -29 -30 -31
leaf_value=-0.024324921709915757 0.0062319389373494778 -2.4294804797492962e-06 0.025568069925005012 -0.010537248245344194 0.012731873623734248 0.019434191219032396 0.02919902810314242 0.0071190011146198533 0.055523850504170996 0.02223873163243548 0.029297918773156732 0.016708124443689392 -0.011087672067460926 5.4311624102809704e-05 0.0071812060742082922 0.020628875686333564 -0.013487229861747489 0.020831586971161241 0.009619822607215802 0.036859259460953968 0.022977318297588707 0.031608826506342967 0.013242507069658703 0.037846342790621747 0.027415425196899153 0.0014050484636307021 0.0232922513222804 0.054305241072275662 0.014237548906325883 0.013032905559937188
leaf_weight=11313.363440647721 5066.4898447841406 19935.851367980242 216281.47961111367 10945.082335591316 14169.624005928636 33193.146495014429 38213.902783542871 6968.2585927844048 326.22762215137482 18274.879630878568 112524.09361732006 52995.993317976594 462.53657811880112 10065.812472820282 41009.70841422677 14926.587959647179 9240.0350817143917 81214.587413370609 3714.5770643502474 2091.273996680975 34266.886027634144 24439.500357195735 2890.1271523535252 14253.954226076603 33787.844839781523 2979.553047478199 49006.337265595794 164.41270479559898 20624.275442838669 30941.225202426314
leaf_count=72273 18856 85501 570248 54604 48027 96710 95832 25550 760 50479 275516 169127 2524 44908 154665 45054 49663 237560 12184 5275 94293 57402 10923 31334 89121 12948 134549 394 67335 108063
internal_value=0.0206941 0.00483377 0.0245295 -0.00952164 0.0101504 0.0206436 0.0273474 0.00755967 -0.0181254 0.0264222 0.0268445 0.0181519 0.0164624 -0.00269062 0.00483137 0.018319 -0.0194527 0.0192033 0.0201071 0.0226234 0.0232953 0.0315675 0.00299625 0.0339066 0.0251808 -0.00798187 0.0217343 0.0132087 0.0126588 0.0119459
internal_weight=916288 178430 737858 48222.7 130207 310156 427702 98855 21342.2 350795 328806 159901 788.764 26880.6 60945.6 31351.9 20553.4 134211 21989.5 17017.9 150254 76907.4 12955.9 38693.5 68054.7 13924.6 82199.5 14334 25690.8 37909.5
internal_count=2721678 721132 2000546 248603 472529 907551 1092995 373779 125220 908427 845764 492878 3284 123383 240166 98750 121936 406687 62663 50329 414673 184568 55831 88736 183414 67552 231259 48421 86191 133613
is_linear=0
shrinkage=0.03


Tree=17
num_leaves=31
num_cat=0
split_feature=3 3 3 3 4 4 10 5 5 4 11 8 8 5 10 6 5 9 7 8 6 8 6 5 8 10 6 5 4 12
split_gain=57642.2 11945.9 10786.5 2803.95 2608.01 1758.35 1754.05 1660.5 1308.31 1009.23 977.933 904.126 895.584 868.514 722.888 543 477.767 455.507 421.516 408.704 370.955 369.798 359.732 349.214 344.68 311.429 307.837 276.257 272.486 226.265
threshold=0.023401145672090774 0.03179518778630476 0.016179136934182634 0.043938382216906477 0.025732346971243682 0.026431711882665309 1.3299425133173582e-06 0.32009167545021433 0.81337598279244916 0.033730152032053907 0.021109498516963972 0.050883786317908325 0.032032643489024383 0.33647876535224575 8.5743024049611646e-09 0.28566756654986125 0.50715784345580983 0.50271694757608454 0.93939106034175268 0.13593292667006926 0.4665932467343869 -0.062544325495832734 0.14382644169531342 0.18906601593122904 0.04880828511392063 0.00045571469842022846 0.51637216633071492 0.49247154960676848 0.016544114401621578 0.10833333333333335
decision_type=2 2 2 2 2 2 2 2 2 2 2 2 2 2 2 2 2 2 2 2 2 2 2 2 2 2 2 2 2 2
left_child=2 5 6 9 7 13 11 14 10 16 -5 17 25 28 -4 21 -3 -1 -17 -11 23 -7 -9 -8 -10 -6 -14 -15 -2 -13
right_child=1 3 4 8 12 15 20 22 24 19 -12 29 26 27 -16 18 -18 -19 -20 -21 -22 -23 -24 -25 -26 -27 -28 -29 -30 -31
leaf_value=-0.016848458656730105 0.0065599648588260152 0.019986797121032931 -0.0066945907557771651 0.026941886804337262 0.0095729542346190948 0.033335195741362546 -0.016382792974479789 0.005722735765568491 0.029788266548043823 0.025323145474042016 0.020186866466517229 0.058802856527612336 0.014697516204225514 0.014724670235181814 0.0022070568422190187 0.020878818931608849 0.023397534281595824 -0.027012386827673079 0.029066222121310735 0.015218216382014479 0.00071358952380874241 0.017031619850131859 0.012308415563506378 -0.0049165073541849805 0.034721690145056043 0.018173103302093763 0.030302980772180816 0.0185958061093652 0.012229590406624523 -0.018950752219808263
leaf_weight=8906.1392423510551 10157.118727460504 84656.992794692516 10525.543911769986 210561.02948275208 14195.616069510579 1286.6194703131914 4004.6868964731693 13935.482130259275 42193.219062954187 131736.75865593553 21233.594042152166 159.80407711863518 1621.0848301947117 39432.245615229011 37331.075697526336 46285.402024999261 65607.978672876954 7157.7090540528297 6447.6845582127571 3703.6159018427134 4669.5252132415771 46677.21002791822 16076.65678088367 5930.6623926311731 18262.29304587841 5169.6050458699465 3814.8625807315111 28642.868338823318 30653.839979335666 42.67962509393692
leaf_count=55078 37956 241577 48707 527489 50269 3322 21307 53213 100565 343271 57806 255 5303 128114 154589 132396 178400 45720 17046 11324 21055 139865 58247 28814 40859 17233 9889 88188 103609 212
internal_value=0.0199668 0.0230572 0.00174161 0.0252821 0.00641692 0.0169215 -0.0138073 0.0037185 0.0273482 0.0231688 0.0263231 -0.0205832 0.0148892 0.0142789 0.000249236 0.0197789 0.021476 -0.0213773 0.0218799 0.0250468 -0.00626051 0.017469 0.0092505 -0.00953828 0.0312785 0.0118688 0.0256492 0.0163535 0.0108185 0.0424139
internal_weight=921080 787538 133541 577955 102670 209583 30871.2 77868.8 292250 285705 231795 16266.3 24801.2 108886 47856.6 100697 150265 16063.8 52733.1 135440 14604.9 47963.8 30012.1 9935.35 60455.5 19365.2 5435.95 68075.1 40811 202.484
internal_count=2721678 2151787 569891 1501291 397450 650496 172441 314756 726719 774572 585295 101265 82694 357867 203296 292629 419977 100798 149442 354595 71176 143187 111460 50121 141424 67502 15192 216302 141565 467
is_linear=0
shrinkage=0.03


Tree=18
num_leaves=31
num_cat=0
split_feature=3 3 3 1 10 4 3 5 2 8 2 2 1 5 3 5 2 10 3 2 8 3 1 10 3 1 5 14 0 4
split_gain=53649.3 13693.8 7645.45 3069.01 2317.71 1932.3 1813.77 1626.02 1210.56 1107.29 922.756 842.953 799.216 787.615 626.553 619.302 606.066 588.688 539.28 523.932 514.201 423.185 398.951 380.569 331.045 330.244 297.02 278.334 210.565 158.803
threshold=0.025593837951214882 0.01725868625385334 0.037496736044850425 1.5873652404437404 1.3299425133173582e-06 0.023602480868027461 0.021673917063356946 0.80386525364216455 0.16944172556989964 0.047771152184177941 0.0067412419608633813 -0.031072797086116152 1.2459271318054708 0.35088047882587653 0.030688516699364201 0.28999997781032533 0.16944172556989964 0.00054073807380253778 0.012043601284115347 0.023490817293783165 0.12690484013121767 0.052457371896638148 1.4717165529993117 0.00022192643774916805 0.029888765523406757 1.4050489971125109 0.21302465779822613 0.015140266800194096 0.42297796889369133 0.016233760187224059
decision_type=2 2 2 2 2 2 2 2 2 2 2 2 2 2 2 2 2 2 2 2 2 2 2 2 2 2 2 2 2 2
left_child=1 4 5 6 9 15 13 8 11 18 26 -4 14 -3 -7 29 -14 -8 -1 -5 -10 28 -11 -23 -17 -12 -6 -21 -9 -2
right_child=2 3 7 19 10 12 17 21 20 22 25 -13 16 -15 -16 24 -18 -19 -20 27 -22 23 -24 -25 -26 -27 -28 -29 -30 -31
leaf_value=-0.026661449896700464 0.0055817940370689054 0.0011166877590370219 0.022661608170198692 0.013901250011846599 -0.014561115226348009 0.016929509306541347 0.0095458669161761576 0.033333137525415515 0.020677990758180748 -0.022694536067063054 -0.00051959516964678141 0.025892086794332983 0.023862406043268281 0.0092133059629599095 0.021034373712503322 0.014602735525982553 0.0037525008850055786 0.01753032044176852 -0.01581860821264295 0.030400809811362204 0.0085045942925290798 0.02907436448375127 0.053373898638499034 0.035020713359149989 0.018542504406946977 0.011990718846836565 -0.0050859660852716169 0.020578534324720902 0.026339867014233381 0.01220948476350168
leaf_weight=6238.3057518005371 4397.1016023010015 39279.37118075788 105533.07964643836 5321.2697473466396 5595.551406994462 52175.214245602489 62944.256662100554 4340.9807127565145 7305.5992306470871 81.634911194443703 6543.7432242780924 233636.17480619252 68479.788181275129 14920.466600835323 93327.546866893768 34120.629339903593 1375.8837738484144 9574.8914782553911 12205.416131287813 5180.386450201273 5454.3890039026737 24460.989049613476 258.66943751275539 16037.724391236901 43880.449543610215 2675.5438031852245 6363.9402465224266 5205.5772224366665 36096.46884188056 12512.509059488773
leaf_count=42096 16304 163548 273432 17018 29896 156492 222370 10164 21083 436 29727 588612 181807 54683 256502 109483 5092 31062 72336 13436 17756 56982 489 34955 129206 9945 30733 14547 90011 41475
internal_value=0.0192729 0.00469336 0.0228512 0.00904764 -0.0108252 0.019257 0.0074972 0.0254274 0.0245456 -0.0184966 -0.00402113 0.0248869 0.0208287 0.00334557 0.0195624 0.0156908 0.0234663 0.0106001 -0.019486 0.0215559 0.0154743 0.0292615 0.035126 0.0314292 0.0168191 0.00311104 -0.00951915 0.0254778 0.0270906 0.010486
internal_weight=925524 182389 743135 142426 39962.8 310269 126719 432865 351929 18784 21178.8 339169 215358 54199.8 145503 94910.7 69855.7 72519.1 18443.7 15707.2 12760 80936.2 340.304 40498.7 78001.1 9219.29 11959.5 10386 40437.4 16909.6
internal_count=2721678 732322 1989356 516664 215658 896361 471663 1092995 900883 115357 100301 862044 599893 218231 412994 296468 186899 253432 114432 45001 38839 192112 925 91937 238689 39672 60629 27983 100175 57779
is_linear=0
shrinkage=0.03


Tree=19
num_leaves=31
num_cat=0
split_feature=3 3 3 1 3 13 1 10 3 3 1 4 8 2 2 7 2 10 10 13 10 6 2 10 11 14 2 13 4 1
split_gain=49980.3 11288.4 8972 2694.11 2602.24 1892.45 1832.94 1523.73 1360.39 1067.88 966.122 904.14 742.084 635.595 625.867 620.65 608.454 533.199 505.466 450.424 394.526 388.659 399.039 323.791 285.665 275.471 233.91 216.397 200.416 169.458
threshold=0.022946855525040302 0.031652745088218824 0.015893608599494499 1.4717165529993117 0.047017244560845724 86.522988121870299 1.2008293884231611 1.3299425133173582e-06 0.018656710592852968 0.027106712080455123 0.52760655154666758 0.024806198646792208 0.050883786317908325 0.042590948325781579 0.0014760729481166216 0.9999964290568194 0.16944172556989964 8.5743024049611646e-09 0.00052101335729362174 82.51883874501894 0.00050230301058145114 0.4319659458425405 0.15504710968584859 0.00054073807380253778 -7.0539976572792451e-05 0.15880534090017903 -0.0080252075706572206 59.748739239616818 0.015100668359939959 1.4878617803294378
decision_type=2 2 2 2 2 2 2 2 2 2 2 2 2 2 2 2 2 2 2 2 2 2 2 2 2 2 2 2 2 2
left_child=2 6 7 8 11 10 9 12 17 20 -6 24 19 26 -9 -7 -13 -4 -10 -1 -2 25 -23 -11 -3 -8 -5 -15 -16 -14
right_child=1 4 3 13 5 15 21 14 18 23 -12 16 29 27 28 -17 -18 -19 -20 -21 -22 22 -24 -25 -26 -27 -28 -29 -30 -31
leaf_value=-0.022299925178513827 0.010180992018272736 0.01709780313359098 -0.010268462548971234 0.0037902318334803501 0.022700724419485643 0.022163263659930189 0.017200097931508448 -0.013571695445766578 0.0047078677135012478 0.015307671543157717 0.028425355088745663 0.022824614276124609 -0.031653676923818652 0.038062981722150183 -0.004754758929232483 0.010995453606547755 0.011140213466149088 -7.2248478177384221e-05 0.013297692801445713 0.0025122718545662476 0.016424089050256763 0.023044564440236514 -0.00094422466631395585 0.02045073752246547 0.020778009676875285 0.04581978592224064 0.015853427884789301 0.023183853815790977 0.0054598304863467204 0.052419395689577077
leaf_weight=14280.871598988771 60383.989936172962 37830.573446884751 6305.5047764629126 1858.8410636335611 32243.429527908564 54576.045520842075 26270.678743824363 6012.4646923542023 52801.518448233604 76909.863237172365 149803.21186864376 266636.9115395844 25.132997900247574 1201.7891992479563 4060.1361957192421 4879.1125320494175 4072.3043762892485 17225.883498191833 6980.557228833437 690.29479539394379 10728.579976841807 28963.623372405767 637.82440793514252 12858.991378858685 38100.774081721902 306.21138161420822 6524.0791119933128 3282.5037332177162 3010.657347664237 152.50211855769157
leaf_count=93069 205907 109501 31961 6718 80821 141610 76740 32195 205193 236025 350498 695443 143 2787 19713 14913 13329 75213 24768 3836 34005 78468 2406 37146 106018 688 20731 8961 12610 262
internal_value=0.0186108 0.0213451 0.000914203 0.00527897 0.023503 0.0258938 0.0154981 -0.0139556 0.00330577 0.013869 0.0274114 0.0218374 -0.0204326 0.0180551 -0.00645609 0.0212468 0.0226488 -0.00280444 0.00571087 -0.0211559 0.0111229 0.0201633 0.0225277 0.0160444 0.0189445 0.0175298 0.0131785 0.0271715 -0.000405512 0.0405242
internal_weight=929615 805202 124413 96180.7 588142 241502 217060 28232.1 83313.5 160881 182047 346641 15148.8 12867.2 13083.3 59455.2 270709 23531.4 59782.1 14971.2 71112.6 56178.3 29601.4 89768.9 75931.3 26576.9 8382.92 4484.29 7070.79 177.635
internal_count=2721678 2183518 538160 376332 1512133 587842 671385 161828 337135 513083 431319 924291 97310 39197 64518 156523 708772 107174 229961 96905 239912 158302 80874 273171 215519 77428 27449 11748 32323 405
is_linear=0
shrinkage=0.03


Tree=20
num_leaves=31
num_cat=0
split_feature=3 3 3 1 10 4 3 5 5 8 13 3 6 5 7 4 5 1 7 13 3 8 6 11 1 3 6 1 5 8
split_gain=46598.9 11968.1 6947.25 2920.62 1869.96 1769.7 1693.95 1509.86 1090.26 898.159 879.719 1169.01 730.953 608.775 579.029 573.955 546.105 537.279 528.563 480.108 390.008 377.784 516.29 372.896 348.567 291.197 290.373 277.873 223.029 141.499
threshold=0.025447223380642658 0.01673208870916525 0.037337641123093547 1.2149497966389007 1.3299425133173582e-06 0.033057844789025147 0.020455677395739804 0.81337598279244916 0.42327144680962447 0.046755125685946426 94.22575016574487 0.053932336617352888 0.40627512267605775 0.36390097893221557 0.99996688325196759 0.017159008228236822 0.25026621285100603 0.97239993749797116 0.96825242713277448 82.165340403079156 0.053554540073901383 -0.067959007236291682 -0.22054715865112554 0.023457349439146822 1.4878617803294378 0.021673917063356946 0.44053355328419908 1.1867602843588665 0.31825680149306584 -0.018679855929126847
decision_type=2 2 2 2 2 2 2 2 2 2 2 2 2 2 2 2 2 2 2 2 2 2 2 2 2 2 2 2 2 2
left_child=1 4 5 6 9 8 13 10 15 19 11 -4 25 -3 -12 -2 -8 28 -14 -1 29 -7 -23 -22 -11 -5 -19 -10 -6 -9
right_child=2 3 7 12 17 21 16 20 27 24 14 -13 18 -15 -16 -17 -18 26 -20 -21 23 22 -24 -25 -26 -27 -28 -29 -30 -31
leaf_value=-0.02082381832575084 0.008708178728934016 -0.0020044878347042893 0.022218391684776833 0.0063867339697356003 -0.012083706474938295 0.032431438442645406 0.0033434115973913908 0.027930583274948968 0.017853339721073273 -0.02657694060180826 0.019958715468084226 0.026209468097046124 0.017588341951668418 0.0077976103425849673 0.0090059097244710277 0.014916685859640363 0.0094941956493978779 -0.0040628672610023755 0.032704367060417128 0.0021635966928711704 0.030632964070445509 0.01559311760047334 0.021408381628084415 0.02016873094871886 0.050507875963986711 0.01444629331304423 0.0070761763149753158 0.023249088122048445 0.00046884036421325628 0.024232402906180138
leaf_weight=15835.469388633966 15901.358970016241 27030.532135382295 232727.82629753649 7333.8100545555353 7413.235423579812 2468.3097192198038 16735.003683507442 13903.188149139285 89135.526994511485 68.496016144752502 32116.012157544494 92226.315927758813 16840.75122576952 7227.0995873957872 5023.5025717169046 85236.521171614528 58076.528500631452 5088.480150565505 2375.6014547497034 862.23787075281143 33567.326639160514 16071.794119030237 94718.352322638035 3372.8589776158333 230.31643715500832 8968.8056664466858 3593.7239551842213 9505.9137929528952 1538.2483000308275 28194.270286500454
leaf_count=102990 54261 119163 597631 26807 38958 5897 64643 33233 256994 395 85363 219084 50555 27068 15789 257828 204694 24473 5929 4737 74422 45027 251441 8384 434 28373 14865 25593 7048 69599
internal_value=0.017978 0.00422743 0.0212457 0.00802149 -0.0116135 0.0178276 0.00558832 0.0236712 0.0161292 -0.0187142 0.0228512 0.0233511 0.0154931 6.33942e-05 0.0184772 0.0139406 0.00811829 -0.0047694 0.019457 -0.0196368 0.0274278 0.0208234 0.0205648 0.0296775 0.0328379 0.0108207 0.000547788 0.0183733 -0.00992664 0.0254538
internal_weight=933387 179218 754169 144588 34630.2 313038 109069 441131 199779 16996.5 362094 324954 35519 34257.6 37139.5 101138 74811.5 17633.7 19216.4 16697.7 79037.6 113258 110790 36940.2 298.812 16302.6 8682.2 98641.4 8951.48 42097.5
internal_count=2721678 721132 2000546 527232 193900 897041 415568 1103505 594676 108556 917867 816715 111664 146231 101152 312089 269337 85344 56484 107727 185638 302365 296468 82806 829 55180 39338 282587 46006 102832
is_linear=0
shrinkage=0.03


Tree=21
num_leaves=31
num_cat=0
split_feature=3 3 3 1 3 13 4 3 4 1 1 1 1 1 11 3 9 3 7 8 6 6 8 4 9 9 1 11 4 4
split_gain=43508 9252.46 8656.87 2520.22 1857.81 1896.85 1793.89 1256.41 1103.23 821.922 769.158 760.014 727.187 726.636 596.177 570.625 481.566 476.862 462.988 447.321 410.312 377.334 323.052 316.303 301.024 187.319 180.546 169.797 151.309 123.316
threshold=0.023401145672090774 0.033633030671146404 0.015893608599494499 1.1937224958452946 0.049861529839557446 83.989697805660825 0.023054752544974168 0.018656710592852968 0.010204077018394132 0.61907669631050988 1.2541358494633397 0.50225471571325719 1.6069644363874644 1.7505227449108915 -0.0055045990335760133 0.028304264944394534 0.42759538467434327 0.027915601174162263 0.9999964290568194 0.088593030800758893 0.6259799111760439 0.29948736919719654 0.032032643489024383 0.014403288581531901 0.55681846252657285 0.48389249294551906 0.37706688274043704 -0.0018576520996418861 0.014590346612844694 0.0079126953046288456
decision_type=2 2 2 2 2 2 2 2 2 2 2 2 2 2 2 2 2 2 2 2 2 2 2 2 2 2 2 2 2 2
left_child=2 6 8 7 11 9 17 24 25 -6 15 26 16 19 -13 -8 -10 28 -7 -5 -14 -12 -15 -9 -4 29 -3 -19 -2 -1
right_child=1 4 3 13 5 18 10 23 12 -11 21 14 20 22 -16 -17 -18 27 -20 -21 -22 -23 -24 -25 -26 -27 -28 -29 -30 -31
leaf_value=-0.022625601068953258 0.0065565757009306272 0.012226188310065007 -0.0018489472961692698 0.0096299839710024746 0.022983804299947161 0.020748597288917797 0.0130573463819446 0.00094042856614067144 -0.0041315711395547312 0.027932255984425666 0.016583934576578665 0.018854802454099012 -0.0043884612159482677 0.015330125559706849 0.022049673588662857 0.017466952279111641 -0.0148034762603775 0.012028938336622205 0.010715414869417612 0.057399505792198748 0.025246931875837469 0.021790075006029974 0.027291137097581297 0.0061496032089972301 -0.010799351678490932 -0.026848733236471627 0.017670951192167234 0.015762784601150357 0.010827015916566854 -0.013770666819604647
leaf_weight=2862.4301224648952 9219.7223120629787 7156.804205596447 15808.499046042562 18742.479182720184 43549.13241943717 53257.002076044679 42266.574551343918 13700.897476270795 5911.3947970569134 98616.432466417551 18605.346816062927 67169.690141990781 885.98712033033371 4465.3403725624084 241793.02746205032 70408.215346693993 10682.504063352942 18155.42126326263 4488.2242276370525 178.10130658745766 800.25389119982719 38368.417386367917 3729.7204505652189 44775.113089352846 4302.260416790843 3812.6074421256781 23410.636861249804 27661.929186940193 39285.363572880626 2800.031996101141
leaf_count=19139 33062 20529 72429 66254 105381 136170 131525 55952 31417 223950 52338 177596 4083 13760 620978 199192 61565 56891 13527 315 2595 101613 9408 169128 20817 25850 63775 84114 131146 17179
internal_value=0.0173725 0.0200075 0.00151034 0.00542559 0.0222596 0.024554 0.0154052 0.00270457 -0.0134004 0.0264164 0.0172492 0.0209086 -0.00909433 0.0133117 0.0213551 0.0158128 -0.0110017 0.0120885 0.0199688 0.0100796 0.00967586 0.02009 0.0207738 0.0049291 -0.00376369 -0.0217081 0.0163962 0.0142832 0.0100153 -0.0182469
internal_weight=936870 803412 133458 105702 539441 199911 263971 78586.8 27755.2 142166 169649 339530 18280.1 27115.6 308963 112675 16593.9 94322.4 57745.2 18920.6 1686.24 56973.8 8195.06 58476 20110.8 9475.07 30567.4 45817.4 48505.1 5662.46
internal_count=2721678 2151787 569891 408063 1361906 479028 789881 318326 161828 329331 484668 882878 99660 89737 798574 330717 92982 305213 149697 66569 6678 153951 23168 225080 93246 62168 84304 141005 164208 36318
is_linear=0
shrinkage=0.03


Tree=22
num_leaves=31
num_cat=0
split_feature=3 3 3 3 1 2 1 10 3 1 3 7 10 2 2 3 10 1 12 10 2 13 2 7 1 13 2 13 4 3
split_gain=40622.9 9393.58 7613.8 2491.51 2239.28 1546.39 1431.57 1414.93 1133.31 943.495 871.054 709.256 613.165 571.956 555.086 552.617 489.471 475.455 611.327 463.224 426.241 386.686 348.621 335.546 255.666 242.731 206.332 194.138 169.275 133.726
threshold=0.022946855525040302 0.030688516699364201 0.015893608599494499 0.041673706961620947 1.4717165529993117 0.11242484327331199 1.2008293884231611 2.3769027463532365e-06 0.018656710592852968 0.93482124227168273 0.053932336617352888 0.97435707741803668 0.00054073807380253778 0.0014760729481166216 0.042590948325781579 0.026283647051092159 8.5743024049611646e-09 1.6069644363874644 0.12500000000000003 0.00052101335729362174 0.16944172556989964 82.51883874501894 -0.034694895275345923 0.93939106034175268 1.6717893775067425 63.20441914352417 -0.0080252075706572206 59.748739239616818 0.015100668359939959 0.012551839685792361
decision_type=2 2 2 2 2 2 2 2 2 2 2 2 2 2 2 2 2 2 2 2 2 2 2 2 2 2 2 2 2 2
left_child=2 6 7 9 8 10 12 17 16 22 -5 -7 15 29 26 -2 -4 21 -19 -10 -11 -1 -3 24 -8 -25 -6 -16 -15 -9
right_child=1 3 4 5 14 11 23 13 19 20 -12 -13 -14 28 27 -17 -18 18 -20 -21 -22 -23 -24 25 -26 -27 -28 -29 -30 -31
leaf_value=-0.021599062632097817 0.0086627671202028442 0.01539894391442231 -0.0098236969346405419 0.022035858373270222 0.0030194303950356878 0.01874841247287903 0.015096396266071115 -0.02142990363216438 0.0041903079528264608 0.021073540497087238 0.025251547357474733 0.007761492219521068 0.016815400187126642 -0.0041002802882975564 0.035016502380519995 0.012765789502383315 -1.5392361123668859e-05 0.053484560938311505 -0.015029484797805359 0.012372709260587731 0.0083944321732553218 0.0020227020294225281 0.018393057431736644 0.030668887763049386 0.019800138264107155 0.018723997161366999 0.014292208438420296 0.021034330695835605 0.0053311849012931825 -0.010386882053484916
leaf_weight=13503.847941204906 48915.832917094231 54685.77964104712 6239.8666635006666 181834.94087432325 1875.4984482079744 26162.902712911367 27111.742223188281 1256.389853566885 53157.370516583323 123337.36245031655 130022.44020074606 6627.5906890034676 19898.833759903908 3983.8176486343145 1221.4945810884237 74597.157432764769 17204.954314872622 179.65691909193993 337.19047772884369 7053.1162688881159 2433.3511224836111 653.9022171497345 97222.151040941477 2911.3206358999014 16871.827138826251 3229.5786072462797 6617.3545977324247 3330.6020281910896 3004.2177333831787 4601.4368493109941
leaf_count=91534 167041 152159 31961 452221 6718 68742 78921 7449 205193 318640 302415 20357 59469 19557 2787 229960 75213 395 2118 24768 8029 3674 264463 7185 45151 8765 20731 8961 12572 24529
internal_value=0.0167926 0.019226 0.000810438 0.0210211 0.00477266 0.022725 0.0134536 -0.0131119 0.00296991 0.0189064 0.0233766 0.0165277 0.0119282 -0.00584138 0.0163334 0.0111408 -0.00262588 -0.0194763 0.0087861 0.0051488 0.0208282 -0.020508 0.0173152 0.0178179 0.0169007 0.0243869 0.0118028 0.0247863 -4.56106e-05 -0.0127554
internal_weight=940084 815863 124221 622327 96700.3 344648 193536 27520.5 83655.3 277679 311857 32790.5 143412 12845.9 13044.9 123513 23444.8 14674.6 516.847 60210.5 125771 14157.8 151908 50124.5 43983.6 6140.9 8492.85 4552.1 6988.04 5857.83
internal_count=2721678 2183518 538160 1587026 376332 843735 596492 161828 337135 743291 754636 89099 456470 64107 39197 397001 107174 97721 2513 229961 326669 95208 416622 140022 124072 15950 27449 11748 32129 31978
is_linear=0
shrinkage=0.03


Tree=23
num_leaves=31
num_cat=0
split_feature=3 3 3 3 1 1 13 3 3 4 10 3 10 7 8 11 10 8 8 6 10 7 10 4 1 13 14 12 6 6
split_gain=37974.6 10261.1 6173.4 2358.88 1937.97 1692.78 1528.53 1108.78 1038.8 938.488 901.215 817.062 611.558 598.869 536.849 483.927 444.155 408.106 379.506 376.153 328.073 319.499 289.42 280.358 264.559 247.992 240.088 173.821 166.176 104.679
threshold=0.022006026214756783 0.030688516699364201 0.014962942079638384 0.043938382216906477 1.6275137149391787 1.1867602843588665 86.522988121870299 0.018219239358052277 0.059357440010653038 0.034952781065593692 1.3299425133173582e-06 0.026283647051092159 8.5743024049611646e-09 0.9999964290568194 0.046755125685946426 -0.0018576520996418861 0.00036826992407389646 0.021000374914725787 0.13593292667006926 0.28566756654986125 0.00051180052314563843 0.93939106034175268 0.00054073807380253778 0.0090090072957913232 0.97239993749797116 59.352658776866704 0.14046695933968081 0.10833333333333335 0.70711658218860063 -0.031837171685785086
decision_type=2 2 2 2 2 2 2 2 2 2 2 2 2 2 2 2 2 2 2 2 2 2 2 2 2 2 2 2 2 2
left_child=2 5 10 9 7 11 8 12 -5 15 14 20 -4 -8 23 -3 -9 29 -11 26 -2 -21 -13 -1 -12 -19 -7 -16 -26 -6
right_child=1 3 4 6 17 19 13 16 -10 18 24 22 -14 -15 27 -17 -18 25 -20 21 -22 -23 -24 -25 28 -27 -28 -29 -30 -31
leaf_value=-0.027009638977874957 0.0078064856257053445 0.015277292274597176 -0.010977598332591555 0.022107379964801069 0.00020111358180485077 0.013431962703797522 0.019188194617084039 0.0026428053696170082 0.026524786590278324 0.02068578817914268 -0.013202188359723635 0.01230968646254584 -0.00070196876808934839 0.0090293187959997866 0.054312541264915692 0.018398192252372637 0.0097698365177277501 0.031072726604766902 0.011210562765117591 0.017736901007773323 0.013706885284994615 0.025522246666012278 0.017282100930373905 -0.017600699242127583 -0.0051469200375466794 0.016806444218165951 0.042027749758909473 -0.02152247783969621 0.011492346145549486 0.012259839094988749
leaf_weight=4581.4162453562021 59577.547096848488 74359.972395479679 7340.3354860395193 161337.94008265436 851.81105577945709 19778.558387562633 64889.840151444077 41573.698849827051 68149.447204068303 134122.3328332603 4351.0323691666126 74101.757141172886 17983.881307527423 5679.6730029135942 113.34197448194027 112166.85423243046 9707.2826603353024 1936.1155874431133 3915.4231192916632 31131.176219955087 9888.7568514198065 5597.0764003396034 12281.056220263243 7542.5717591047287 3910.6987883448601 2529.1503323018551 267.82466657459736 35.792530551552773 626.76129297912121 2706.2682745307684
leaf_count=33838 206398 206705 40203 390634 3148 58509 165755 164176 153168 340119 23998 227679 80780 17162 190 301743 35227 4890 11740 86210 31580 14149 35329 50108 19250 7111 600 199 2431 8649
internal_value=0.0162368 0.0183767 -0.000699093 0.0203144 0.00292481 0.0126843 0.0222318 0.0014556 0.0234192 0.0185418 -0.0151916 0.0110687 -0.00368041 0.0183706 -0.0204603 0.017154 0.00399192 0.0169525 0.020417 0.0171193 0.00864643 0.0189233 0.0130166 -0.0211562 -0.00791678 0.0229922 0.013814 0.036112 -0.00284853 0.00937296
internal_weight=943035 837245 105790 624621 84628.5 212624 300057 76605.2 229487 324565 21161.6 155849 25324.2 70569.5 12273.1 186527 51281 8023.35 138038 56774.6 69466.3 36728.3 86382.8 12124 8888.49 4465.27 20046.4 149.135 4537.46 3558.08
internal_count=2721678 2247480 474198 1587026 344184 660454 726719 320386 543802 860307 130014 500986 120983 182917 84335 508448 199403 23798 351859 159468 237978 100359 263008 83946 45679 12001 59109 389 21681 11797
is_linear=0
shrinkage=0.03


Tree=24
num_leaves=31
num_cat=0
split_feature=3 3 3 1 3 5 4 5 1 2 3 2 5 2 14 4 2 14 8 1 5 6 5 2 8 5 14 6 8 5
split_gain=35515 9602.38 5395.83 2324.3 1452.58 1441.71 1436.17 1341.89 953.213 944.031 805.471 781.88 768.918 725.102 508.144 449.702 441.697 836.595 439.754 400.193 394.663 360.406 328.257 326.545 542.351 323.851 317.482 286.756 194.138 180.169
threshold=0.025593837951214882 0.01673208870916525 0.037496736044850425 1.2149497966389007 0.013006722078944977 0.32009167545021433 0.029661012488458025 0.80386525364216455 1.1937224958452946 0.16944172556989964 0.020089281487694389 -0.031072797086116152 0.42327144680962447 0.052874514340625893 0.20490686918042614 0.016393438092413646 0.16944172556989964 0.040360204439362522 0.12690484013121767 1.4437698176330558 0.36201001493107204 0.6259799111760439 0.46766920077824597 0.11242484327331199 0.074097687097467238 0.13636642298134341 0.015821017572047166 0.80227220636642194 0.0042980621918035462 0.68254662755278361
decision_type=2 2 2 2 2 2 2 2 2 2 2 2 2 2 2 2 2 2 2 2 2 2 2 2 2 2 2 2 2 2
left_child=1 4 6 5 25 10 12 9 20 11 -3 -4 15 14 -5 -2 19 -18 -11 -8 -6 -10 -7 24 -9 -1 -15 -27 -25 -14
right_child=2 3 7 13 8 22 16 23 21 18 -12 -13 29 26 -16 -17 17 -19 -20 -21 -22 -23 -24 28 -26 27 -28 -29 -30 -31
leaf_value=-0.026987632257030474 0.0064903682854104208 -0.0030658408863707158 0.018084446315888843 0.011308470323329895 -0.011009937128000236 0.0068801814856021973 0.016852161956700064 0.023422239093993442 -2.7999964198128092e-05 0.016741740348894332 0.0042928290134837581 0.021157496617534133 0.014946056371378824 0.029441491206854072 0.065999304524720623 0.012595557887493352 -0.033886800879598576 0.016307641877987594 0.0056383286722272398 0.020249187681773837 0.0056999854338318345 0.017293725043868793 0.011878100325120471 0.027149182950220268 0.030029029881954741 -0.016956884044873638 0.016622683459396829 0.018422275644828377 0.011509388305766461 0.018204633050866829
leaf_weight=3490.4249552488327 12753.945709705353 20612.275882467628 108154.01117549837 29820.33674967289 15654.034273952246 36336.566344827414 103894.17843313515 65550.747322306037 3789.7282175123692 7525.5369928777218 38193.141732931137 239575.41384845972 62833.481876119971 3112.6177527159452 153.68543367087841 73062.750928282738 429.94326856732368 980.08069694042206 5598.4476184099913 44614.362315163016 1384.6159534454346 1512.5340087413788 17534.276267439127 958.96169130504131 13482.624333322048 7610.9404235035181 3939.8985085189342 211.92741549015045 2799.9951659440994 20174.056598842144
leaf_count=24306 43177 92768 273432 95529 88618 129722 279099 153666 18198 21083 143347 588612 180625 7579 301 219626 2019 3054 17756 113302 6329 5542 58334 2228 28663 49934 10842 973 7555 55459
internal_value=0.0157036 0.0038492 0.0185546 0.00710432 -0.0106304 0.00496146 0.0155771 0.0206939 -0.0061952 0.0199036 0.00171349 0.0202017 0.0136794 0.0136253 0.0115889 0.0116882 0.017714 0.0010024 0.0120052 0.0178727 -0.00965203 0.00491323 0.00850694 0.0241384 0.0245493 -0.0193889 0.0222802 -0.0159984 0.0154993 0.015738
internal_weight=945746 183357 762389 149703 33654.2 112676 318743 443646 22340.9 360853 58805.4 347729 168824 37026.5 29974 85816.7 149919 1410.02 13124 148509 17038.7 5302.26 53870.8 82792.3 79033.4 11313.3 7052.52 7822.87 3758.96 83007.5
internal_count=2721678 732322 1989356 538422 193900 424171 896361 1092995 118687 900883 236115 862044 498887 114251 95830 262803 397474 5073 38839 392401 94947 23740 188056 192112 182329 75213 18421 50907 9783 236084
is_linear=0
shrinkage=0.03


Tree=25
num_leaves=31
num_cat=0
split_feature=3 3 3 3 1 1 2 8 5 5 10 4 10 8 2 8 4 2 2 6 9 2 2 14 5 7 10 5 1 4
split_gain=33292.8 9106.85 5566.65 2139.12 1727.86 1503.46 1236.6 1217.68 1103.96 944.418 871.839 847.922 769.663 651.796 538.06 503.053 489.769 484.966 422.085 378.514 369.447 358.938 390.619 381.218 309.806 232.718 219.581 148.023 127.213 120.521
threshold=0.022006026214756783 0.030688516699364201 0.014962942079638384 0.047017244560845724 1.6275137149391787 1.2008293884231611 0.11242484327331199 0.12690484013121767 0.32009167545021433 0.44160483907263676 1.3299425133173582e-06 0.024806198646792208 8.5743024049611646e-09 0.03684326162050814 -0.034694895275345923 0.046755125685946426 0.015923561807782882 0.0057771808889065046 0.0019346219694340069 0.45362752842426751 0.4777618574982585 0.047817906970041284 0.15504710968584859 0.18297148270588307 0.6774038443528313 0.99038348166542634 0.00050230301058145114 0.16371880360572963 1.4878617803294378 0.015763545146684259
decision_type=2 2 2 2 2 2 2 2 2 2 2 2 2 2 2 2 2 2 2 2 2 2 2 2 2 2 2 2 2 2
left_child=2 5 10 11 8 9 7 -5 12 16 15 24 -4 -8 -13 20 -2 -10 27 -6 -1 23 -23 -7 -3 -21 -11 -12 -17 -20
right_child=1 3 4 6 19 21 13 -9 17 26 18 14 -14 -15 -16 28 -18 -19 29 25 -22 22 -24 -25 -26 -27 -28 -29 -30 -31
leaf_value=-0.015122871206962565 0.004110150481707626 0.014168300437023119 -0.0077335421840887091 0.021411579144252495 0.0067179565900210925 0.01427465556379157 0.020170140111240967 0.03174031638795604 0.0032914449903400475 0.012652649014923916 -0.023032323395772537 0.016267837815162993 0.00085785658382278389 0.01075039452658475 0.019148800357211278 -0.02942237930586887 0.0095978180629197208 0.011843929927148885 -0.0048431661472452909 0.018139783733290331 -0.025732409392045106 0.020616230710666403 -0.0052311149088674087 0.052426733935140808 0.018833257498571853 0.03698977473983512 0.017637084667546477 -0.010669924611438239 0.046914284598613652 0.0052074523368123155
leaf_weight=5752.7460203021765 17642.154522702098 71818.788254678249 12424.378898233175 209110.66683410108 2690.5636571347713 38593.612775698304 12218.539539709687 10803.377605572343 16604.466969802976 45409.010060414672 1279.4251490831375 80146.18217112124 38357.133468091488 14405.634308248758 214479.29907269776 23.297791257500648 85935.446294441819 9314.5820324718952 3146.1771432310343 4720.255246847868 6071.6021349355578 16112.33092212677 543.98181548714638 237.15929211676121 15594.724288597703 673.56887672841549 9643.6613341122866 2735.3623904585838 125.4019286185503 1630.169510602951
leaf_count=40054 64238 202422 61848 494375 9145 110131 30713 22221 63894 137810 7870 209691 161454 40533 546029 151 276811 33190 15804 13194 43892 41654 1996 462 41042 1459 27352 15220 238 6785
internal_value=0.0151915 0.0171809 -0.000691914 0.0190011 0.00271757 0.0118375 0.0211797 0.021919 0.00132717 0.0103507 -0.0146136 0.0175953 -0.00124414 0.0150734 0.0183651 -0.0198811 0.00866312 0.00636497 -0.00743962 0.015909 -0.0205707 0.016088 0.0197721 0.0145077 0.0150005 0.0204937 0.0135258 -0.0146096 0.0349541 -0.00141289
internal_weight=948244 842695 105549 628577 84784.9 214117 246538 219914 76700.6 158630 20764.2 382039 50781.5 26624.2 294625 11973 103578 25919 8791.13 8084.39 11824.3 55487.1 16656.3 38830.8 87413.5 5393.82 55052.7 4014.79 148.7 4776.35
internal_count=2721678 2247480 474198 1587026 344184 660454 587842 516596 320386 506211 130014 999184 223302 71246 755720 84335 341049 97084 45679 23798 83946 154243 43650 110593 243464 14653 165162 23090 389 22589
is_linear=0
shrinkage=0.03


Tree=26
num_leaves=31
num_cat=0
split_feature=3 3 3 4 5 4 2 8 2 3 1 1 1 7 5 5 9 2 8 1 4 9 2 6 4 5 5 8 6 4
split_gain=31176 8561.08 4846.49 2308.32 1618.19 1482.22 1261.76 1222.62 1962.96 1100.9 940.174 823.457 796.602 695.76 651.646 535.683 507.54 412.811 410.879 386.989 371.386 330.751 318.998 298.813 296.705 273.958 271.74 258.254 226.279 146.993
threshold=0.025593837951214882 0.016179136934182634 0.039395638328325315 0.022413789239001915 0.31100865385499271 0.023602480868027461 0.11728725715971509 0.12690484013121767 0.0019346219694340069 0.012551839685792361 1.6275137149391787 0.43767103323285655 1.2971747899877213 0.97435707741803668 0.42913642438351657 0.28999997781032533 0.53670684347602748 -0.061283346179193503 0.042290328233908943 1.0337449006821651 0.036091058426113577 0.42759538467434327 0.013059658680823165 0.6259799111760439 0.07515404740345609 0.13636642298134341 0.50982141884874022 0.10311349889044598 0.79331036633552132 0.014590346612844694
decision_type=2 2 2 2 2 2 2 2 2 2 2 2 2 2 2 2 2 2 2 2 2 2 2 2 2 2 2 2 2 2
left_child=1 9 5 4 16 15 7 11 -9 25 17 -4 21 24 20 29 -3 -5 -12 -16 -7 -11 -6 -14 -8 -1 -17 -15 -27 -2
right_child=2 3 6 10 22 14 13 8 -10 12 18 -13 23 27 19 26 -18 -19 -20 -21 -22 -23 -24 -25 -26 28 -28 -29 -30 -31
leaf_value=-0.027123341892823883 0.00083800756012877798 0.0012866129017907282 0.014542524157313878 0.0202685406560538 0.0059779678610271461 0.013111947278054235 0.018531575584983997 0.042950948076732672 0.019408661446861295 -0.0047360334816753192 0.01379722025639221 0.020211336138413263 -0.00038172753674426552 0.011703246543832297 0.01614078965051171 0.011555297429861399 -0.0058575721551402914 0.0081332615453650198 0.024466064880801986 0.019384381741618564 0.016404248980218299 -0.013580846602513345 0.011847521437312589 0.018610913106079426 0.011680474246514415 -0.017252284726318411 0.014990876223378299 0.00016439206572788046 0.016283458676447631 0.0083471187713674167
leaf_weight=3132.4183563515544 2764.2089682221413 36055.583310648799 24800.795505866408 2663.7986180782318 30717.616239324212 71470.666843742132 17334.293737515807 5429.7258832007647 7719.049984946847 6220.4799269586802 9436.3560272157192 328963.49518275261 2251.1002058982849 3311.7465032488108 77103.277486279607 54771.310915410519 11904.621934846044 47685.391491800547 4954.5714162886143 58012.502220883965 54238.449959889054 9799.5225210264325 11435.775615751743 1114.7246873751283 8468.5196202248335 6044.7950388267636 33328.693353950977 3691.5593780726194 186.67242670059204 15514.015148445964
leaf_count=22643 10105 148968 63745 8115 111263 202150 43978 9568 18277 34453 27374 793630 10880 9397 205313 164503 51498 161838 11959 147515 141874 58471 38866 3944 23286 41158 94121 12012 892 49882
internal_value=0.0146996 0.00359551 0.017358 0.00638677 0.00328221 0.0148698 0.0196438 0.0201478 0.0291303 -0.011439 0.0107081 0.0198139 -0.00735896 0.0140069 0.0160871 0.0118853 -0.000486708 0.0087753 0.0174703 0.0175334 0.0145324 -0.0101465 0.00757032 0.00590843 0.016283 -0.0198858 0.012855 0.00562092 -0.0162477 0.00721152
internal_weight=950526 183603 766922 154854 90113.6 367203 399719 366913 13148.8 28749.7 64740.1 353764 19385.8 32806.1 260825 106378 47960.2 50349.2 14390.9 135116 125709 16020 42153.4 3365.82 25802.8 9363.89 88100 7003.31 6231.47 18278.2
internal_count=2721678 732322 1989356 559881 350595 1015463 973893 885220 27845 172441 209286 857375 107748 88673 696852 318611 200466 169953 39333 352828 344024 92924 150129 14824 67264 64693 258624 21409 42050 59987
is_linear=0
shrinkage=0.03


Tree=27
num_leaves=31
num_cat=0
split_feature=3 3 3 5 1 1 2 11 5 13 5 10 10 6 3 3 10 9 2 7 9 13 2 13 1 3 11 10 13 5
split_gain=29291.4 8093.61 5009.13 1824.67 1567.4 1416.9 991.209 1310.11 913.374 907.998 881.875 841.203 672.309 539.482 462.273 457.072 542.021 402.543 399.073 358.596 352.41 350.425 310.984 306.718 279.952 248.952 223.162 216.216 172.635 143.648
threshold=0.022006026214756783 0.031506842841059819 0.014962942079638384 0.70452256192448892 1.1937224958452946 1.2008293884231611 -0.033449970756879152 -0.018625318409344657 0.32009167545021433 43.887377400150278 0.44160483907263676 1.3299425133173582e-06 8.5743024049611646e-09 0.63080160916643391 0.027915601174162263 0.052457371896638148 0.00024506172013478267 0.4777618574982585 0.0019346219694340069 0.96825242713277448 0.57708397018183388 63.20441914352417 0.0057771808889065046 55.866214564375404 1.6717893775067425 0.010764576513637426 -0.0053965535402271765 0.00052101335729362174 79.961832026316969 0.13636642298134341
decision_type=2 2 2 2 2 2 2 2 2 2 2 2 2 2 2 2 2 2 2 2 2 2 2 2 2 2 2 2 2 2
left_child=2 5 11 6 8 10 9 -8 12 -3 14 17 -4 20 -2 26 -17 25 29 24 -6 -21 -10 -15 -7 -1 -5 -12 -19 -13
right_child=1 3 4 15 13 19 7 -9 22 -11 27 18 -14 23 -16 16 -18 28 -20 21 -22 -23 -24 -25 -26 -27 -28 -29 -30 -31
leaf_value=-0.023046707655309692 0.0069965361923871533 0.013090509134697973 -0.0091177924038162005 0.016973555925285704 0.0087824622862994195 0.01293115355557461 0.031196380162718192 0.017565880587842326 0.0026636069519145903 0.018838858402522342 0.012069378615355467 -0.026924606740048165 -0.00028904326608520162 0.025586238031547377 0.010998247112274007 0.02075346475091696 0.026759142861871001 -0.026138498585296339 -0.0011256228054807736 0.031196321507183263 -0.0023431472498173286 0.015712498409162334 0.010377258062997946 0.01183138014780429 0.017270938130519022 -0.0094776608500676453 0.020368872561542607 0.016768054515724731 -0.0056984267868990897 -0.01149320415663071
