tree
version=v4
num_class=1
num_tree_per_iteration=1
label_index=0
max_feature_idx=13
objective=binary sigmoid:1
feature_names=v_ratio v_dry ma5_bias ma20_bias ma60_bias rs_rank rsi_14 atr_14 hl_ratio v_trend winner_ratio cost_concentration ind_rank ind_excess
feature_infos=[0:2.1324755196175369] [0:12.101915914169734] [-0.2696386945661769:0.39373782297896598] [-0.55443019363392776:1.4078766557116069] [-0.70745718704765093:2.8844056567727447] [0.01889644746787604:100] [10.448525958562129:99.998364963547928] [9.6096441889196847e-05:0.21469139669736823] [0:0.46662169683639199] [0:8.9098638654652511] [0:0.9916666666666667] [0.012031223149751373:7.6620524904931555] [0.018957345971563979:100] [-0.68024093200897706:4.9538433511047355]
tree_sizes=3514 3522 3521 3540 3521 3538 3538 3532 3543 3544 3534 3534 3544 3540 3535 3538 3539 3550 3549 3538 3548 3549 3538 3539 3534 3558 3540 3559 3543 3561 3553 3533 3563 3555 3573 3566 3567 3585 3554 3569

Tree=0
num_leaves=31
num_cat=0
split_feature=11 2 4 11 4 4 2 2 11 2 2 1 2 5 11 11 6 2 2 0 1 2 1 11 2 11 2 4 10 5
split_gain=38983.2 17189.7 12427 12530.8 6867.43 4582.55 3530.61 3515.36 3072.73 1866.73 1736.51 1482.7 1414.29 1218.03 1143.21 1101.34 1067.78 1024.97 927.973 838.676 777.534 785.721 767.433 628.995 524.781 506.345 498.513 388.394 384.249 384.025
threshold=0.33535748861955422 0.024033972272958889 0.061038477734109572 0.49500451290430297 0.058035856825491262 -0.11972838610419033 0.024577069637429946 0.030120468319066094 0.19742846980634859 -0.022541737483887974 0.042215734796968198 1.4588161958026455 -0.039948954211120623 81.23689724417379 0.4188446162006042 0.28609646766948321 81.631226763967021 0.062755478338035561 -0.11772269573586304 1.4201692776003942 3.2552615573613717 0.062755478338035561 0.92119812191671058 0.25517817708227025 0.044901149329997288 0.27009014064617803 0.051901135831246566 0.1634401960325054 0.82083333333333341 45.387102615117549
decision_type=2 2 2 2 2 2 2 2 2 2 2 2 2 2 2 2 2 2 2 2 2 2 2 2 2 2 2 2 2 2
left_child=1 4 3 6 8 18 9 12 -1 -2 29 23 -7 16 -11 -6 17 19 -5 -4 21 27 -23 -10 -8 -12 -9 -15 -19 -3
right_child=2 10 13 5 15 7 24 26 11 14 25 -13 -14 20 -16 -17 -18 28 -20 -21 -22 22 -24 -25 -26 -27 -28 -29 -30 -31
leaf_value=-0.78836494173869798 -0.70507059086986867 -0.67139539446042451 -0.67807625391070303 -0.64016553260147757 -0.73824879029187829 -0.68735489222902713 -0.69456281995170877 -0.68412594889570888 -0.76859680212620951 -0.73244147022948192 -0.62265135294569052 -0.71701917710885954 -0.70463230826622891 -0.69559054273015297 -0.71894471154402328 -0.70584611044407375 -0.75387436921164186 -0.63517181742632423 -0.68278242176339332 -0.69711238018712562 -0.7136768565871735 -0.63190625043931381 -0.67923210315211136 -0.7522471785494329 -0.6647796129914797 -0.66128497853763779 -0.66532767430823414 -0.68596365098541545 -0.66667240516823434 -0.70375998966160602
leaf_weight=7715.4721739590168 13050.473665028811 1281.2485972940922 55183.667996823788 1317.1811593174934 3935.0014148950577 13220.080209285021 5892.2107102870941 11537.50950101018 7891.9740052521229 32141.67163413763 1243.4849461019039 2588.4413158595562 113839.90529197454 19816.707142204046 30651.293207585812 7861.5727593898773 472.9346316754818 1615.4695583283901 42247.783365309238 6463.6946426033974 3047.1151009500027 963.4381257891655 7725.4961836636066 23104.917044848204 1974.7019414007664 2667.4394916892052 5079.5103315711021 22230.124644517899 2415.7724753916264 3220.0752381980419
leaf_count=32989 44396 3906 172100 3584 14756 42516 19395 36714 32107 118571 3155 9130 386745 65443 108733 26808 1851 4311 133843 21449 10641 2538 24187 90035 5883 7849 15162 71168 7245 10910
internal_value=-0.70278 -0.73978 -0.696957 -0.702889 -0.750301 -0.695699 -0.71897 -0.700006 -0.759911 -0.722277 -0.673373 -0.753374 -0.702835 -0.683557 -0.725853 -0.716655 -0.679014 -0.678475 -0.681494 -0.680072 -0.689146 -0.687672 -0.673985 -0.75641 -0.687087 -0.649001 -0.67838 -0.690501 -0.654049 -0.694548
internal_weight=452396 61509.6 390887 270952 53097.4 187242 83710.4 143677 41300.8 75843.4 8412.25 33585.3 127060 119934 62793 11796.6 66151.5 65678.6 43565 61647.4 53782.9 50735.8 8688.93 30996.9 7866.91 3910.92 16617 42046.8 4031.24 4501.32
internal_count=1528120 231645 1296475 915542 205825 618564 296978 481137 164261 271700 25820 131272 429261 380933 227304 41564 206956 205105 137427 193549 173977 163336 26725 122142 25278 11004 51876 136611 11556 14816
is_linear=0
shrinkage=1


Tree=1
num_leaves=31
num_cat=0
split_feature=8 8 2 8 4 8 4 4 2 4 9 2 8 6 8 0 13 0 3 4 2 4 0 5 6 2 0 8 0 9
split_gain=66508.9 12117.8 8039.37 7876.69 3077.77 2785.71 2255.61 2254.81 1958.15 1783.37 1679.13 1911.61 1683.52 1541.23 1447.45 1444.79 1293.43 1016.04 698.909 552.359 491.193 471.487 467.733 467.73 459.686 469.197 425.909 371.756 370.813 356.1
threshold=0.024788730946592546 0.015065911239788107 0.036679038912523269 0.03611048925130337 0.076316663450547453 0.010790187050877463 -0.092860817952122282 0.087376803869609887 0.024033972272958889 -0.097117990058975215 2.6260251896258651 0.049962236082504365 0.11450142716711134 37.317949682085121 0.019900496105875468 0.84857537331286081 0.066433549790702345 0.66305281499048896 0.3191773985363423 0.078139542269261161 0.021091849533006642 -0.055673506340356185 0.95387399987483878 63.060160744417018 62.9290498669559 0.040956788708198112 0.68712139555494844 0.13640594673246817 1.0069499522073542 0.91442966459398345
decision_type=2 2 2 2 2 2 2 2 2 2 2 2 2 2 2 2 2 2 2 2 2 2 2 2 2 2 2 2 2 2
left_child=1 2 5 7 6 -1 28 8 9 22 11 12 15 -14 -8 -5 18 -11 -13 21 -16 -7 -2 26 -9 -26 29 -12 -3 -6
right_child=3 4 -4 10 23 19 14 24 -10 17 27 16 13 -15 20 -17 -18 -19 -20 -21 -22 -23 -24 -25 25 -27 -28 -29 -30 -31
leaf_value=-0.047421394224652712 0.052753926935974277 0.035593627968309803 0.11311395541733343 0.059267685630681556 0.035410944204427565 -0.0026512173979406145 0.00059007205582994209 0.058988056221225806 0.057004648236342687 0.038792136516992599 0.041590259403626512 0.081386674061143208 0.12010004634997647 0.060532821217481825 0.013488940308216331 0.049937752179969125 0.057648034007744167 0.025888597553838107 -0.021661191797950754 0.019874273881791193 0.034179710206119034 -0.021234590562460413 0.037193903339143207 0.028775076014327286 0.037500980006002826 0.078911523082147633 0.033051083663388728 0.014733680799079963 0.017059277444372301 0.06915854640862848
leaf_weight=9717.5047012418509 12837.565407365561 10183.866556927562 1084.3500618338585 72815.024892687798 1096.2951024770737 4504.6565015614033 31031.451065763831 15082.855422914028 10293.784201845527 22732.742361992598 12877.637693554163 13237.529882252216 1841.7204497903585 2646.0833263546228 33641.36106055975 96465.798228189349 12289.704040437937 46383.062541976571 166.61538907885551 1090.9843348413706 3135.7632513344288 14086.793106079102 7742.5007352381945 5264.8041945844889 5371.6849848479033 783.8403193205595 2538.7390492707491 1431.8040161132812 3671.525201305747 2723.7457870393991
leaf_count=42046 40573 34130 2661 225094 3642 17096 116956 46443 32007 75889 42156 37233 4440 8133 121856 308104 37924 161426 661 3834 10556 56705 25749 17974 17825 2235 8530 5102 13032 8108
internal_value=0.0381022 0.00678212 -0.020586 0.049674 0.0157254 -0.0255172 0.0122991 0.0394929 0.0363502 0.0339798 0.0554476 0.0566345 0.0547523 0.0849782 0.00854282 0.053951 0.0693639 0.0301327 0.0801058 -0.0147028 0.0152531 -0.0167319 0.0469 0.0397979 0.0542888 0.0427742 0.0489244 0.038903 0.0306822 0.0594735
internal_weight=458772 123772 30484.3 335000 93287.6 29399.9 81664 121228 99989.7 89695.9 213772 199462 173769 4487.8 67808.6 169281 25693.8 69115.8 13404.1 19682.4 36777.1 18591.4 20580.1 11623.6 21238.4 6155.53 6358.78 14309.4 13855.4 3820.04
internal_count=1528120 457126 122342 1070994 334784 119681 296530 402147 335644 303637 668847 621589 545771 12573 249368 533198 75818 237315 37894 77635 132412 73801 66322 38254 66503 20060 20280 47258 47162 11750
is_linear=0
shrinkage=0.05


Tree=2
num_leaves=31
num_cat=0
split_feature=8 11 8 4 8 11 4 11 2 2 4 2 0 8 4 8 8 5 11 4 4 0 2 2 8 1 8 2 2 4
split_gain=58355 12560.1 8807.88 3509.02 3504.01 2655.58 2186.47 1940.74 1652.92 1421.65 1389.66 1596.12 1538.63 1525.33 1309.66 1217.94 1210.62 908.039 791.108 737.993 720.078 662.803 662.378 568.445 582.897 564.608 540.72 692.744 535.207 415.392
threshold=0.02339180829204832 0.3283309565756512 0.034351142805137076 0.067568450638755814 0.013133205613709047 0.46518097148181586 0.09124989951569959 0.44222181701193469 0.025675616382511219 0.048157505481586864 -0.15774201692023529 0.039878697085929331 0.82382207177097377 0.099674109816229428 0.062629951782336921 0.10264320726542624 0.013743745340997144 67.8619499385496 0.41295492730873867 -0.11012281020211105 0.080022427134695304 0.72367204551343467 0.020654042942058148 0.028793689853754956 0.0096409884404917139 2.7205957183744363 0.01762114425413672 0.039878697085929331 0.023502651283094689 -0.088814356115774637
decision_type=2 2 2 2 2 2 2 2 2 2 2 2 2 2 2 2 2 2 2 2 2 2 2 2 2 2 2 2 2 2
left_child=1 4 6 5 23 16 7 8 21 -5 15 12 20 17 28 -4 -3 -13 -14 -9 -12 -2 -21 24 -1 -15 27 -7 -6 -28
right_child=2 3 10 9 14 26 -8 19 -10 -11 11 13 18 25 -16 -17 -18 -19 -20 22 -22 -23 -24 -25 -26 -27 29 -29 -30 -31
leaf_value=-0.059029860654003209 0.02833685911263888 -0.02231119779528315 0.060764997679703697 0.03638667732056957 -0.017861821034752322 0.0088742720693754072 0.050159860690822677 0.045918623764384651 0.060051774353631106 0.10147280189703545 0.049931938821836039 0.07471528905383637 0.035179840420912205 0.05238788772688157 0.016390804909936087 0.1052973426669758 0.0039555881217636117 0.057443345274389324 0.04634432762077427 0.031371007003804782 0.060366546993515728 0.01247779503042242 0.046887125753375079 0.079836181490167663 -0.03595527136576103 0.028686410777225842 0.032710669032914745 0.10759595796880353 0.040145273699562417 0.019004017557940414
leaf_weight=5013.0627064406872 10118.558621659875 5404.6941866129637 13124.501757144928 8852.4410076141357 16657.200104489923 11740.612719669938 19070.627057552338 15569.49055108428 2543.0452788770199 926.8246073871851 44271.293338850141 12715.638610944152 19383.531582862139 5838.2267010360956 3685.3150533735752 1738.7897634357214 23288.218602880836 18950.338218405843 87464.355382815003 47734.624935150146 26388.74422262609 18883.094451248646 8036.2615607082844 89.858747065067291 6027.9599480032921 4411.1660015136003 7997.3146904110909 180.43112489581108 407.37399871647358 17899.00978384912
leaf_count=22940 34565 21960 38943 28850 67014 42802 58856 48964 7579 2235 137518 35294 63793 17736 13027 4172 86624 56620 275161 160021 78262 68044 25230 242 25750 14647 26562 430 1328 62951
internal_value=0.0357402 0.00357578 0.0455067 0.0145898 -0.0227802 0.0104779 0.0346097 0.0317274 0.0214002 0.0425552 0.051179 0.0501768 0.0481045 0.0589525 -0.0106395 0.0659746 -0.000992113 0.064379 0.044319 0.0362938 0.0538289 0.018011 0.0336068 -0.0454127 -0.0464321 0.0421872 0.0191804 0.0103685 -0.016477 0.0232369
internal_weight=464413 108170 356242 76289.5 31880.8 66510.3 121956 102885 31544.7 9779.27 234287 219423 177508 41915.4 20749.9 14863.3 28692.9 31666 106848 71340.4 70660 29001.7 55770.9 11130.9 11041 10249.4 37817.4 11921 17064.6 25896.3
internal_count=1528120 402715 1125405 272414 130301 241329 403259 344403 110188 31085 722146 679031 554734 124297 81369 43115 108584 91914 338954 234215 215780 102609 185251 48932 48690 32383 132745 43232 68342 89513
is_linear=0
shrinkage=0.05


Tree=3
num_leaves=31
num_cat=0
split_feature=7 7 7 8 2 2 2 1 7 7 7 13 1 8 2 2 7 9 7 8 7 10 2 2 0 2 10 8 8 10
split_gain=59412.5 14095.2 12079.9 7300.58 6669.64 3818.36 2468.76 2023.74 1350.46 1228.45 1180.82 1219.39 1111.27 1023.52 986.6 966.125 947.607 794.642 659.401 641.313 539.051 534.617 791.227 518.4 510.22 462.346 451.858 449.903 424.758 387.11
threshold=0.026463136757474037 0.045019564997703744 0.018796985500323018 0.029126210006007205 0.02750279061423266 0.049962236082504365 0.02750279061423266 2.3984306745944584 0.031612505566193612 0.014929479813997561 0.052397273030317937 0.03770353135583384 1.5244541545551276 0.11450142716711134 0.056759626714430821 0.046419848182169064 0.023296949656601135 2.3278208988234801 0.031612505566193612 0.082801006277155267 0.034423403915486157 0.079166666666666677 0.004630330916800156 0.02686234126035943 1.6071408209505929 0.075268812980103558 0.75416666666666676 0.016192906144373877 0.021526414536171139 0.037500000000000006
decision_type=2 2 2 2 2 2 2 2 2 2 2 2 2 2 2 2 2 2 2 2 2 2 2 2 2 2 2 2 2 2
left_child=2 3 6 8 12 18 9 10 27 21 25 13 16 -12 28 26 -4 20 23 -19 -7 22 -1 -5 -20 -3 -6 -2 -10 -18
right_child=1 7 4 5 15 17 -8 -9 14 -11 11 -13 -14 -15 -16 -17 29 19 24 -21 -22 -23 -24 -25 -26 -27 -28 -29 -30 -31
leaf_value=-0.039862708664074868 -0.00056482647654358285 0.045886959922600626 -0.009557482075246827 0.026247733740187497 0.061798854359325965 0.086776505725268668 0.072016146594501826 0.025794584218772749 0.0196522614224625 -0.031208094882946819 0.058260186764558831 0.049106699749113136 0.028031197781227681 0.088780024399715593 0.091217452004088539 0.10039412005863978 0.022810760210126346 0.067074767731278948 0.04020426605971545 0.012399345894938709 0.063335082488514161 -0.060517677811878216 0.083770328294819466 0.046516297818599533 0.024699968635179242 0.074103744838185492 0.018115504987110721 0.015940589507293417 0.028932160075727398 0.0025907747576459348
leaf_weight=1106.1188582479954 4823.6206300258636 55792.808990910649 22038.514727056026 18772.761616766453 2030.8130664825439 3732.4445617645979 483.27577687799931 7385.0765820741653 19147.748357415199 11254.214541897178 68488.557938963175 46921.333802863955 3273.5414974987507 2861.8779490888119 579.52617087960243 1347.8091753572226 2676.8116987645626 1012.9913915395737 83620.495655596256 1139.7638553529978 7151.3871936202049 8030.562682941556 146.55788417160511 3791.9290875345469 5665.8536039590836 1490.5346279293299 835.54780398309231 28655.164696872234 34636.16641266644 20456.874481424689
leaf_count=4877 18242 172007 85467 62509 5890 9483 1334 24226 66824 47071 200805 141861 10959 7151 1401 3208 9247 2833 262936 3912 20121 37129 453 11545 18832 3992 2806 100495 115007 75497
internal_value=0.0335817 0.0412583 -0.00764227 0.0325069 0.00514885 0.0402752 -0.0396859 0.0514348 0.0214625 -0.0423144 0.0525134 0.0553673 -9.93308e-05 0.0594843 0.0263276 0.0654816 -0.0021379 0.0658839 0.0372905 0.0381272 0.071374 -0.0557787 -0.0253982 0.0296538 0.0392204 0.0466212 0.0490651 0.0135625 0.0256284 0.00493044
internal_weight=469351 395670 73680.6 212730 52659.9 124888 21020.7 182940 87842.2 20537.5 175555 118272 48445.7 71350.4 54363.4 4214.17 45172.2 13036.6 111851 2152.76 10883.8 9283.24 1252.68 22564.7 89286.3 57283.3 2866.36 33478.8 53783.9 23133.7
internal_count=1528120 1244182 283938 694140 193074 392171 90864 550042 301969 89530 525816 349817 181170 207956 183232 11904 170211 36349 355822 6745 29604 42459 5330 74054 281768 175999 8696 118737 181831 84744
is_linear=0
shrinkage=0.05


Tree=4
num_leaves=31
num_cat=0
split_feature=7 7 7 2 2 2 7 5 7 7 2 1 1 3 7 1 7 2 9 1 2 4 1 4 2 1 0 5 1 4
split_gain=52569.1 12410.6 11095.1 6764.04 5939.12 2242.92 1995.8 1972.58 1939.43 1174.45 1142.12 1134.07 983.835 906.849 901.549 897.218 715.392 574.386 635.184 517.214 539.542 471.009 443.944 442.276 392.864 381.646 365.501 364.361 349.233 345.75
threshold=0.026463136757474037 0.041059716143589463 0.018796985500323018 0.042215734796968198 0.024033972272958889 0.02750279061423266 0.052397273030317937 84.323039934044601 0.031612505566193612 0.014929479813997561 0.040956788708198112 1.1830124768451873 2.1194596657819478 0.023346180651039081 0.022614745780419644 0.80922310131715769 0.065898595753024689 0.059554688007690565 2.3907457615144758 3.9423242458652576 0.059554688007690565 -0.11392066033627953 1.5244541545551276 -0.10488332009278657 0.018535018469537937 1.2952949202591408 1.5428323596279025 62.248383548800064 2.2406488386075658 -0.11201431199017417
decision_type=2 2 2 2 2 2 2 2 2 2 2 2 2 2 2 2 2 2 2 2 2 2 2 2 2 2 2 2 2 2
left_child=2 3 5 8 14 9 19 13 11 -1 25 29 -9 -8 -4 23 -15 -5 -19 20 21 -3 -16 -10 -13 -6 -17 -12 -22 -2
right_child=1 6 4 17 10 -7 7 12 15 -11 27 24 -14 16 22 26 -18 18 -20 -21 28 -23 -24 -25 -26 -27 -28 -29 -30 -31
leaf_value=-0.054241658804511476 0.02757120797551358 0.048632061382388549 -0.0093283740955143815 0.050519249324172288 0.013902177031917193 0.067110463961973524 0.051645750615988834 0.044212587595306906 0.034909956157995504 -0.030003517608550558 0.10320731835415398 0.02427898884078087 0.019261720006603179 0.056373880886346331 0.0032096525414122088 0.03530715345989207 0.073880486556004044 0.077424792530966652 0.039831514898792802 0.0058067792331114943 0.066284460944959919 0.03911999843800635 0.029470796661335015 0.02248196784432405 0.042893949735068992 0.048979320763783585 0.021324512733251207 0.056751987048731481 0.041971506865460688 0.01299929089684607
leaf_weight=9074.8962262272835 4542.9762229919434 15580.994270116091 18750.889977544546 6098.9252741783857 1127.5730484426022 492.42256112396717 60939.790647804737 34343.966098532081 8756.532872185111 11124.114170581102 1173.0623867064714 6768.7726469188929 4464.4308399409056 15461.90321457386 26816.146469682455 51560.35286013782 9373.039144128561 6527.5140026807785 1357.2501370757818 1018.6998067051172 3516.6228466629982 79001.849698752165 1712.0584416538477 39230.454273208976 4876.2939274311066 2483.1198173165321 5139.438466489315 659.31778739392757 2546.5740861594677 39156.822547212243
leaf_count=42459 14895 46204 72983 17587 3839 1334 177676 103040 27684 47071 2627 22528 14772 44214 98779 162754 24977 16631 4135 3541 9401 245133 5620 131780 14957 7408 17128 1818 7687 137458
internal_value=0.0315986 0.0387322 -0.00729509 0.0286931 0.00488209 -0.0383228 0.0464536 0.0506958 0.0257792 -0.0408931 0.0543413 0.0182089 0.0413423 0.0549278 -0.000811967 0.0297813 0.0629811 0.0620413 0.0709536 0.0412551 0.0416138 0.040687 0.00478566 0.0247498 0.0320739 0.0380252 0.0340397 0.086492 0.0560729 0.0145142
internal_weight=473677 400263 73413.6 174015 52722.2 20691.4 226248 124583 160032 20199 5443.07 55344.9 38808.4 85774.7 47279.1 104687 24834.9 13983.7 7884.76 101665 100646 94582.8 28528.2 47987 11645.1 3610.69 56699.8 1832.38 6063.2 43699.8
internal_count=1528120 1244182 283938 567537 193074 90864 676645 364679 529184 89530 15692 189838 117812 246867 177382 339346 69191 38353 20766 311966 308425 291337 104399 159464 37485 11247 179882 4445 17088 152353
is_linear=0
shrinkage=0.05


Tree=5
num_leaves=31
num_cat=0
split_feature=7 7 7 2 2 8 7 2 5 7 2 1 2 3 8 8 7 7 8 10 3 10 2 8 2 1 5 10 1 10
split_gain=46648.3 11860.8 9090.94 6536.21 4652.64 3178.23 2044.9 2041.19 1689.49 1127.33 1126.02 881.872 815.524 804.901 1264.59 757.94 691.524 665.598 643.848 570.865 869.296 551.997 740.687 513.518 510.236 492.576 475.179 466.371 454.233 444.993
threshold=0.025729642636285178 0.04002726927460773 0.018796985500323018 0.03396348902593465 0.024577069637429946 0.028023595648261703 0.050741038341574854 0.02750279061423266 85.962388196260704 0.015550731186608347 0.05418700214165964 2.3984306745944584 0.044901149329997288 0.023346180651039081 0.11450142716711134 0.019064121479355014 0.063176406192213805 0.021649393919313354 0.079722152926247736 0.020833333333333339 -0.033491205198121751 0.079166666666666677 0.0029894186933284881 0.031974417483652769 0.066478659253438141 3.9423242458652576 65.062201184775759 0.029166666666666671 1.4001766850741761 0.75416666666666676
decision_type=2 2 2 2 2 2 2 2 2 2 2 2 2 2 2 2 2 2 2 2 2 2 2 2 2 2 2 2 2 2
left_child=2 3 7 5 17 15 23 9 13 21 -5 -10 29 14 -8 -2 -15 -4 26 -7 -21 22 -1 24 -3 -25 -12 -17 -19 -6
right_child=1 6 4 10 12 19 8 -9 11 -11 18 -13 -14 16 -16 27 -18 28 -20 20 -22 -23 -24 25 -26 -27 -28 -29 -30 -31
leaf_value=-0.03740766208749232 0.0067496149243488806 0.03194376195337633 -0.01140396706192739 0.042401610331130046 0.050728346985648765 0.042955169923627259 0.046252230419846295 0.06276193858590734 0.040639783548679358 -0.027318182038176278 0.093361935103165691 0.013980617122518441 0.086692031925660079 0.050954413000478732 0.079899017801619773 0.032851623791269956 0.066353028492265917 0.00026252618364125331 0.049273508634209207 0.018460084360070812 0.031119809295579233 -0.055827190564718181 0.063731565612530586 0.040807207195555736 0.082899255473272426 0.0063454279327988458 0.063782145058634374 0.016563732626135939 0.022464973926387605 0.0097953743182874961
leaf_weight=1200.4759099334478 20590.816807463765 32615.791471868753 13044.847438782454 10151.196815639734 2250.5524907261133 7017.5622440427542 66692.385044798255 500.00660645961761 35350.420555055141 9687.944721698761 2512.8718869835138 3400.4751457422972 1221.4424495995045 17221.418175324798 2914.6097568422556 4858.6091047823429 12643.969907492399 25718.379522264004 3248.4085984379053 17940.079403430223 55539.310756444931 8760.9374641180038 213.16787745058537 68125.510550886393 498.79335844516754 1052.928919672966 2953.4890105575323 46040.488576576114 2530.2965127080679 941.82923516631126
leaf_count=5483 74432 103323 51412 29984 6514 21184 194233 1334 105262 41260 5682 11404 2813 49065 7063 15569 33565 96013 9123 59192 176014 42082 705 203945 1160 3631 7735 157261 8500 3177
internal_value=0.0297717 0.0360352 -0.00922632 0.0259619 0.00315296 0.0225163 0.0431909 -0.0370138 0.047157 -0.0395255 0.0537197 0.0383004 0.0519463 0.0506072 0.0476611 0.014844 0.0574737 -0.00206251 0.0669033 0.0293302 0.0280289 -0.051149 -0.0221566 0.0378316 0.0327113 0.0402827 0.0773799 0.0181185 0.00225125 0.0386521
internal_weight=477439 411369 66069.9 170853 45707.3 151987 240516 20362.5 138223 19862.5 18866 38750.9 4413.82 99472.4 69607 71489.9 29865.4 41293.5 8714.77 80497 73479.4 10174.6 1413.64 102293 33114.6 69178.4 5466.36 50899.1 28248.7 3192.38
internal_count=1528120 1268827 259293 556176 168429 503652 712651 90864 400592 89530 52524 116666 12504 283926 201296 247262 82630 155925 22540 256390 235206 48270 6188 312059 104483 207576 13417 172830 104513 9691
is_linear=0
shrinkage=0.05


Tree=6
num_leaves=31
num_cat=0
split_feature=7 7 7 2 2 7 2 1 1 7 1 7 7 5 1 10 6 2 1 0 5 10 2 10 2 2 1 1 10 6
split_gain=41551.1 10015.4 9119.51 5272.03 4806.11 2074.13 1860.35 1493.08 1215.13 1087.25 939.145 853.607 787.059 1261.61 742.433 722.822 678.141 529.11 776.075 521.153 519.604 503.532 663.352 406.441 353.039 351.191 334.915 302.437 300.393 295.58
threshold=0.026984331071386369 0.018796985500323018 0.045019564997703744 0.030836997612995951 0.039878697085929331 0.03383457958436549 0.02750279061423266 2.6000817397267864 1.3874925951313082 0.014929479813997561 1.2057389036258337 0.023296949656601135 0.056170879110623677 82.420614252111207 0.68010849666972961 0.029166666666666671 52.515384558614919 0.062755478338035561 3.2552615573613717 1.3312879868486642 48.930306804554412 0.079166666666666677 0.0048698410501249985 0.037500000000000006 0.018535018469537937 0.066478659253438141 0.6131468236537817 1.5627741298049227 0.045833333333333344 81.631226763967021
decision_type=2 2 2 2 2 2 2 2 2 2 2 2 2 2 2 2 2 2 2 2 2 2 2 2 2 2 2 2 2 2
left_child=1 6 4 8 5 10 9 12 11 21 15 28 25 16 -7 -2 -14 -6 -19 -16 -5 22 -1 -13 -12 26 -4 -15 -3 -20
right_child=2 3 7 20 17 14 -8 -9 -10 -11 24 23 13 27 19 -17 -18 18 29 -21 -22 -23 -24 -25 -26 -27 -28 -29 -30 -31
leaf_value=-0.035266526046106743 0.031932399090523957 0.0068923542993403674 0.033313730177866485 0.081588570335187183 0.042826872960763963 0.023080029298778365 0.058872077878485689 0.017598811508756078 0.022528907922804493 -0.027678376053804604 0.023412838369043617 0.021273222821181572 0.047028253924948249 0.040788116215333403 0.033687967842246758 0.014079781424609208 0.058083892021703443 0.069167718006828041 0.048568270786027545 0.023196029787008157 0.045026048183238965 -0.056258936288916518 0.07803912338834508 0.0022016609858078961 0.039068027549743541 0.055717465795804333 0.040893960413217301 0.028557027747915648 -0.011198318166366045 0.015273528504820139
leaf_weight=1052.5400751680136 6316.2782481610775 2617.7432725280523 19093.187206998467 1725.9535081982613 10674.90542627871 34482.202399894595 506.2218906879425 5819.0567750483751 5929.4277667403221 10864.572237148881 8661.6104126125574 3163.5212525129318 45161.664290770888 28613.604472413659 66992.88003051281 55395.436040371656 20018.924191728234 6390.0325130671263 2443.6436249166727 14375.398204147816 2223.6326130926609 7463.3313589245081 147.24702259898186 23890.983681187034 6163.9424575567245 3309.5297691971064 61532.904753625393 6138.3532163053751 18592.891650512815 916.64974915981293
leaf_count=4893 20018 9798 58180 4095 30447 112112 1334 18913 19654 47071 28038 10767 127765 83474 206080 189093 53551 15884 6773 46025 6259 37129 437 87475 18507 8853 180512 18794 73227 2962
internal_value=0.0280839 -0.00527212 0.0345627 0.00523276 0.0274572 0.0250089 -0.0357603 0.0425344 0.00116829 -0.0382135 0.0186217 -0.00145589 0.0433236 0.0463216 0.0292287 0.015907 0.0504238 0.0505179 0.0589383 0.0318343 0.0610037 -0.0514258 -0.0213608 0.00443173 0.0299217 0.0397541 0.0390989 0.0386277 -0.00896563 0.0394858
internal_weight=480678 78178.1 402500 58144.2 212813 192388 20033.9 189687 54194.6 19527.7 76537.3 48265.1 183868 99932.5 115850 61711.7 65180.6 20425.2 9750.33 81368.3 3949.59 8663.12 1199.79 27054.5 14825.6 83935.6 80626.1 34752 21210.6 3360.29
internal_count=1528120 302139 1225981 211275 675939 619873 90864 550042 200921 89530 255656 181267 531129 283584 364217 209111 181316 56066 25619 252105 10354 42459 5330 98242 46545 247545 238692 102268 83025 9735
is_linear=0
shrinkage=0.05


Tree=7
num_leaves=31
num_cat=0
split_feature=7 7 7 8 1 1 7 1 7 5 3 1 7 7 3 0 4 8 8 3 9 8 1 8 3 8 1 3 0 4
split_gain=37004.2 8745.61 8373.76 4713.34 3778.39 1337.55 1310.37 1216.34 1161.28 1078.7 780.234 722.633 712.434 665.38 612.285 496.254 507.177 444.903 441.335 409.57 537.415 379.259 340.625 335.072 325.685 317.466 300.214 361.795 287.762 280.931
threshold=0.026291034050164367 0.041417108982718394 0.018796985500323018 0.029126210006007205 1.5432518070410135 3.043590918890978 0.051011952746993321 1.3874925951313082 0.014929479813997561 81.23689724417379 0.018450263206407511 1.6736952129658409 0.021649393919313354 0.030565724274310292 0.066560082528850845 1.1857671368790828 -0.10327007502558282 1.0000000180025095e-35 0.022146504797735059 0.069506157126372287 2.3907457615144758 0.040322569805760843 1.7259959831694662 0.016403622180753464 -0.0011932490782058285 0.021526414536171139 1.6045880172397664 0.0265774497498962 1.6444281700454895 -0.040221324259948808
decision_type=2 2 2 2 2 2 2 2 2 2 2 2 2 2 2 2 2 2 2 2 2 2 2 2 2 2 2 2 2 2
left_child=2 3 8 13 12 6 21 15 26 10 -8 -10 -4 23 -6 16 -5 -15 -14 -9 -21 -3 -11 -2 -17 -19 29 -28 -23 -1
right_child=1 5 4 7 14 -7 9 19 11 22 -12 -13 18 17 -16 24 -18 25 -20 20 -22 28 -24 -25 -26 -27 27 -29 -30 -31
leaf_value=-0.02905951122726342 -0.0032965761629603317 0.031456219668010897 -0.011234067547981244 0.039792481688744365 0.032403654839736035 0.011651441463346318 0.042532039736795008 0.034782012085682233 -0.027084537442489211 0.037910004701874694 0.052703189768326802 0.027310550297603577 -0.0026338206440387432 0.075484669425706072 0.07016608421075439 0.014224321870839433 0.027594411605941362 0.013024182613329452 0.0090132156714188821 0.051515489872365518 0.025049835969058149 0.039322760590118896 0.025942607878942977 0.0113658295983293 0.029100770942736699 0.021086431229881224 -0.044924436063766636 0.063682228448089725 0.024503341649222826 -0.054270146887578821
leaf_weight=1314.8005509525537 4653.96883431077 46728.606965795159 12544.30590339005 10492.947314679623 4494.5548885911703 4460.9669755250216 64929.448416501284 18201.138123914599 10500.104240491986 38189.43847066164 26570.85947573185 648.27055621147156 17490.298137396574 339.78403542935848 1410.2343989759684 9782.1556893438101 45355.961460113525 19451.357754036784 15203.641276583076 10174.387431502342 2363.7997336387634 37673.429951757193 7042.3613158464432 23937.982275947928 5896.9156482666731 32799.59701050818 188.38080383837223 129.32307812571526 3587.7097503393888 6925.8632154613733
leaf_count=6102 17440 142255 49854 30874 13856 14699 183714 54403 46001 110700 71331 2166 66377 788 3407 32049 141285 66782 53671 27247 7248 109055 21608 82656 18256 106645 911 371 11056 35313
internal_value=0.0265178 0.0322496 -0.00686458 0.0241135 0.00380569 0.0387622 0.0393004 0.0312542 -0.0345561 0.0423632 0.0454856 -0.0239215 -0.00110429 0.0151183 0.0414224 0.0276795 0.0298862 0.018456 0.00278239 0.0395722 0.046526 0.0345408 0.0360467 0.0089792 0.0198194 0.0180851 -0.048409 -0.000715508 0.0380342 -0.0502478
internal_weight=483483 412633 70849.8 183450 51143 229183 224722 102267 19706.7 136732 91500.3 11148.4 45238.2 81182.7 5904.79 71528 55848.9 52590.7 32693.9 30739.3 12538.2 87989.7 45231.8 28592 15679.1 52251 8558.37 317.704 41261.1 8240.66
internal_count=1528120 1250091 278029 585673 187165 664418 649719 311362 90864 387353 255045 48167 169902 274311 17263 222464 172159 174215 120048 88898 34495 262366 132308 100096 50305 173427 42697 1282 120111 41415
is_linear=0
shrinkage=0.05


Tree=8
num_leaves=31
num_cat=0
split_feature=7 7 7 2 2 8 7 2 5 2 7 8 7 7 3 2 8 9 8 9 10 3 10 2 2 7 9 5 10 5
split_gain=33074.1 9457.32 5886.6 5547.19 3090.9 2392.69 1663.35 1506.78 1191.33 991.068 698.51 613.748 605.404 602.371 572.713 527.407 512.318 504.383 495.312 494.488 482.871 560.487 477.145 608.558 443.749 424.781 380.681 379.38 376.601 344.339
threshold=0.024573703293261157 0.038883561691693887 0.018024030578422702 0.033123026272269519 0.024577069637429946 0.024943305001518114 0.049706849136121299 0.030120468319066094 93.383542667662908 0.056759626714430821 0.014929479813997561 0.079722152926247736 0.06130999631424331 0.031160960884813804 0.032258060349188163 0.040956788708198112 0.031463746467115562 2.2689598421175718 0.016192906144373877 2.3907457615144758 0.054166666666666675 -0.024162641694839778 0.079166666666666677 0.0029894186933284881 0.066478659253438141 0.02137972939135362 1.9854936167244779 74.160528654874852 0.029166666666666671 27.171428886556576
decision_type=2 2 2 2 2 2 2 2 2 2 2 2 2 2 2 2 2 2 2 2 2 2 2 2 2 2 2 2 2 2
left_child=2 3 7 5 20 18 16 10 12 29 22 27 -8 -7 -14 -6 24 -13 -2 -18 -4 -22 23 -1 -3 -23 -10 -11 -20 -5
right_child=1 6 4 9 15 13 8 -9 26 11 -12 17 14 -15 -16 -17 19 -19 28 -21 21 25 -24 -25 -26 -27 -28 -29 -30 -31
leaf_value=-0.035071259822551902 -0.00049303841060008324 0.025431338315835817 0.0093723044107268134 0.05783345520070976 0.030928366275710842 0.016902926437579825 0.037771161184661096 0.071124422950294849 0.034322177721772575 0.082817864596077789 -0.027968106797160743 0.053733610734035958 0.041279838139050534 0.025230073671328623 0.051684055980900229 0.072748880209986808 0.034428534696852447 0.0049245294595348481 0.025456632767569883 0.017355138490552615 -0.023581594322761801 -0.012271314835495373 -0.053539459218672258 0.062264936612820745 0.071952479258411584 0.00087218710744740152 0.02151206491008863 0.054356566875504178 0.010059659720173952 0.033055626926997969
leaf_weight=975.62074452638626 10540.962580367923 35130.861031025648 4903.3814059346914 1642.5865771621466 2300.0725901126862 33779.829017072916 66603.653070166707 319.84509268403053 13537.663602620363 2795.3690170347691 8042.4447432607412 2115.947418615222 40277.07193043828 60819.115636631846 19694.56735548377 1121.4695767462254 70129.185625419021 705.86611486971378 4384.6164805293083 4513.842518016696 4613.9405367523432 10573.524286478758 7097.3278358578682 192.21872214972973 520.18839894235134 14684.803028047085 10146.233021184802 2014.7510199397802 42147.392107412219 9579.8593211919069
leaf_count=4722 39038 109632 18025 4331 6936 110954 189767 772 39195 6126 35871 5414 112223 189128 52245 2578 205046 2280 14124 14242 18732 42871 37171 608 1187 54855 31253 5134 145822 27838
internal_value=0.0250605 0.0297126 -0.0115183 0.0205582 -0.000708641 0.0173787 0.0357039 -0.0363506 0.0391266 0.0461357 -0.0384585 0.0600366 0.0410524 0.0222566 0.0446966 0.0446358 0.031041 0.0415242 0.00929352 0.0333961 -0.00517003 -0.00755708 -0.0486663 -0.0190504 0.0261101 -0.00462988 0.0288343 0.0708967 0.0115105 0.0366823
internal_weight=485904 431080 54824.6 170526 38197.2 151672 260553 16627.5 150259 18854.4 16307.6 7631.93 126575 94598.9 59971.6 3421.54 110294 2821.81 57073 74643 34775.6 29872.3 8265.17 1167.84 35651 25258.3 23683.9 4810.12 46532 11222.4
internal_count=1528120 1304979 223141 550189 143997 499066 754790 79144 424683 51123 78372 18954 354235 300082 164468 9514 330107 7694 198984 219288 134483 116458 42501 5330 110819 97726 70448 11260 159946 32169
is_linear=0
shrinkage=0.05


Tree=9
num_leaves=31
num_cat=0
split_feature=7 7 7 8 8 7 3 9 3 3 10 7 5 3 7 10 10 8 9 5 8 13 3 10 11 6 5 3 3 10
split_gain=29589.4 8603.27 5261.41 4114.55 1593.22 1520.73 1369.44 1101.86 773.47 650.916 863.257 647.771 558.099 979.586 530.79 499.595 491.296 489.441 440.169 377.581 370.899 361.422 338.839 340.473 335.528 316.57 299.557 297.542 293.125 455.809
threshold=0.024374917630151417 0.038727518778562363 0.016671573732586317 0.028646903788573996 0.026927782105308676 0.049206888261793147 0.092619388023952906 2.3278208988234801 0.079619384413747787 -0.018456419986332687 0.045833333333333344 0.029975062008597838 81.23689724417379 0.023346180651039081 0.019516500012579142 0.37916666666666671 0.95416666666666672 0.031974417483652769 2.3907457615144758 25.166761983443763 0.019900496105875468 0.061336256086884054 -0.0078698192161014407 0.75416666666666676 0.26024057161574643 59.925507040573102 69.053074042970138 0.15866390425508939 -0.02715846366181773 0.029166666666666671
decision_type=2 2 2 2 2 2 2 2 2 2 2 2 2 2 2 2 2 2 2 2 2 2 2 2 2 2 2 2 2 2
left_child=2 3 15 11 14 17 9 12 22 10 -5 20 13 -7 -4 25 21 27 -19 -11 -2 -8 -6 -24 -18 -1 -20 -3 29 -13
right_child=1 5 4 6 8 7 16 -9 -10 19 -12 28 -14 -15 -16 -17 24 18 26 -21 -22 -23 23 -25 -26 -27 -28 -29 -30 -31
leaf_value=-0.030540894405366111 0.00010386219209764271 0.023944981893303421 -0.018837922697803232 0.030778791009429585 -0.0020307602529723101 0.037416060520922244 0.065689547666113263 0.024822728705191345 0.071410840543940174 0.039034975410461636 0.012888859057159627 0.024270049058187415 0.033234034484855665 0.048866718526087149 -0.0043129475104178019 -0.049203268899154218 0.078087276087006052 0.032516238364008 -0.00090989234881846633 0.026430866188917226 0.010393949880685587 0.038044938263425393 0.026609785345202572 -0.00070955637811072141 0.025150579047918589 0.056959522018532799 0.026264140033175544 0.064795202279368774 0.017943610493895933 0.0043692509730763477
leaf_weight=5158.4473048597574 14950.753768622875 36550.75286385417 8699.5382667332888 10133.561633050442 2978.2943323105574 74383.223838672042 3245.6851184219122 17030.584494426847 576.80836524069309 6868.2922243624926 20154.497378617525 3858.4544449448586 39019.415898576379 24940.070025622845 22706.212833061814 6956.9548752456903 334.09226195514202 67376.955553755164 1623.8791121989489 44054.076950103045 21138.32563868165 1859.7891288101673 4010.0070643275976 1593.7274925112724 2877.0833392888308 105.48245427012444 2701.1183303147554 451.26103959977627 30296.645275607705 11314.888856768608
leaf_count=24918 55003 113411 37470 30439 11022 208358 7789 50820 1315 19849 65332 12154 111895 65676 87641 35950 746 195712 5404 134268 72634 5148 12888 5641 8364 323 8213 1058 99645 39034
internal_value=0.0237028 0.0279911 -0.0116497 0.0192567 -0.00298524 0.0336498 0.0266575 0.0368235 0.015364 0.0246786 0.0188743 0.0111328 0.0383008 0.0402913 -0.00833643 -0.0404095 0.0459815 0.0291135 0.0315237 0.0281309 0.00613104 0.0556193 0.0115971 0.01884 0.0306581 -0.0287875 0.0160613 0.0244432 0.0151026 0.00942986
internal_weight=487949 435163 52785.5 171086 40564.6 264077 89527.1 155373 9158.84 81210.4 30288.1 81559.1 138343 99323.3 31405.8 12220.9 8316.65 108704 71702 50922.4 36089.1 5105.47 8582.03 5603.73 3211.18 5263.93 4325 37002 45470 15173.3
internal_count=1528120 1310952 217168 550405 155977 760547 271935 436749 30866 249888 95771 278470 385929 274034 125111 61191 22047 323798 209329 154117 127637 12937 29551 18529 9110 25241 13617 114469 150833 51188
is_linear=0
shrinkage=0.05


Tree=10
num_leaves=31
num_cat=0
split_feature=7 7 7 8 1 7 1 1 1 5 8 7 7 8 10 3 8 4 3 10 10 3 0 8 10 10 3 3 3 10
split_gain=26516.2 6638.9 6064.88 3355.38 2828.1 1226.33 1091.52 1041.48 898.41 669.385 921.81 637.353 610.808 585.672 497.452 466.248 456.451 406.604 476.047 431.255 392.542 757.524 374.128 322.907 310.836 288.764 540.897 281.257 275.55 415.625
threshold=0.025729642636285178 0.039687891118015024 0.018024030578422702 0.030119452415753926 1.5070744562102105 0.052397273030317937 2.1194596657819478 1.6045880172397664 1.6736952129658409 76.125223651695151 0.10983787478175616 0.021649393919313354 0.015550731186608347 0.020072325282639292 0.079166666666666677 0.066560082528850845 1.0000000180025095e-35 -0.13562484018294949 -0.038260296894680967 0.37916666666666671 0.029166666666666671 -0.028998824997713352 1.5740403976314721 0.082801006277155267 0.020833333333333339 0.054166666666666675 -0.024162641694839778 0.012445292376466381 0.071038687398511199 0.95416666666666672
decision_type=2 2 2 2 2 2 2 2 2 2 2 2 2 2 2 2 2 2 2 2 2 2 2 2 2 2 2 2 2 2
left_child=2 3 8 13 11 17 9 22 12 10 -7 -4 14 16 -1 -6 -2 23 -19 -20 -15 -22 24 -3 -5 -13 -27 -10 -9 -30
right_child=1 5 4 7 15 6 -8 28 27 -11 -12 25 -14 20 -16 -17 -18 18 19 -21 21 -23 -24 -25 -26 26 -28 -29 29 -31
leaf_value=-0.016510915717655332 0.066746819829303194 0.035021130809438659 -0.0115107256246178 0.036144478051437244 0.026362160762211304 0.038224824758883794 0.016280420114052053 0.030849298395405397 -0.025375776456517531 0.031841055209270323 0.064578067104942363 0.013902338715425306 -0.024910342370445201 0.02759639440315469 -0.050026819742669364 0.060451932752938455 0.0053920816171472534 0.021493807718715844 0.0232635862496283 0.031420143916548939 0.0031321430484101708 0.017094752881150765 0.0056674851669610438 0.069769426686021985 0.023059562536507511 -0.016977888625118041 0.0027643764068038834 0.04095935492012788 0.050386119710362345 0.028353762928782597
leaf_weight=1295.8765654414892 306.72993288934231 12082.342677950859 14787.663903146982 4924.5032250583172 4669.9224821329117 73618.791562691331 7020.4721654653549 10913.217177599669 234.3045410066843 46977.72900429368 3474.9100789576769 3927.8234822899103 6422.2033500224352 5674.600010022521 7600.1246658116579 1277.3757960647345 25875.849275171757 25216.827125802636 21827.29490840435 62918.576267421246 12754.99949580431 40745.824314847589 2883.9862186312675 707.73739679157734 57929.211548149586 4215.5969899743795 19601.68459944427 502.4680293649435 6017.4959498643875 3322.3270625919104
leaf_count=6035 719 34276 60281 14175 14495 201432 21672 31824 1084 133359 8216 13779 29193 17425 41258 3062 91443 76425 65740 182433 43684 132691 9478 1709 177329 16579 71953 1574 15380 9417
internal_value=0.0224318 0.0269645 -0.00743189 0.01936 0.00138888 0.0320976 0.0354605 0.026331 -0.0340673 0.0365458 0.0394127 -0.00312691 -0.0366613 0.0123373 -0.0451446 0.033684 0.00611085 0.0285062 0.0275248 0.0293193 0.0150922 0.013766 0.0232768 0.0369439 0.0240847 0.00134151 -0.000729953 0.0198638 0.0362446 0.0425489
internal_weight=489728 425193 64535 171349 48480.1 253845 131092 85990.7 16055 124071 77093.7 42532.8 15318.2 85358 8896 5947.3 26182.6 122753 109963 84745.9 59175.4 53500.8 65737.7 12790.1 62853.7 27745.1 23817.3 736.773 20253 9339.82
internal_count=1528120 1268827 259293 543565 180149 725262 364679 257603 79144 343007 209648 162592 76486 285962 47293 17557 92162 360583 324598 248173 193800 176375 200982 35985 191504 102311 88532 2658 56621 24797
is_linear=0
shrinkage=0.05


Tree=11
num_leaves=31
num_cat=0
split_feature=7 7 7 1 1 7 1 7 7 10 1 4 6 13 4 10 11 10 0 1 4 4 0 10 6 1 10 1 6 10
split_gain=23836.3 6913.24 4941.04 3366.2 1966.54 1411.92 1066.51 987.869 647.733 612.388 555.381 531.197 483.8 438.234 683.847 571.521 476.355 397.505 372.476 372.324 343.539 538.947 354.05 340.853 337.695 333.252 420.462 276.976 274.427 492.446
threshold=0.02749723736031481 0.018796985500323018 0.046275384568726242 1.4903024123142661 1.1401670581357355 0.036373207350342975 2.2406488386075658 0.014929479813997561 0.022850833187664035 0.029166666666666671 1.6736952129658409 0.050894123029890687 71.009083307054695 -0.005732929342864612 0.048189490085319288 0.44583333333333336 0.6571905251606075 0.079166666666666677 1.6444281700454895 1.5070744562102105 -0.10488332009278657 0.053656359766164251 1.0116494590465839 0.69583333333333341 53.712471602928929 1.0715914797770909 0.054166666666666675 3.2552615573613717 56.40147083145154 0.77083333333333348
decision_type=2 2 2 2 2 2 2 2 2 2 2 2 2 2 2 2 2 2 2 2 2 2 2 2 2 2 2 2 2 2
left_child=1 7 4 8 5 9 13 17 -3 -2 -9 -11 23 14 15 -4 -16 -1 28 -19 22 -22 -7 24 -5 26 -10 -8 -6 -30
right_child=2 3 6 12 18 20 27 10 25 11 -12 -13 -14 -15 16 -17 -18 19 -20 -21 21 -23 -24 -25 -26 -27 -28 -29 29 -31
leaf_value=-0.016331440850135773 0.026560988314601242 -0.0073944835293065269 0.03594607432294588 0.021763353076806422 0.026252767819346802 0.034647222083222032 0.020778668373915309 -0.023249796690679919 0.015466069653891799 0.0099426822738596862 0.024344371010049187 0.020749953523364204 0.063992594813028048 0.030640256640426702 0.045925668648475318 0.025357574829881852 0.031343342869034688 -0.051197489353122974 0.017327763489508399 0.0015947083801799685 0.018184128656680305 0.028060692406843963 0.018764553742784275 0.010853954894139275 0.047063133894183103 0.012896107890440656 -0.0012337447911826564 0.00094429406958506051 0.040780888789510167 0.02784016254372923
leaf_weight=1130.1062982082367 8117.3137553185225 19137.109175980091 39847.67881642282 2396.7654743641615 28201.922065362334 10807.772268891335 6441.4673258662224 10053.361348554492 4476.7100728601217 57691.563929468393 652.74542792141438 14160.995173498988 1163.954865410924 87572.590312048793 20825.521905943751 18735.982696890831 7660.3915934115648 6308.1645770519972 6657.3856859356165 352.65212474763393 43785.978608027101 20177.754440531135 5195.5494625717402 1865.6473018825054 2933.0171816498041 8119.0178555846214 23847.302650257945 2421.9172398746014 12380.229013457894 18099.239000096917
leaf_count=5330 24705 75768 109792 7533 83760 30913 19298 46001 15187 192101 2166 44493 2709 247016 54639 53922 21157 35843 20444 1524 136328 59242 15776 5917 7970 27360 87428 8037 33719 52042
internal_value=0.0212422 -0.00328448 0.0261883 0.00450337 0.0212269 0.018241 0.032279 -0.0302051 5.41617e-05 0.0135433 -0.020348 0.0120726 0.0340854 0.0331377 0.0356496 0.0325597 0.0420042 -0.0437504 0.0285359 -0.0484024 0.022939 0.0212998 0.0294908 0.0292475 0.035686 0.00396562 0.00140572 0.0153589 0.0298074 0.0330965
internal_weight=491218 82436.6 408781 63939.5 225276 159937 183506 18497 55580.1 79969.9 10706.1 71852.6 8359.38 174642 87069.6 58583.7 28485.9 7790.92 65338.8 6660.82 79967.1 63963.7 16003.3 7195.43 5329.78 36443 28324 8863.38 58681.4 30479.5
internal_count=1528120 320736 1207384 229872 693523 503558 513861 90864 205743 261299 48167 236594 24129 486526 239510 163714 75796 42697 189965 37367 242259 195570 46689 21420 15503 129975 102615 27335 169521 85761
is_linear=0
shrinkage=0.05


Tree=12
num_leaves=31
num_cat=0
split_feature=8 11 8 4 8 11 4 9 11 2 2 2 2 8 8 0 0 8 10 4 2 2 5 2 4 5 4 5 0 9
split_gain=20129.7 5205.1 2907.23 1922.07 1585.39 1337.76 1048.87 957.756 830.031 838.563 798.707 959.165 762.207 700.232 641.997 785.639 638.036 597.503 559.305 528.645 436.862 420.275 408.088 376.976 358.129 356.559 336.383 331.012 322.235 338.362
threshold=0.02339180829204832 0.31066706543552275 0.03474484156753941 0.067568450638755814 0.011705887295633512 0.44222181701193469 0.053656359766164251 2.8178665760520425 0.44222181701193469 0.022044081688681414 -0.058779053460036958 0.048157505481586864 0.048157505481586864 0.013743745340997144 0.067907205073542684 1.1857671368790828 0.82382207177097377 0.079722152926247736 0.062500000000000014 -0.097117990058975215 -0.0616306660405593 0.017346277135892013 38.318287819326443 0.021543350847406523 -0.11578062001624224 63.472883246315178 0.049619165796123028 56.379115192309165 1.4306668688856481 1.0892325130770635
decision_type=2 2 2 2 2 2 2 2 2 2 2 2 2 2 2 2 2 2 2 2 2 2 2 2 2 2 2 2 2 2
left_child=1 4 6 5 -1 13 8 10 9 -2 14 16 22 -3 15 -4 -12 -13 -16 -10 -7 26 -5 -21 -22 28 -6 -11 29 -8
right_child=2 3 7 12 21 20 25 -9 19 27 11 17 -14 -15 18 -17 -18 -19 -20 23 24 -23 -24 -25 -26 -27 -28 -29 -30 -31
leaf_value=-0.040574071016259823 0.0065337178783506956 -0.020256883490642502 0.040565403918950201 0.036919587262385353 -0.017360827200428194 -0.055149231494537466 0.026506131351420582 0.01515895070029101 0.026256401722230149 0.051524756083496472 0.030678082709617294 0.043198582871381293 0.067478147517241016 -0.00053968898956220591 0.063578600573053479 0.0051503140632737018 0.024781632707632045 0.029409803227412601 0.039139026346630995 0.015251227844298136 0.020517235036090448 0.014313173260942664 0.015460635832764694 0.027697972622045038 0.0079457138198435542 0.02211838396654826 0.00032326748536272323 0.01729851987012641 -0.00053602597384134348 0.041055694472644955
leaf_weight=6375.9132431000471 24377.377951264381 5617.4196801930666 4371.3372672349215 3201.2871250361204 13487.163421690464 259.8429169356823 7949.5373649597168 12448.824781179428 21903.137401297688 1487.8503872007132 78484.608897924423 16554.563691020012 1014.2450859248638 22695.514584034681 3594.2007718682289 2440.1293561458588 110428.60264410079 14952.812631398439 6714.0401386469603 44019.981744870543 6692.1907450556755 1439.4052304178476 7194.9908919334412 7058.8356499671936 36909.759444728494 17357.132741242647 3358.7972650676966 1345.0474293231964 712.96176342666149 8034.7765789479017
leaf_count=34187 83932 24816 11698 9331 58874 986 23356 37782 64367 4020 220453 42702 2280 84546 8600 7539 321403 41698 17961 138971 20823 5117 22669 20540 126425 51763 12661 4145 2319 22156
internal_value=0.0201253 0.00108014 0.0254907 0.00703567 -0.0191051 0.00402093 0.0195557 0.0286778 0.0169791 0.00952594 0.0293863 0.0285783 0.0261047 -0.00445167 0.0397897 0.0278784 0.0272313 0.0366547 0.0476604 0.0197579 0.00949002 -0.0116191 0.0220684 0.0169713 0.00987524 0.0271364 -0.0138349 0.0352743 0.0323527 0.0338197
internal_weight=492482 108247 384236 83585.3 24661.3 72174.7 134247 249989 100192 27210.3 237540 220421 11410.5 28312.9 17119.7 6811.47 188913 31507.4 10308.2 72982 43861.8 18285.4 10396.3 51078.8 43602 34054.4 16846 2832.9 16697.3 15984.3
internal_count=1528120 402715 1125405 291876 110839 257596 415569 709836 315975 92097 672054 626256 34280 109362 45798 19237 541856 84400 26561 223878 148234 76652 32000 159511 147248 99594 71535 8165 47831 45512
is_linear=0
shrinkage=0.05


Tree=13
num_leaves=31
num_cat=0
split_feature=7 7 2 7 2 7 7 5 2 1 10 10 2 2 10 9 1 2 3 1 10 3 1 1 10 6 5 10 7 5
split_gain=19750 6047.14 4124.65 3741.99 2219.94 1207.59 1129.78 1012.65 985.429 821.1 500.433 495.771 604.452 470.678 451.68 446.353 505.641 477.974 432.896 416.346 400.168 396.258 537.198 388.017 378.585 410.635 400.54 373.997 373.427 371.225
threshold=0.023970260570364443 0.038727518778562363 0.042215734796968198 0.016671573732586317 0.022044081688681414 0.030716002663441658 0.053901439447661022 93.383542667662908 0.031552718650661081 1.328176044843733 0.029166666666666671 0.079166666666666677 0.0029894186933284881 0.038751253025669834 0.054166666666666675 2.3907457615144758 0.67691433673927148 0.048157505481586864 -0.026559888120747912 1.7259959831694662 0.73750000000000016 0.032258060349188163 1.3634314808609973 0.94443334933002787 0.82916666666666672 61.123511082982574 71.444932268185127 0.17083333333333336 0.020509131473398824 67.8619499385496
decision_type=2 2 2 2 2 2 2 2 2 2 2 2 2 2 2 2 2 2 2 2 2 2 2 2 2 2 2 2 2 2
left_child=3 2 5 8 14 9 15 21 11 10 -2 12 -1 20 -5 16 17 -3 -16 -9 -6 27 -23 -7 25 -4 -27 -8 -20 -17
right_child=1 6 24 4 13 23 7 19 -10 -11 -12 -13 -14 -15 18 29 -18 -19 28 -21 -22 22 -24 -25 -26 26 -28 -29 -30 -31
leaf_value=-0.026295000388538738 0.019448411694789752 0.019596369140150675 0.035425540105558088 0.0066007294822816561 0.034590109713385428 0.014143020469524804 0.036581443208074077 0.024666484833618423 0.082647901706434768 0.021090030510684941 0.0041511515242397866 -0.042677016749426429 0.055254328207501646 0.060361653480362404 -0.026278882310371766 -0.0031018869865525236 0.026750674186100432 0.068755877442534183 -0.015079578147956234 0.0082313095848121874 -0.0076478295842300446 0.041362014143923168 0.026932244532945949 0.020681008476029075 0.032198719492130962 0.073437330082809518 0.043669204127814124 0.0283022005869977 -0.002616878604110506 0.020402468405585301
leaf_weight=1439.8929549306631 5952.8885842859745 41378.281180009246 3034.3578917831182 4743.1895495802164 1805.0449867844582 58228.012739956379 18931.249348789454 16577.273947864771 171.24422147870064 10191.435676023364 52473.386638224125 9483.4572705924511 269.80493456125259 1106.6287229508162 3596.4590016901493 2586.8959683924913 97698.241495147347 500.43773245811462 10177.583835974336 5020.4116650670767 813.47765405476093 23232.803022056818 8928.7517205029726 37186.448875755072 5266.8722829520702 2361.9601401090622 2166.5257649570704 48806.886192634702 14680.798353761435 4791.2462850958109
leaf_count=7176 18933 123825 8069 17975 5318 185807 50539 47147 374 30907 181954 52709 932 2574 15241 8373 278907 1108 43924 15719 2839 60459 24909 111963 14106 5132 5510 135289 56130 14272
internal_value=0.0190734 0.0223669 0.0151884 -0.0112991 -0.00357717 0.013053 0.0270961 0.0306635 -0.0363879 0.0079941 0.00570975 -0.038209 -0.0134258 0.0330224 -0.00768401 0.0241468 0.0247804 0.0201838 -0.0100652 0.0208461 0.0214684 0.0327859 0.037356 0.0166911 0.0424909 0.0496586 0.0591956 0.0306161 -0.00771939 0.0121615
internal_weight=493602 445314 176862 48287.6 36923.2 164032 268452 121497 11364.4 68617.7 58426.3 11193.2 1709.7 3725.15 33198 146955 139577 41878.7 28454.8 21597.7 2618.52 99899.7 32161.6 95414.5 12829.7 7562.84 4528.49 67738.1 24858.4 7378.14
internal_count=1528120 1322928 562381 205192 144001 529564 760547 334062 61191 231794 200887 60817 8108 10731 133270 426485 403840 124933 115295 62866 8157 271196 85368 297770 32817 18711 10642 185828 100054 22645
is_linear=0
shrinkage=0.05


Tree=14
num_leaves=31
num_cat=0
split_feature=7 8 7 7 2 7 2 2 9 2 4 3 2 8 8 9 5 2 2 7 6 8 11 0 4 7 5 4 3 8
split_gain=17745.6 5459.36 3481.62 2090.86 2002.06 1477.54 1801.92 900.001 836.978 666.427 623.624 824.581 615.523 594.85 536.696 573.375 532.916 509.334 430.108 415.67 407.78 1155.41 436.215 358.798 345.178 307.007 280.313 257.903 255.875 223.858
threshold=0.023970260570364443 0.028180156323904998 0.016671573732586317 0.042499991815529159 0.022044081688681414 0.047333887791312999 0.048157505481586864 0.031552718650661081 2.3278208988234801 -0.073777355546777612 -0.11578062001624224 -0.043404400168745638 0.044901149329997288 0.019064121479355014 0.079722152926247736 2.3278208988234801 63.472883246315178 0.05418700214165964 0.03573822565312653 0.020509131473398824 33.032715620162655 0.096908284002852771 0.56326069963824565 1.1307681133871552 0.050894123029890687 0.011670832186859614 55.606627396660954 0.050894123029890687 0.18930279531098892 0.013743745340997144
decision_type=2 2 2 2 2 2 2 2 2 2 2 2 2 2 2 2 2 2 2 2 2 2 2 2 2 2 2 2 2 2
left_child=2 3 7 12 19 6 10 25 20 -5 23 -12 13 29 16 -16 -8 24 -6 -4 21 -7 -22 -3 -11 -1 -20 -15 -10 -2
right_child=1 5 4 9 18 8 14 -9 28 17 11 -13 -14 27 15 -17 -18 -19 26 -21 22 -23 -24 -25 -26 -27 -28 -29 -30 -31
leaf_value=-0.050713812247563231 -0.0077226403613286495 0.031964289374258222 -0.014265775334391721 -0.049005787200738338 0.018666142160132689 0.028970949350019037 0.056793378492301795 0.078178165648194325 0.021780651980665523 0.019201210876270587 0.0090714800342957744 0.020039013070725979 0.051194860190612146 0.0092998265779992897 0.033514860388346807 -0.00074955845459719972 0.034146668217285341 0.06230309104646458 0.073488939083327931 -0.0028006625857198708 0.032991120253411173 0.072095224069371341 0.026795305788291618 0.017792737239091382 0.030287667695535037 -0.031956531981145696 0.026953035586589354 0.017229394631272446 0.0085041650079195185 0.0041419418941469957
leaf_weight=3006.2428692281246 4839.00038446486 14482.650302112103 13057.470249772072 314.17143921554089 2401.8559113144875 5793.9578500688076 4432.9883077740669 171.96164095401764 12655.729032456875 19863.170334473252 20403.61775764823 107071.0795596391 842.4693249464035 53746.668063297868 5310.8846784383059 1585.4073618501425 6274.5154253095388 852.37033808231354 776.55654273927212 20036.550001859665 42390.808964595199 2122.1019171625376 86124.478295475245 6457.9819397330284 10859.44919654727 7951.28112603724 554.78046014904976 12671.666412860155 5088.1913239210844 22282.895339041948
leaf_count=18453 18299 40413 56530 1167 7541 15824 10395 374 36371 59014 63752 319384 2060 177813 14109 5048 16561 1945 1690 76740 114673 4622 238529 19135 30183 42364 1500 39802 15736 78093
internal_value=0.0180877 0.0211922 -0.0108149 0.0123878 -0.00340878 0.0246643 0.0213912 -0.0353215 0.0281888 0.0234567 0.0195972 0.0182835 0.00864793 0.00826473 0.0365162 0.0256377 0.0435226 0.0241777 0.0313015 -0.0073243 0.0295174 0.0405315 0.028839 0.0275939 0.0231199 -0.0371027 0.054097 0.0108127 0.0179735 0.0020251
internal_weight=494423 446466 47956.7 126272 36827.2 320194 166019 11129.5 154175 31889.2 148415 127475 94382.7 93540.2 17603.8 6896.29 10707.5 31575 3733.19 33094 136431 7916.06 128515 20940.6 30722.6 10957.5 1331.34 66418.3 17743.9 27121.9
internal_count=1528120 1322928 205192 408376 144001 914552 488797 61191 425755 92309 442684 383136 316067 314007 46113 19157 26956 91142 10731 133270 373648 20446 353202 59548 89197 60817 3190 217615 52107 96392
is_linear=0
shrinkage=0.05


Tree=15
num_leaves=31
num_cat=0
split_feature=7 7 2 7 2 8 2 1 7 8 5 10 3 5 8 0 3 10 2 1 2 2 10 10 8 5 8 10 5 8
split_gain=16094.4 5403.68 3398.74 3160.31 1946.35 1284.38 1086.28 896.176 788.777 603.055 564.63 493.406 575.824 477.034 781.765 858.218 493.531 440.843 536.008 400.5 676.149 338.26 425.06 316.279 306.432 255.233 243.322 261.695 240.312 238.881
threshold=0.028299912161140646 0.018796985500323018 0.029433594491454641 0.046914913599893214 0.039878697085929331 0.028023595648261703 0.02750279061423266 2.7205957183744363 0.014929479813997561 0.02168698603913952 48.149213587463606 0.037500000000000006 -0.031499239720886439 81.23689724417379 0.12027498280064274 0.81558914888315637 -0.11587539816895767 0.079166666666666677 0.005097203621096588 3.5616707783252441 0.066478659253438141 0.016589504035128939 0.045833333333333344 0.21250000000000005 0.016192906144373877 18.513565019118953 0.01126016862200827 0.045833333333333344 55.997709692088854 0.084558818021809881
decision_type=2 2 2 2 2 2 2 2 2 2 2 2 2 2 2 2 2 2 2 2 2 2 2 2 2 2 2 2 2 2
left_child=1 6 9 4 5 24 8 13 17 26 -4 25 -13 14 15 -5 -16 18 -1 20 -6 22 -11 -23 -2 -7 -3 -28 -8 -22
right_child=3 2 10 7 19 11 28 -9 -10 21 -12 12 -14 -15 16 -17 -18 -19 -20 -21 29 23 -24 -25 -26 -27 27 -29 -30 -31
leaf_value=-0.026110101720614301 0.0012983347890774826 -0.01980061431245321 0.058579306744279372 0.03219118114247823 0.026943780153076011 0.020338634276097584 0.065066276639913517 0.0044159866300416319 -0.019924719441812355 0.016907427154594337 0.027354285254141006 0.011857858632254966 0.019998741220344961 0.022991178332205101 0.070514511836560725 0.023681625239398662 0.031381202436513211 -0.047101742775687787 0.078068272754459184 0.015162474418772935 0.053456692490134607 0.039612314041603897 0.00052592799839927312 0.010617117363565997 0.011828239228874618 0.033687717974196542 0.009391550839010103 -0.0045933404930233136 -0.012070469131700791 0.034696783473308547
leaf_weight=933.47818426787853 7697.448019772768 2268.5035809576511 2465.7481353729963 60325.805883824825 12142.586607307196 6506.0955081880093 379.68942938745022 4525.3531505912542 9934.1667101234198 4738.6893666833639 3506.7693635225296 29372.886484012008 83384.159847676754 52961.951553359628 1785.3409253358841 58229.1781257689 1468.2694386094809 5972.2578542381525 142.28859044611454 3247.5987526774406 4443.207961499691 1168.9679674506187 24094.401694834232 4812.0729608535767 67466.77201615274 7963.7488523423672 3830.2411835342646 26413.461240142584 137.54838588833809 2745.4303546845913
leaf_count=4916 27048 9724 5873 162357 33238 18820 885 14327 47071 15321 9688 89905 246078 149446 3853 162257 3877 37129 414 9448 10512 3438 85093 15622 216525 22200 13671 101703 449 7232
internal_value=0.0171595 -0.00186322 0.00409668 0.021432 0.0174853 0.015932 -0.0268271 0.0263839 -0.0290012 0.000889919 0.0402455 0.0189935 0.0178781 0.0269527 0.0286752 0.0280116 0.0528547 -0.0417945 -0.0123307 0.0314093 0.0341388 0.00546292 0.00321821 0.0162841 0.0107499 0.0276856 -0.00400686 -0.00282221 0.0445534 0.046292
internal_weight=495064 90798.3 73298.9 404266 224970 202391 17499.4 179296 16982.2 67326.3 5972.52 127227 112757 174771 121809 118555 3253.61 7048.02 1075.77 22578.8 19331.2 34814.1 28833.1 5981.04 75164.2 14469.8 32512.2 30243.7 517.238 7188.64
internal_count=1528120 350997 260133 1177123 681006 620576 90864 496117 89530 244572 15561 377003 335983 481790 332344 324614 7730 42459 5330 60430 50982 119474 100414 19060 243573 41020 125098 115374 1334 17744
is_linear=0
shrinkage=0.05


Tree=16
num_leaves=31
num_cat=0
split_feature=7 7 2 7 2 7 7 5 2 2 6 1 10 2 1 10 4 2 4 9 11 10 2 10 5 1 2 10 10 10
split_gain=14481.3 4870.44 3467.73 2671.1 1580.21 968.941 964.995 866.74 678.156 645.494 487.364 476.615 466.657 506.479 456.914 443.679 427.795 407.587 392.245 581.28 373.234 364.026 358.414 341.291 333.347 311.45 306.577 303.768 294.03 292.945
threshold=0.023296949656601135 0.037942001645000077 0.033123026272269519 0.016124778534610831 0.020208531922353248 0.030280915669977721 0.054840289144905026 81.634402681019381 0.025675616382511219 0.05418700214165964 51.79849109417578 2.1194596657819478 0.079166666666666677 0.0022894353235988563 1.3172573320645524 0.029166666666666671 -0.13849256592875014 0.03573822565312653 0.061038477734109572 2.0246371916829506 0.66045297946790116 0.11250000000000002 0.0016142226738424744 0.68750000000000011 42.640651257910932 0.67691433673927148 -0.046391737558565994 0.42916666666666675 0.020833333333333339 0.82916666666666672
decision_type=2 2 2 2 2 2 2 2 2 2 2 2 2 2 2 2 2 2 2 2 2 2 2 2 2 2 2 2 2 2
left_child=3 2 5 8 21 14 16 10 12 24 27 -9 13 -1 15 -2 -3 23 25 -20 -12 22 26 -6 -4 -18 -5 -8 -7 -11
right_child=1 6 9 4 17 28 7 11 -10 29 20 -13 -14 -15 -16 -17 18 -19 19 -21 -22 -23 -24 -25 -26 -27 -28 -29 -30 -31
leaf_value=-0.025348867323421505 0.016667388893170303 0.028251449324806433 0.039523794540676421 0.083092469325637255 0.028477375728619327 0.022998427758419343 0.030363760857158219 0.022467783402191077 0.056709990126950466 0.052871610797001228 0.039150656457501473 0.0046876019616611288 -0.042117890112298238 0.050624664126894696 0.015786021792869916 0.0022099530387890273 0.013619057629692222 0.051421364512243078 0.025420593382865338 0.012262325395942587 0.024955231593069144 -0.011962992926081809 0.023414827186041341 -0.010060503651683754 0.019441941437148572 0.019742694652195757 -0.0063952058565144984 0.022520634673238137 0.012452334325731678 0.033302086405644062
leaf_weight=1174.4387592077255 5912.6512604355812 16072.561329096556 2832.8899642080069 97.519494712352753 1643.330998942256 7195.270810380578 27731.722979456186 37226.148823440075 196.13562183082104 4189.9749541431665 18043.886679381132 4193.684263497591 7741.5413501858711 269.75668269395828 9031.5446585267782 51782.479586809874 31353.502966374159 1104.1209986656904 45326.432532429695 10300.591743171215 6228.9439211785793 22394.40769611299 1441.0603762865067 883.29114213585854 7638.2194469422102 61477.878948479891 5155.7464471459389 22250.804059460759 81139.560364127159 3517.9681295454502
leaf_count=6203 18783 44320 7424 261 5037 21020 74235 104280 502 9824 46018 13211 47197 932 27772 180783 94973 2637 126343 30706 16831 94095 5428 3183 21792 178133 20956 61592 254519 9130
internal_value=0.0162842 0.0188886 0.0122983 -0.0117667 -0.00502282 0.00987617 0.0229631 0.0264626 -0.035286 0.0329585 0.029695 0.0206676 -0.0372503 -0.011158 0.00532857 0.00369156 0.0205028 0.0260792 0.0196639 0.022984 0.0355078 -0.00890485 0.00132549 0.0150048 0.024875 0.0176745 -0.00473399 0.0268722 0.0133114 0.0439399
internal_weight=495548 453447 173241 42101.3 32719.5 155062 280206 115675 9381.87 18179.1 74255.4 41419.8 9185.74 1444.2 66726.7 57695.1 164531 3630.74 148458 55627 24272.8 29088.7 6694.33 2526.62 10471.1 92831.4 5253.27 49982.5 88334.8 7707.94
internal_count=1528120 1341689 551047 186431 131597 502877 790642 316167 54834 48170 198676 117491 54332 7135 227338 199566 474475 10857 430155 157049 62849 120740 26645 8220 29216 273106 21217 135827 275539 18954
is_linear=0
shrinkage=0.05


Tree=17
num_leaves=31
num_cat=0
split_feature=7 8 7 7 2 7 2 2 9 4 3 2 7 2 8 6 2 10 2 10 13 8 8 8 10 3 2 4 2 10
split_gain=13038.4 4482.68 2496.06 1613.01 1355.47 1128.16 1296.27 717.159 641.089 610.901 694.313 605.228 551.29 517.206 506.622 466.602 459.637 457.85 380.895 362.798 354.642 488.625 321.626 319.225 316.451 363.998 297.558 287.624 282.756 366.421
threshold=0.023296949656601135 0.028180156323904998 0.016671573732586317 0.042499991815529159 0.018936461637550018 0.050741038341574854 0.048157505481586864 0.031552718650661081 2.3278208988234801 -0.11392066033627953 -0.041925538207715149 -0.068979930697387712 0.032495791141033681 0.05418700214165964 0.019900496105875468 81.631226763967021 0.05418700214165964 0.39583333333333343 0.043543491421555648 0.75416666666666676 0.01211037004127468 0.11450142716711134 0.078363550413015334 0.082801006277155267 0.045833333333333344 -0.026559888120747912 -0.00098170202923957115 0.050894123029890687 0.005097203621096588 0.070833333333333345
decision_type=2 2 2 2 2 2 2 2 2 2 2 2 2 2 2 2 2 2 2 2 2 2 2 2 2 2 2 2 2 2
left_child=2 3 7 13 24 6 9 17 20 22 -11 -5 23 14 -2 -14 27 28 19 -6 21 -7 -3 -8 26 -26 -4 -13 -1 -30
right_child=1 5 4 11 18 8 12 -9 -10 10 -12 16 15 -15 -16 -17 -18 -19 -20 -21 -22 -23 -24 -25 25 -27 -28 -29 29 -31
leaf_value=-0.028694122750069953 0.0017910920250617255 0.023159652946726148 -0.0010452274527345904 -0.046095019082466049 0.027202360458553426 0.027517414867685476 0.053559136571400212 0.069066085715960832 0.015301244603543609 0.008429548367606645 0.017553315620237979 0.015998994797366467 0.029037001572748279 0.053469749438307734 0.0093111043642296627 -0.00070487760793857884 0.056912000815986533 -0.043785796786354421 0.058179753458881815 -0.0092413690604383255 0.02289014537216711 0.048578632400185305 0.050557929096712889 0.018985988362077374 -0.026349303940532566 -0.0078582085236082871 0.036378379795314129 0.026089586493955753 0.06518344498032197 -0.013525390061801987
leaf_weight=3793.2195481657982 34585.468351364136 24462.378845319152 2984.4077882170677 344.25574214756489 2291.0743293315172 60342.588992208242 3367.6219713538885 171.30655393004417 16052.371111258864 25178.854786396027 121340.53106004 19987.966016724706 14736.798697799444 593.69999158382416 63551.669413864613 1448.3111047744751 846.36194914579391 5577.6490985751152 652.72664742171764 972.89664043486118 51521.174652323127 2885.5941826105118 1120.1854290515184 832.77010500431061 3053.7154666185379 20717.245045527816 646.1551748663187 10920.434842661023 184.34269714355469 747.31272953748703
leaf_count=21523 122197 69171 11685 1264 6983 162145 7840 374 46739 77467 357733 58932 39243 1382 206637 4506 1945 34681 1478 3484 142379 6887 2769 2285 13370 85971 2269 30168 563 4050
internal_value=0.0154575 0.017917 -0.0112676 0.010108 -0.00420106 0.0210772 0.0186424 -0.0323974 0.0246602 0.0172302 0.0159854 0.0198447 0.0305643 0.00694238 0.0066609 0.0263756 0.0205596 -0.0340845 0.0233123 0.0163395 0.0259694 0.0284786 0.0243593 0.0467047 -0.00813375 -0.0102337 0.0056153 0.0195642 -0.0226323 0.00204839
internal_weight=495911 454119 41792.1 130830 31318.2 323289 192487 10473.8 130802 172102 146519 32099 20385.5 98730.8 98137.1 16185.1 31754.8 10302.5 3916.7 3263.97 114749 63228.2 25582.6 4200.39 27401.5 23771 3630.56 30908.4 4724.87 931.655
internal_count=1528120 1341689 186431 422525 125240 919164 561014 61191 358150 507140 435200 92309 53874 330216 328834 43749 91045 60817 11945 10467 311411 169032 71940 10125 113295 99341 13954 89100 26136 4613
is_linear=0
shrinkage=0.05


Tree=18
num_leaves=31
num_cat=0
split_feature=7 7 2 7 2 8 2 7 1 1 8 2 0 2 10 2 10 13 8 0 9 10 3 3 10 12 3 11 8 10
split_gain=11894.2 4599.18 2913.74 2101.38 1279.82 944.885 885.334 791.328 762.755 638.263 558.078 471.676 431.481 552.043 404.064 449.362 368.751 355.773 627.049 689.731 304.235 294.205 751.175 259.373 293.546 256.535 241.543 231.83 228.803 222.881
threshold=0.029371423677940347 0.01917779076856679 0.029433594491454641 0.047333887791312999 0.056759626714430821 0.028023595648261703 0.025675616382511219 0.014929479813997561 2.2406488386075658 3.2552615573613717 0.02168698603913952 0.049962236082504365 1.2797088054760999 -0.048078023228845197 0.10416666666666669 0.005097203621096588 0.80416666666666681 -0.013887257366053929 0.12027498280064274 0.958191256905497 0.88495020108046685 0.020833333333333339 -0.034153522381089436 -0.035458057495635999 0.029166666666666671 16.021293055134464 -0.13783713256296781 0.22693966125348561 0.011705887295633512 0.37916666666666671
decision_type=2 2 2 2 2 2 2 2 2 2 2 2 2 2 2 2 2 2 2 2 2 2 2 2 2 2 2 2 2 2
left_child=1 6 10 4 5 23 7 14 17 -6 28 16 13 -7 15 -1 20 18 19 -5 -4 -12 -23 24 -2 -25 -20 -8 -3 -9
right_child=3 2 11 8 9 12 27 29 -10 -11 21 -13 -14 -15 -16 -17 -18 -19 26 -21 -22 22 -24 25 -26 -27 -28 -29 -30 -31
leaf_value=-0.025325236286877974 0.015209964215418113 -0.016919663766860195 0.016392495437152953 0.028798503566202741 0.038008273009245364 0.037080452158823135 0.062884976697178088 -0.010105190941818035 0.0079908067125104235 0.013264304299613137 0.018840537000870107 0.052721486147777802 0.011198145325064362 0.017584198044626215 -0.044976358704336909 0.062485799830684488 0.0029385965158180124 0.021294065217644355 0.066279387950491639 0.018880572005295318 0.045908270257217249 -0.012223035462196727 0.0071137817934493509 0.019979381657421771 0.0011651227760032293 0.010068310957926202 0.030342454898656536 0.0042011883888921466 -0.0019054434180744554 -0.02432798928817682
leaf_weight=1013.5845826715231 5011.0171497911215 2754.9669484645128 1469.5014867186546 48040.283990114927 8946.4194993078709 3762.3897140026093 330.86445093154907 5520.4024667292833 8392.6023911833763 3677.422776311636 3737.7409314215183 2405.6122034043074 27015.999914929271 103865.21020014584 5367.867198780179 170.15033011138439 1306.2719743847847 89797.40822814405 1298.8750742077827 27601.616838291287 2150.9896625429392 5931.1392533332109 32779.889081820846 7698.8953033685684 14444.176197305322 42965.830551892519 730.57013082504272 342.52119240164757 32136.86160376668 5497.6457668244839
leaf_count=5687 15278 11738 4255 128520 22501 10067 785 25783 25501 10588 11609 5593 80990 302701 36212 524 3983 249088 2813 76889 5423 21294 110287 23799 47726 137217 1887 1067 121341 26974
internal_value=0.0146762 -0.000456507 0.00444969 0.0186365 0.0153491 0.0143965 -0.0232281 -0.0253844 0.0227002 0.0308002 0.0015938 0.0345731 0.0168476 0.0182657 -0.0391453 -0.0127033 0.0257117 0.0234374 0.0259153 0.0251795 0.0339283 0.00544453 0.00415108 0.00968996 0.00478261 0.0115744 0.0533426 0.0330352 -0.00309093 -0.0172019
internal_weight=496165 102916 84673 393249 217387 204764 18243 17569.7 175861 12623.8 77340.6 7332.38 134644 107628 6551.6 1183.73 4926.76 167469 77671.3 75641.9 3620.49 42448.8 38711 70119.9 19455.2 50664.7 2029.45 673.386 34891.8 11018
internal_count=1528120 392555 295523 1135565 650867 617778 97032 95180 484698 33089 276269 19254 393758 312768 42423 6211 13661 459197 210109 205409 9678 143190 131581 224020 63004 161016 4700 1852 133079 52757
is_linear=0
shrinkage=0.05


Tree=19
num_leaves=31
num_cat=0
split_feature=8 8 8 2 8 4 4 9 2 2 4 0 2 1 8 0 5 10 6 13 0 4 0 9 6 0 10 10 5 2
split_gain=10352.1 2018.72 1793.64 2629.35 926.448 681.612 665.573 656.229 593.368 674.481 568.223 565.486 565.13 605.379 536.419 688.804 458.807 436.162 379.376 370.991 367.365 351.404 265.881 360.403 244.219 237.91 201.495 200.449 193.258 183.171
threshold=0.02168698603913952 0.03233561641631981 0.013743745340997144 0.028793689853754956 0.0096409884404917139 0.055121662299341463 0.095493190496621874 2.8178665760520425 -0.058779053460036958 0.033123026272269519 -0.091497527272250745 0.81558914888315637 0.022044081688681414 1.2952949202591408 0.067907205073542684 1.3312879868486642 63.865867161350756 0.062500000000000014 40.861978648815359 0.02746485973220528 0.95387399987483878 -0.078488687809109142 1.253295568726273 1.1088215933921355 40.453354511524701 1.1687461665220529 0.11250000000000002 0.42083333333333339 63.060160744417018 -0.00029886428275934022
decision_type=2 2 2 2 2 2 2 2 2 2 2 2 2 2 2 2 2 2 2 2 2 2 2 2 2 2 2 2 2 2
left_child=2 5 3 4 -1 10 21 8 14 11 20 -10 18 -14 15 -3 -11 -16 -12 22 -2 25 23 -7 -23 -4 29 -22 -8 -6
right_child=1 7 6 -5 26 19 28 -9 9 16 12 -13 13 -15 17 -17 -18 -19 -20 -21 27 24 -24 -25 -26 -27 -28 -29 -30 -31
leaf_value=-0.038317390148968511 0.021210292187727603 0.027900232250804863 0.010728605713503512 0.056066562345323971 -0.010266811044291982 0.017934977622682504 0.027732509895982034 0.0086462433758673751 0.021355635286652318 0.030402111443652374 -0.0025204974760316117 0.015899403820466135 0.011147332015426906 0.040224725935328422 0.050471798822928106 -0.0074188603257464075 0.020930972976603984 0.028896319351156635 0.0079800474372389418 0.011855465180849118 0.010802134943338674 -0.011348616144006741 0.004984952873014265 0.032720823013999971 -7.033533340290035e-06 -0.0088394782319516762 -0.016325766601203457 -0.015923811640991228 0.0082750781865596947 0.01608216526630471
leaf_weight=4970.495832040906 15880.100424915552 5184.6447019129992 11195.55993001163 1214.4182173460722 1988.9259187579155 8454.9513567537069 2948.8190939873457 12900.744301006198 81948.851774603128 20463.341172412038 10169.628372117877 112923.19962483644 5781.6314465999603 2592.7311015129089 3583.3180371820927 1881.3571978956461 34086.479894712567 6764.255988240242 55792.488468915224 12082.350605249405 7989.7946203947067 5314.842601031065 1816.0239188671112 8040.7054799944162 44385.089487314224 1803.5305465757847 10141.560734272003 769.11505423486233 2249.8129739612341 986.84520649909973
leaf_count=29594 46175 13892 36681 2803 8595 24829 8608 38624 229060 53635 34924 327124 17378 6936 8600 5868 94055 17961 181295 36220 24441 21438 5645 22022 164573 6391 47290 2533 7128 3802
internal_value=0.0139376 0.0172715 -0.00170354 -0.015153 -0.0199346 0.0121068 0.00211992 0.0196601 0.0201925 0.0195695 0.0100956 0.0181939 0.0079145 0.0201498 0.029116 0.0184964 0.0244839 0.0363678 0.00636114 0.018656 0.016676 0.000694464 0.0231432 0.0251422 -0.00121989 0.00801367 -0.012969 0.00845534 0.0193119 -0.00152879
internal_weight=496306 409106 87199.9 19302.2 18087.8 129370 67897.7 279736 266835 249422 98975.5 194872 74336.5 8374.36 17413.6 7066 54549.8 10347.6 65962.1 30394 24639 62699 18311.7 16495.7 49699.9 12999.1 13117.3 8758.91 5198.63 2975.77
internal_count=1528120 1191217 336903 92084 89281 402398 244819 788819 750195 703874 313682 556184 240533 24314 46321 19760 147690 26561 216219 88716 73149 229083 52496 46851 186011 43072 59687 26974 15736 12397
is_linear=0
shrinkage=0.05


Tree=20
num_leaves=31
num_cat=0
split_feature=7 7 2 7 8 1 7 2 5 2 2 8 2 3 10 3 10 2 5 4 2 5 10 2 10 3 10 4 2 2
split_gain=9990.06 4112.28 2966.79 1406.64 954.015 791.983 722.721 706.682 662.647 598.492 524.342 481.979 478.381 461.769 442.438 917.125 413.093 417.726 374.43 372.101 351.857 342.202 260.994 258.909 296.642 253.74 285.722 263.617 222.686 223.222
threshold=0.02137972939135362 0.037942001645000077 0.033123026272269519 0.015550731186608347 0.022776144390310827 3.2552615573613717 0.056170879110623677 0.017729088853114101 93.383542667662908 0.066478659253438141 0.056759626714430821 0.079722152926247736 0.025675616382511219 0.030085560294150965 0.020833333333333339 -0.033491205198121751 0.10416666666666669 0.0027515120020211942 45.79572536614959 -0.13849256592875014 0.14537580679010811 74.160528654874852 0.18750000000000003 0.043543491421555648 0.75416666666666676 -0.034825648659316776 0.020833333333333339 -0.078488687809109142 0.0018345956996684554 -0.05165441574403596
decision_type=2 2 2 2 2 2 2 2 2 2 2 2 2 2 2 2 2 2 2 2 2 2 2 2 2 2 2 2 2 2
left_child=3 2 4 12 25 6 9 22 13 19 18 21 16 -8 -6 -16 17 -1 -4 -3 -13 -12 28 24 -9 26 -2 -27 29 -5
right_child=1 5 10 7 14 -7 8 23 -10 -11 11 20 -14 -15 15 -17 -18 -19 -20 -21 -22 -23 -24 -25 -26 27 -28 -29 -30 -31
leaf_value=-0.024814619371796173 0.0084914850022864662 0.023533632062380339 0.035159485962984349 0.10483035918690758 0.020013454581703453 -0.0016929615565058264 0.021715302511875315 0.02215579690817121 0.01411439169448573 0.031370511109199958 0.059459015517338468 0.013623945857475662 0.055072802657845088 0.029496531430396117 -0.00019811094274760485 0.011292987277276624 -0.04157171535438927 0.044662993650920572 0.015631961661664025 0.015704348072936889 0.066974245782100414 0.031615987721302405 -0.016352355905567762 0.056980256677405729 -0.018056096312555735 0.014095522543846731 -0.0092817201805345806 0.0021082317918934813 0.013228977393088055 -0.010277644143208205
leaf_weight=1094.6175803989172 3042.9530950784683 16929.747519031167 3520.3176660239697 42.522080138325691 9655.0981781631708 4635.0869360119104 57927.365968063474 1488.3675578385592 19702.406473219395 7073.7234723120928 2775.0141068547964 2169.5187908411026 147.36812534928322 28420.979626357555 22128.746104314923 80639.309841036797 5984.4122359752655 269.63357488811016 8110.2815042734146 146498.92981055379 360.39165796339512 1832.1259072571993 12515.42606036365 335.64830385148525 662.89946921169758 5204.3476826101542 8802.7320022433996 38626.418849632144 1473.4157399088144 4430.1458214968443
leaf_count=6287 10027 46469 9136 107 28117 14595 157574 4832 56366 18410 6222 6010 368 74595 72074 250513 40993 942 22970 422633 809 4671 56931 764 2565 17272 32208 138224 6016 19420
internal_value=0.013235 0.0149834 0.00923438 -0.0155353 0.0071293 0.018804 0.0191475 -0.00888405 0.0223885 0.0171317 0.0280893 0.0387581 -0.0341229 0.0242764 0.00978007 0.00881864 -0.0359116 -0.0110829 0.0215425 0.0165154 0.0212238 0.0483867 -0.0122546 0.0161372 0.00976475 0.0017768 -0.00471609 0.00353157 -0.00362963 -0.0091833
internal_weight=496500 468055 186867 28444.5 168100 281188 276553 20948.4 106051 170502 18767.6 7137.05 7496.03 86348.3 112423 102768 7348.66 1364.25 11630.6 163429 2529.91 4607.14 18461.5 2486.92 2151.27 55676.5 11845.7 43830.8 5946.08 4472.67
internal_count=1528120 1388895 598253 139225 548435 790642 776047 90635 288535 487512 49818 17712 48590 232169 350704 322587 48222 7229 32106 469102 6819 10893 82474 8161 7397 197731 42235 155496 25543 19527
is_linear=0
shrinkage=0.05


Tree=21
num_leaves=31
num_cat=0
split_feature=7 7 2 7 2 8 2 2 9 10 10 3 10 9 7 11 3 13 2 0 2 8 7 10 8 2 8 13 9 3
split_gain=9149.01 3657.3 2452.4 1641.29 1008.31 694.91 667.425 572.696 567.425 513.161 483.736 919.464 438.58 418.864 403.533 392.689 504.592 437.431 391.964 387.766 491.46 365.011 354.066 352.336 461.602 325.157 321.216 405.924 312.285 266.534
threshold=0.029371423677940347 0.018024030578422702 0.025675616382511219 0.047333887791312999 0.056759626714430821 0.031463746467115562 0.031552718650661081 0.048157505481586864 2.3278208988234801 0.37916666666666671 0.045833333333333344 -0.02962855151124244 0.6708333333333335 2.1104591650705684 0.021649393919313354 0.54009856931909972 0.01601682268147683 0.036637763810498734 -0.00098170202923957115 1.6071408209505929 -0.0616306660405593 0.092171709148550426 0.014190878840751965 0.1541666666666667 0.099674109816229428 0.0060886495176476606 0.078363550413015334 -0.024971354404649645 0.88495020108046685 -0.034825648659316776
decision_type=2 2 2 2 2 2 2 2 2 2 2 2 2 2 2 2 2 2 2 2 2 2 2 2 2 2 2 2 2 2
left_child=1 6 10 4 5 29 9 12 15 25 18 -12 28 -6 -13 16 21 -18 -3 20 -7 -5 -11 24 -17 -1 -15 -28 -4 -2
right_child=3 2 7 8 13 19 -8 -9 -10 22 11 14 -14 26 -16 23 17 -19 -20 -21 -22 -23 -24 -25 -26 -27 27 -29 -30 -31
leaf_value=-0.021425944618874555 0.0048864102229983167 0.0054003648554943893 0.014700098514448787 0.016509974122333858 0.032188982014720507 0.041932087576331059 0.050694649638902647 0.046973656569134215 0.011355610877250797 -0.048623451998270395 -0.015262291530080591 -0.0072373326126062253 0.0028929397632881499 0.031081924345135698 0.0030721952183238657 0.022084796711896133 0.035109055648658662 0.022388483590811158 0.030062740201756047 0.0041717093151882349 0.015302181045522249 0.047466194321717142 -0.026052472181542299 0.0175026148479351 0.045655984637949586 0.0082647044125607264 -0.04420467134888182 0.010765055301716078 0.041311074321792547 0.010798899771476111
leaf_weight=5066.6669923812151 26668.83638779819 9002.2657929807901 2062.1311046779156 17651.266610398889 9393.0863789469004 1762.3219698667526 285.7416483014822 2584.7867978662252 18552.614231452346 3038.6913746371865 10304.914125546813 11957.754011243582 2547.8893330544233 1228.0554820895195 46023.666457384825 22513.742793262005 13777.412624657154 13265.428407564759 1962.2467412948608 7767.0534010380507 102603.0340898931 1006.5492269992828 4057.5840547084808 86876.483871653676 2288.137334600091 1127.3036893606186 433.97183474898338 1485.2745380401611 2369.0279933512211 66820.816216006875
leaf_count=28520 84978 30660 6043 49540 24007 4506 675 6169 54001 22623 39435 50232 7811 3186 160751 61214 35177 36146 6239 23700 296303 2442 21962 240682 5496 5364 1511 4385 6071 208291
internal_value=0.0125731 -0.000742921 0.00295164 0.0160327 0.0131351 0.0122956 -0.0249129 0.0268688 0.0196259 -0.0265385 6.53731e-05 -0.00149994 0.0194226 0.0268995 0.000946018 0.0206009 0.0245052 0.0288692 0.00981403 0.0149497 0.0157519 0.01818 -0.0357176 0.0190032 0.0242594 -0.0160222 0.0111129 -0.00166447 0.0289271 0.0091123
internal_weight=496485 102391 88814.7 394094 218162 205622 13576 9563.84 175932 13290.2 79250.8 68286.3 6979.05 12540.4 57981.4 157379 45700.7 27042.8 10964.5 112132 104365 18657.8 7096.28 111678 24801.9 6193.97 3147.3 1919.25 4431.16 93489.7
internal_count=1528120 392555 313411 1135565 650867 617778 79144 26094 484698 78469 287317 250418 19925 33089 210983 430697 123305 71323 36899 324509 300809 51982 44585 307392 66710 33884 9082 5896 12114 293269
is_linear=0
shrinkage=0.05


Tree=22
num_leaves=31
num_cat=0
split_feature=7 7 7 1 8 1 7 10 10 6 5 4 4 1 9 4 8 11 1 7 9 5 9 4 6 10 8 1 5 6
split_gain=8269.17 2772.81 1953.99 1498.71 1225.15 683.463 506.665 373.309 360.176 388.018 365.848 346.45 509.588 344.784 320.706 396.147 806.359 549.877 314.816 255.59 244.268 300.465 238.844 372.271 221.374 264.857 208.863 191.3 191.288 188.812
threshold=0.026984331071386369 0.018024030578422702 0.045434340856689938 1.5432518070410135 0.036324193131607938 3.043590918890978 0.014190878840751965 0.070833333333333345 0.12083333333333335 44.758005707948605 41.86669227322195 0.041439136400299295 -0.10170534112298758 1.2219298691552472 1.9854936167244779 0.062629951782336921 0.10983787478175616 0.56326069963824565 1.6501406850401992 0.02137972939135362 2.6260251896258651 61.465608294770284 0.81619069609125916 -0.10832912358541467 71.009083307054695 0.6708333333333335 1.0000000180025095e-35 1.5070744562102105 33.480642351913552 53.712471602928929
decision_type=2 2 2 2 2 2 2 2 2 2 2 2 2 2 2 2 2 2 2 2 2 2 2 2 2 2 2 2 2 2
left_child=1 6 4 8 11 14 7 -1 -3 10 -10 12 -2 -14 15 16 -4 -17 -8 -11 22 -22 23 -6 25 29 -13 -9 -28 -5
right_child=2 3 5 24 20 -7 18 27 9 19 -12 26 13 -15 -16 17 -18 -19 -20 -21 21 -23 -24 -25 -26 -27 28 -29 -30 -31
leaf_value=-0.0046445400024834214 0.013587692746663389 0.0054793858727815448 0.016639632442312077 0.013994155051406734 0.022407896008633653 -0.0038498888335029395 -0.018974747836482932 -0.044580620970840937 -0.0050079079273127793 -0.0093908627847810715 -0.026449216000124877 0.047583666098701731 0.0042406433907798179 0.016206711810583054 0.013710527724174765 0.02713665275216566 0.040997868026503861 0.0180628485198987 0.020238217668832829 0.00090075952607625613 -0.017713602762172608 0.014040767620582996 0.01871543257004335 0.010435333255965809 0.044622908344628218 0.0024470616585135917 0.019701500633087142 0.0017222708362464017 0.010506576136364331 0.034795822636881558
leaf_weight=786.03886573016644 23501.515412256122 13004.820851713419 93493.776958584785 1958.9085675179958 8599.7212103903294 3411.3742214888334 7661.9907809793949 4126.6610403060913 4865.3156628012657 7994.996806755662 3365.7649371474981 429.4727471768856 73773.588825315237 6554.6735248714685 27288.182625770569 32874.233336225152 3525.7632753401995 33928.648263275623 548.48401394486427 24580.184940844774 1168.2780814021826 2055.864358946681 51586.459502801299 26499.52208763361 986.27708734571934 1718.6800575256348 7213.766651853919 235.81569868326187 26198.289759933949 2461.7723993360996
leaf_count=4170 70457 46991 260722 6071 23827 10899 40772 31035 19049 34155 14026 1037 239437 19451 77512 86944 8666 93134 1921 88248 3830 5993 144955 77987 2432 5409 21272 1246 79858 6614
internal_value=0.0119461 -0.00343595 0.0146535 0.00108672 0.0115084 0.0183331 -0.024066 -0.0363627 -0.00176669 -0.00407599 -0.0137755 0.00854369 0.00711172 0.00521706 0.0187291 0.0195651 0.0175248 0.0225281 -0.0163552 -0.00162514 0.0160479 0.00253447 0.0165505 0.0133687 0.022635 0.0191027 0.0129371 -0.0420777 0.0124918 0.0255781
internal_weight=496399 74295.7 422103 60936.7 227581 194522 13359 5148.52 53811.1 40806.3 8231.08 137671 103830 80328.3 191111 163822 97019.5 66802.9 8210.47 32575.2 89909.8 3224.14 86685.7 35099.2 7125.64 6139.36 33841.5 4362.48 33412.1 4420.68
internal_count=1528120 302139 1225981 222995 688104 537877 79144 36451 202469 155478 33075 431512 329345 258888 526978 449466 269388 180078 42693 122403 256592 9823 246769 101814 20526 18094 102167 32281 101130 12685
is_linear=0
shrinkage=0.05


Tree=23
num_leaves=31
num_cat=0
split_feature=7 7 2 7 2 1 8 2 1 10 1 11 8 6 13 0 2 6 7 0 13 2 2 13 2 10 9 1 8 10
split_gain=7473.31 3062.11 2116.82 1357.11 911 628.412 595.17 590.493 580.438 486.606 477.958 440.545 395.041 564.911 390.36 365.79 530.121 364.442 338.57 337.081 460.002 363.261 320.012 313.198 299.879 293.488 286.621 261.256 255.098 219.351
threshold=0.029371423677940347 0.018024030578422702 0.033123026272269519 0.047333887791312999 0.066478659253438141 1.7259959831694662 0.028023595648261703 0.031552718650661081 2.4938566492799938 0.37916666666666671 1.5244541545551276 0.44222181701193469 0.12027498280064274 38.975595651961477 0.033429485303739598 1.4103220209854663 -0.0616306660405593 81.631226763967021 0.014190878840751965 0.80320926603555165 0.0014522464383445318 0.062755478338035561 0.12136678839281029 -0.0036110181325335745 0.0060886495176476606 0.029166666666666671 0.92712686242194964 3.2552615573613717 0.011705887295633512 0.070833333333333345
decision_type=2 2 2 2 2 2 2 2 2 2 2 2 2 2 2 2 2 2 2 2 2 2 2 2 2 2 2 2 2 2
left_child=1 7 10 4 6 12 -2 9 -6 24 11 28 19 -14 26 16 -8 22 -11 20 -5 -21 -10 -19 -1 -13 -4 -7 -3 -26
right_child=3 2 14 5 8 27 15 -9 17 18 -12 25 13 -15 -16 -17 -18 23 -20 21 -22 -23 -24 -25 29 -27 -28 -29 -30 -31
leaf_value=-0.019789304453067379 0.0074144373583418868 -0.019072318488818241 0.017476963928846134 0.024215227818994156 0.040905961509301751 0.011158247783011577 0.04460029761327932 0.048188257746407892 0.01366145545285607 -0.04710642152485843 0.01341532180436175 0.017502418883965788 0.060502116916100294 0.020588234090263637 0.010835284336841824 0.0064766591566283727 0.013698388087086795 -0.047043953018445793 -0.02451274115805506 0.015313955105272142 0.016419690097458885 0.032478434778608678 0.043119438459507838 0.0082856575131663793 0.056293438063709657 0.0023625930444557707 0.047372870150741014 -0.0070048125555985568 -0.0026854180425734237 -0.0014576556932971057
leaf_weight=4938.9698225334287 70701.123294681311 2509.3623003661633 1076.5806601643562 42009.394667342305 4174.2735217660666 15604.471111521125 1404.3048655092716 283.18280327320099 2851.6208491623402 2851.9029663354158 6660.2995485961437 3655.0153616815805 1357.3926815539598 2555.3042301535606 1615.5417972505093 18331.804820671678 118478.63887028396 358.12994407117367 3961.1569854915142 74367.198223337531 34435.992086514831 3215.7510339766741 1362.4020227789879 894.82363449037075 200.23843152821064 25770.746006131172 3140.2596087902784 2267.5251233428717 44336.240800186992 919.21230840682983
leaf_count=28520 224182 11458 2985 112167 10215 44706 3495 675 7909 22623 20306 11322 3039 6928 4560 54889 342880 1266 21962 206967 95250 8248 3380 2651 624 89655 7588 7393 165537 4740
internal_value=0.0113508 -0.000718535 0.00261784 0.01447 0.0118393 0.0177402 0.0111458 -0.0232315 0.0268661 -0.0248028 0.000570189 -0.000551495 0.0187458 0.0344352 0.0317337 0.0130545 0.0140604 0.016146 -0.0339703 0.0183472 0.0207036 0.0160254 0.0231853 -0.00752913 -0.0144933 0.00424313 0.0397403 0.00885379 -0.00356321 0.0088724
internal_weight=496289 101919 88764 394370 218557 175813 208916 13154.7 9641.25 12871.5 82931.7 76271.4 157941 3912.7 5832.38 138215 119883 5466.98 6813.06 154028 76445.4 77582.9 4214.02 1252.95 6058.42 29425.8 4216.84 17872 46845.6 1119.45
internal_count=1528120 392555 313411 1135565 650867 484698 625446 79144 25421 78469 298278 277972 432599 9967 15133 401264 346375 15206 44585 422632 207417 215215 11289 3917 33884 100977 10573 52099 176995 5364
is_linear=0
shrinkage=0.05


Tree=24
num_leaves=31
num_cat=0
split_feature=7 8 7 7 2 2 2 5 7 7 2 2 10 10 6 10 2 11 1 5 2 11 11 7 6 1 1 9 7 11
split_gain=6793.34 2498.69 1478.51 919.154 890.07 851.747 813.434 659.466 617.831 512.812 498.023 388.066 368.27 366.014 460.838 365.829 354.036 312.492 294.572 270.857 268.028 253.035 251.961 297.006 251.69 239.058 218.355 211.639 210.241 201.679
threshold=0.022850833187664035 0.025404151157929395 0.015550731186608347 0.053901439447661022 0.05418700214165964 0.033123026272269519 0.016589504035128939 91.446165887984236 0.034562201293989972 0.030716002663441658 -0.0616306660405593 0.025675616382511219 0.10416666666666669 0.77916666666666679 60.426484274926885 0.037500000000000006 0.0022894353235988563 0.38645269812810606 1.4736058868585664 73.77786312392071 -0.049784945703507499 0.28609646766948321 0.56326069963824565 0.063671497569407348 33.402077146398739 1.7259959831694662 1.3054924595359758 0.80887531635591337 0.042499991815529159 0.26024057161574643
decision_type=2 2 2 2 2 2 2 2 2 2 2 2 2 2 2 2 2 2 2 2 2 2 2 2 2 2 2 2 2 2
left_child=2 4 11 5 9 8 17 22 -3 26 -11 12 16 14 -7 -10 -1 20 -8 29 -4 -15 23 -5 -24 -9 -2 -18 -12 -20
right_child=1 3 6 7 -6 13 18 25 15 10 28 -13 -14 21 -16 -17 27 -19 19 -21 -22 -23 24 -25 -26 -27 -28 -29 -30 -31
leaf_value=-0.022534838337537139 -0.00012283896106003576 0.0072916486489595757 0.085174049936888013 0.01956643652446834 0.04748822050257144 0.017872148678510374 0.0013574099447847977 0.013641365187031794 0.020705964243148415 -0.050238653883581078 0.006128025570227842 0.050409313183831995 -0.038252515374553889 0.03492946215781384 0.032994713004016858 0.012342095176201601 -0.027029721709280131 -0.00019486614759574934 0.06030548034713256 -0.008807893136068631 -0.012523698550979631 0.012747814844420224 0.028695941515063494 0.029980462586106333 0.01734380919002991 0.0020988865120988662 0.017961277747094072 0.067324591205161696 0.012387632610767873 0.024577113965547317
leaf_weight=1026.7583259046078 38814.700178176165 64223.32945714891 70.482340782880783 15828.627068012953 1247.4122059941292 12739.56794038415 2082.5792239755392 19934.969721287489 14617.538897305727 365.5114751458168 38564.807631835341 144.18204601109028 5421.2759302034974 1384.5845705270767 8332.966716170311 123799.54969108105 83.558390349149704 7926.9411891102791 572.39951299130917 420.59757462143898 17673.453114196658 17998.967738807201 5350.6326357573271 12065.100943028927 55819.063648596406 5788.3800578117371 1744.2119472026825 205.82194802165031 20568.666801407933 1274.2887534499168
leaf_count=6191 138458 199322 179 42862 2973 35027 7797 55899 40349 1355 123978 368 40993 3542 21429 357561 388 31963 1398 1369 79737 50617 13887 31188 152323 17691 5458 650 59481 3687
internal_value=0.0107874 0.012446 -0.00985216 0.0144084 0.00551361 0.0126672 -0.00506047 0.0180959 0.0113448 0.00499032 0.00794569 -0.0307558 -0.0324927 0.019291 0.0238522 0.0132254 -0.0087677 -0.00844842 0.0149337 0.027404 -0.0121356 0.0143323 0.0201327 0.0240709 0.0183368 0.011044 0.000654858 0.0400798 0.00830533 0.0356515
internal_weight=496091 459189 36902.3 357883 101305 243097 30020.7 114787 202640 100058 59499 6881.6 6737.41 40456.1 21072.5 138417 1316.14 25670.9 4349.87 2267.29 17743.9 19383.6 89063.4 27893.7 61169.7 25723.3 40558.9 289.38 59133.5 1846.69
internal_count=1528120 1353400 174720 1021697 331703 707847 126130 313850 597232 328730 184814 48590 48222 110615 56456 397910 7229 111879 14251 6454 79916 54159 240260 74050 166210 73590 143916 1038 183459 5085
is_linear=0
shrinkage=0.05


Tree=25
num_leaves=31
num_cat=0
split_feature=8 11 8 2 8 0 2 9 8 11 4 8 10 4 13 9 4 4 10 3 13 0 2 2 4 13 2 3 11 12
split_gain=6016.81 1837.73 1163.08 906.796 803.699 638.379 925.008 529.995 507.143 446.317 425.58 460.025 413 406.53 531.216 333.371 451.486 327.23 318.185 305.205 328.762 292.79 286.963 280.519 225.791 260.647 207.731 205.023 204.27 181.621
threshold=0.02168698603913952 0.31066706543552275 0.03611048925130337 0.048157505481586864 0.0096409884404917139 0.71539550017892461 0.022044081688681414 2.8178665760520425 0.013743745340997144 0.36461251118501864 -0.162018079785712 0.10264320726542624 0.037500000000000006 0.062629951782336921 0.078092553446146809 1.1917418071004044 -0.086179963736843598 0.095493190496621874 0.24583333333333338 -0.006802682115847925 0.0089917942408164545 1.6444281700454895 -0.043569251760591891 0.044901149329997288 0.016922371757175928 0.02554803349602448 0.0060886495176476606 -0.041925538207715149 0.3601228848613281 7.9072194694521736
decision_type=2 2 2 2 2 2 2 2 2 2 2 2 2 2 2 2 2 2 2 2 2 2 2 2 2 2 2 2 2 2
left_child=1 4 5 8 -1 15 9 10 22 -7 11 21 -11 23 -15 16 18 -10 -2 -8 -21 -4 -3 -12 -17 -26 -6 -18 -24 -28
right_child=2 3 7 -5 26 6 19 -9 17 12 13 -13 -14 14 -16 24 27 -19 -20 20 -22 -23 28 -25 25 -27 29 -29 -30 -31
leaf_value=-0.03909655321924857 0.015546353214465056 -0.057685406718266767 0.023043839227054479 0.046540763016178079 -0.014379366406184691 -0.0022656414571088123 0.0013578328232524456 0.0050097581353335903 0.0022107490565604951 0.016641434638506789 0.01240884788887691 0.048806876048525898 0.0054345646437842648 0.020781998835992979 0.013026218012345764 0.0062631853976405629 0.0016426923042891348 0.016591561362530156 0.033660792602595614 0.031046579073217642 0.014033094328732185 -0.0050121793373966118 -0.019082496275880934 0.021066716631288479 0.030708190209980474 0.013538469636974387 0.026465276830907738 0.010822771832872929 -0.0027871653866427698 -0.0054285406580759817
leaf_weight=2952.8673187196255 10551.446798071265 295.3360615670681 11227.394741654396 1136.6339140236378 12145.43915168196 16222.409713223577 2004.8708692491055 12494.969984978437 51107.17654825747 9478.1681347042322 111064.83199048042 1654.9593582004309 61977.404563501477 53155.41907812655 37762.670914635062 2111.8067998886108 7257.7062354534864 4287.5847360491753 3147.3022478967905 5664.4680612236261 5693.4405939280987 1013.8938902318478 2733.1528482809663 10216.404582425952 5962.2033288031816 3512.6233209967613 495.66663662344217 37546.406092487276 6489.4651274979115 4487.9350676164031
leaf_count=21633 30472 1143 29984 2733 58521 56978 5998 37291 178369 27570 317514 3934 192239 143840 105966 6311 22427 12627 8471 15314 16418 3012 13825 27306 15947 9991 2046 114234 26105 19901
internal_value=0.0102527 -0.00176001 0.012778 0.00226715 -0.0150053 0.00963245 0.007089 0.0150341 0.00149191 0.00522134 0.0155881 0.024065 0.00692109 0.015033 0.0175606 0.0132991 0.0117645 0.00332383 0.0197082 0.0193434 0.0225181 0.0207201 -0.00916995 0.0131382 0.0210476 0.0243428 -0.0108523 0.00933571 -0.00761634 -0.0022564
internal_weight=495852 86131.3 409721 66049.3 20081.9 171130 101041 238591 64912.7 87678 226096 13896.2 71455.6 212199 90918.1 70089.5 58502.9 55394.8 13698.7 13362.8 11357.9 12241.3 9517.95 121281 11586.6 9474.83 17129 44804.1 9222.62 4983.6
internal_count=1528120 336903 1191217 234802 102101 522370 314517 668847 232069 276787 631556 36930 219809 594626 249806 207853 175604 190996 38943 37730 31732 32996 41073 344820 32249 25938 80468 136661 39930 21947
is_linear=0
shrinkage=0.05


Tree=26
num_leaves=31
num_cat=0
split_feature=8 2 8 8 4 9 4 4 2 1 0 2 2 8 8 0 6 5 0 8 4 9 4 5 8 0 0 9 2 8
split_gain=5424.8 1074.66 1782.56 1055.08 598.638 483.156 483.064 478.684 676.664 654.611 462.996 394.814 430.22 409.643 403.939 525.472 357.608 356.9 318.185 318.066 314.01 309.361 301.999 264.082 232.638 220.933 214.715 205.233 191.323 191.288
threshold=0.02168698603913952 0.040956788708198112 0.011705887295633512 0.03611048925130337 0.055121662299341463 2.6260251896258651 0.076316663450547453 -0.087455331614535933 0.016589504035128939 1.3054924595359758 1.0116494590465839 -0.058779053460036958 0.066478659253438141 0.084558818021809881 0.065348223733207325 1.4201692776003942 40.861978648815359 81.23689724417379 1.4103220209854663 0.0088936185927518743 -0.11392066033627953 1.0892325130770635 -0.078488687809109142 52.046672834673174 0.13640594673246817 0.68712139555494844 1.0069499522073542 0.91019667634262513 0.02750279061423266 0.014830505206176993
decision_type=2 2 2 2 2 2 2 2 2 2 2 2 2 2 2 2 2 2 2 2 2 2 2 2 2 2 2 2 2 2
left_child=1 2 19 4 7 11 22 10 16 -10 27 14 20 -14 15 -5 -9 18 21 28 -13 -6 26 25 -16 -8 -4 -2 -1 -24
right_child=3 -3 6 5 17 -7 23 8 9 -11 -12 12 13 -15 24 -17 -18 -19 -20 -21 -22 -23 29 -25 -26 -27 -28 -29 -30 -31
leaf_value=-0.036807998774550002 0.01811428869027152 0.042455765968911915 0.0088667991219365683 0.019567153109790313 0.013184282817390059 0.0058850571688134432 0.030070092077356204 -0.0045591146154808004 0.0081808450950211931 0.029365441218979677 0.0039737945836305069 0.018824872982383931 0.030902388571112285 0.015095098614080597 0.025363750728067881 -0.016823754350989737 0.0049783333490167345 0.0071230792193443778 -0.0040607429387017197 -0.015976415164645569 0.012818881696174343 0.023626200245115164 -0.0087667213478613334 0.0033305382865046573 0.047922963757182677 0.0040957134310516934 -0.005440733009464585 0.0050217526514451452 0.050710313408076059 -0.0014061141973667922
leaf_weight=3377.314011067152 20931.970983296633 1357.6263695508242 10523.467168599367 4670.6690137386322 13974.916093587875 15958.09833522141 2490.26251116395 11608.423408403993 12407.457956284285 5164.3668839633465 11224.640225574374 25088.907913580537 7273.8784676939249 9388.7774822562933 9390.678640216589 1259.4771855026484 64096.188323497772 12278.700902968645 1656.3557471632957 5759.3942545056343 164153.99247421324 14404.585663601756 11160.741101779044 4306.6340408846736 1301.1491628438234 1219.622701138258 3492.5089369267225 3492.6794475764036 63.62320351600647 42207.613536380231
leaf_count=23270 59947 3349 34338 12629 40636 47258 7069 39486 37423 14353 34220 68533 18677 25976 24758 3991 204680 36407 5186 30643 463897 39672 49990 13959 3128 4003 12226 10360 161 157895
internal_value=0.00974319 -0.00167667 -0.00238488 0.012139 0.00914474 0.014289 0.000150355 0.00745109 0.0055676 0.014407 0.0123793 0.0148917 0.0142933 0.0219956 0.0223042 0.0118383 0.00351588 0.014305 0.017241 -0.0231622 0.0136151 0.0184843 -0.00123002 0.0117534 0.0281091 0.021531 0.00530164 0.0162421 -0.0351898 -0.00294541
internal_weight=495685 85958.8 84601.2 409726 171240 238486 75400.8 128926 93276.4 17571.8 35649.3 222528 205906 16662.7 16622 5930.15 75704.6 42314.6 30035.9 9200.33 189243 28379.5 67384.3 8016.52 10691.8 3709.89 14016 24424.7 3440.94 53368.4
internal_count=1528120 336903 333554 1191217 522370 668847 279480 400469 295942 51776 104527 621589 577083 44653 44506 16620 244166 121901 85494 54074 532430 80308 254449 25031 27886 11072 46564 70307 23431 207885
is_linear=0
shrinkage=0.05


Tree=27
num_leaves=31
num_cat=0
split_feature=7 7 2 7 1 8 7 5 3 2 2 3 2 0 13 8 0 2 4 2 4 3 4 4 5 2 1 2 2 4
split_gain=5386.1 2295.36 1917.55 888.521 630.431 564.102 489.603 573.561 495.321 448.481 431.062 391.66 365.93 354.91 336.632 388.649 598.009 364.134 268.389 253.259 238.699 235.118 298.628 236.712 213.468 192.272 184.072 178.971 170.594 250.659
threshold=0.021099813543293159 0.037942001645000077 0.042215734796968198 0.014190878840751965 3.2552615573613717 0.024943305001518114 0.059151320603718166 91.446165887984236 0.032258060349188163 0.033123026272269519 0.075268812980103558 -0.021322078637564024 -0.05165441574403596 1.1360200335155559 0.049582805423425615 0.084558818021809881 1.1916333188719421 0.059554688007690565 -0.087455331614535933 0.025675616382511219 -0.044883423040572669 -0.034825648659316776 -0.11012281020211105 -0.078488687809109142 55.997709692088854 -0.05165441574403596 1.5627741298049227 0.075268812980103558 0.0089186163714303438 0.029299060545591945
decision_type=2 2 2 2 2 2 2 2 2 2 2 2 2 2 2 2 2 2 2 2 2 2 2 2 2 2 2 2 2 2
left_child=3 2 5 19 6 21 10 8 -8 25 13 12 -7 -3 15 17 -17 -4 -13 20 -1 22 -2 -23 -11 -5 -12 -16 -27 -30
right_child=1 4 14 9 -6 11 7 -9 -10 24 26 18 -14 -15 27 16 -18 -19 -20 -21 -22 23 -24 -25 -26 28 -28 -29 29 -31
leaf_value=-0.0057845601476081776 0.0065303345253984249 0.013110385697990001 0.026416127085372013 0.09439501549213547 -0.0049177997321946569 0.025373769414881758 0.01614386376221116 0.0096215673558323351 0.025483796883390593 0.052992626519251622 0.038743352651425589 0.021539515859892822 0.0020203779332926167 0.0081360692867964695 0.0055227328020801408 -0.035697322533691712 0.032621939826174652 0.050215511717368592 0.0086980112388169543 0.057665571495948635 -0.038950407974063656 0.011753430037715203 -0.0085490365655352309 0.001816687864312409 -0.0098899106443917431 -0.012824985094451728 0.019664221143081032 0.027086950226148293 0.0059863914057138971 -0.018241073312832822
leaf_weight=628.90788342058659 4725.6096957027912 132708.10447238386 3751.701409727335 43.99772721529007 4649.9590378850698 1761.0219268798828 46361.198361992836 21541.731068983674 20459.563868656754 425.58206810057163 1797.0230918675661 4349.4883150458336 35326.935606509447 49134.920906335115 2492.4559487253428 508.04821440577507 866.75849503278732 2811.7148089408875 63063.357578545809 75.946821749210358 3949.1163299381733 6803.546889603138 10756.955841913819 50331.686429172754 197.63777263462543 15310.424515299499 4263.5620668828487 1567.1519699543715 3223.1092560216784 1596.3602066710591
leaf_count=3736 15112 376554 9812 110 14595 4870 126540 61348 53505 1005 4460 12351 110765 142118 7061 1675 2208 6702 191137 190 32525 22135 39240 177074 601 74503 11522 4081 13425 7160
internal_value=0.0092597 0.0104728 0.00621427 -0.0131431 0.0133396 0.00490389 0.0136469 0.0167164 0.0190036 -0.00872377 0.0122035 0.00725611 0.00312925 0.0117663 0.0255589 0.0315482 0.00737513 0.0366116 0.00952655 -0.0328919 -0.0343942 0.00151891 -0.00394649 0.00299993 0.0330511 -0.0100143 0.0253214 0.0138473 -0.0102425 -0.00203851
internal_weight=495484 470032 189116 25451.1 280916 177119 276266 88362.5 66820.8 20797.1 187904 104501 37088 181843 11997.8 7938.22 1374.81 6563.42 67412.8 4653.97 4578.02 72617.8 15482.6 57135.2 623.22 20173.9 6060.59 4059.61 20129.9 4819.47
