tree
version=v4
num_class=1
num_tree_per_iteration=1
label_index=0
max_feature_idx=13
objective=binary sigmoid:1
feature_names=v_ratio v_dry ma20_bias atr_14_ratio hl_ratio cost_concentration vp_corr_10 intraday_pos mom_accel smart_vol_5d amihud_shock smart_dumb_diff divergence_rank rs_rank
feature_infos=[0:2.1340381636263941] [0.011847671454915033:2.1282430438850044] [-0.16396313543810864:0.17169741498805913] [9.2923086244687706e-05:0.079999987200002051] [0:0.081080385618077913] [0.011970906939364293:1.144515252960397] [-0.96833138791640128:0.99138740902772571] [0:0.99999999888431723] [-0.13635313156603271:0.13905517104036189] [0.044946123555572481:0.90289568512550222] [4.0713246363035536e-16:0.0004334865385676839] [-0.022112192297901668:0.024888754754137852] [0.016666666666666666:1] [0.018960940462646948:100]
tree_sizes=3490 3531 3529 3515 3520 3516 3537 3502 3536 3538 3547 3544 3549 3537 3527 3527 3559 3545 3508 3537 3548 3536 3560 3517 3538 3540 3527 3527 3531 3534 3533 3525 3531 3539 3534 3540 3549 3566 3537 3583 3567 3542 3572 3569 3535 3535 3550 3581 3546 3611 3607 3547 3596 3568 3542 3578 3552 3565 3562 3572 3586 3593 3584 3565 3595 3570 3569 3599 3570 3603 3562

Tree=0
num_leaves=31
num_cat=0
split_feature=3 3 3 4 1 2 3 13 4 1 2 1 12 4 3 6 13 10 3 3 4 10 2 13 6 13 10 5 2 3
split_gain=63801.8 13584.2 8729.24 5149.8 3956.12 3943.39 3526.99 2281.58 1949.27 1937 1899.29 1169.9 992.117 980.876 904.482 843.601 789.307 771.634 702.563 491.449 340.186 320.906 309.033 287.386 262.18 251.406 194.967 181.979 161.835 127.714
threshold=0.022758071267501834 0.033661729273229878 0.016573362836526048 0.024999996972131986 1.5099293751906189 0.17166676208370385 0.048246714622803624 79.332952427112431 0.024874726465951045 1.4070411240987362 0.15152948649080109 1.6044397482510067 0.10833333333333335 0.015954760746189713 0.019400350904799739 0.50030089382492893 75.167080413904031 1.9917172169931958e-06 0.028136248772268359 0.026818464142388688 0.078714579605838803 0.00036973609706085015 -0.0066857678988453571 74.396502217185756 0.67893130054381623 72.114741055889667 6.7240655754058286e-05 0.28896611057400268 -0.072968864198083391 0.014915970880933988
decision_type=2 2 2 2 2 2 2 2 2 2 2 2 2 2 2 2 2 2 2 2 2 2 2 2 2 2 2 2 2 2
left_child=2 3 11 13 14 6 8 -8 -3 18 -11 17 25 27 26 28 24 22 -5 -15 -18 -16 -1 -17 -7 -13 -4 -2 -6 -19
right_child=1 5 4 9 15 16 7 -9 -10 10 -12 12 -14 19 21 23 20 29 -20 -21 -22 -23 -24 -25 -26 -27 -28 -29 -30 -31
leaf_value=-1.0019102873276711 -0.97722697416414561 -0.94534669064569765 -0.98680964689767681 -0.95199836017010897 -0.89678510422247393 -0.96580594515476326 -0.92530439819701271 -0.93722866880809752 -0.93502893699777145 -0.92970802495251026 -0.98452356663950069 -0.88996420142156552 -0.98857954940723824 -0.95969319416307575 -0.97221416686150464 -0.91655080370445596 -0.9471665241761037 -0.99801239846400713 -0.9429130845935918 -0.95172372420828788 -0.96192316197243499 -0.95825980663419319 -1.0138234459152782 -0.94929280434023877 -1.010800136210255 -0.99338594508696243 -0.9769758365736082 -0.9646899184361063 -0.95960988744159503 -0.98667271534119882
leaf_weight=3269.509907990694 1236.9483277499676 20797.144012153149 5023.3088794350624 11669.915670484304 38.313666939735413 185.16762852668762 53641.951124578714 19761.936055958271 79378.816142350435 12074.854453474283 597.01447424292564 164.26838055253029 351.55032914876938 11199.227106541395 11902.147232443094 1306.2498009204865 2722.8020664155483 1786.3370092511177 22296.034200191498 18415.317433208227 2907.214942574501 1694.3429148197174 4891.8684833347797 295.925173163414 314.54942497611046 24.280944257974625 2840.5843812823296 6612.0190692842007 1001.7232863605022 1789.1868329644203
leaf_count=15257 5137 72577 21863 42340 95 725 164832 65627 259975 38210 2570 384 1543 42425 48188 3776 9605 8191 76679 66708 11148 6368 24040 1057 1526 109 11782 25735 3793 7782
internal_value=-0.944138 -0.939002 -0.981382 -0.948954 -0.970894 -0.934345 -0.93351 -0.928515 -0.937171 -0.9423 -0.932291 -1.00197 -0.958802 -0.957237 -0.975159 -0.936256 -0.957994 -1.00396 -0.946035 -0.954738 -0.954787 -0.970475 -1.00905 -0.922598 -0.994128 -0.903283 -0.983257 -0.966666 -0.957296 -0.992338
internal_weight=300191 263811 36379.6 84101.3 24102.6 179710 173580 73403.9 100176 46637.8 12671.9 12277 540.1 37463.5 21460.4 2642.21 6129.73 11736.9 33965.9 29614.5 5630.02 13596.5 8161.38 1602.17 499.717 188.549 7863.89 7848.97 1040.04 3575.52
internal_count=1040047 885819 154228 299804 96922 586015 563011 230459 332552 159799 40780 57306 2036 140005 88201 8721 23004 55270 119019 109133 20753 54556 39297 4833 2251 493 33645 30872 3888 15973
is_linear=0
shrinkage=1


Tree=1
num_leaves=31
num_cat=0
split_feature=3 3 3 4 2 3 4 8 8 13 8 2 8 10 13 4 10 6 9 8 3 13 9 12 12 4 4 6 4 10
split_gain=58147.9 14557.1 5952.45 4423.85 3625.7 3915.35 2634.85 2464.47 2020.26 1959.69 1878.4 1572.73 1097.27 858.357 731.396 714.935 628.061 610.922 572.602 463.923 452.632 402.991 399.242 236.125 227.576 150.104 133.037 125.296 113.975 89.0038
threshold=0.021569489696469556 0.031606904318085043 0.016573362836526048 0.023419202360017533 0.17166676208370385 0.047073678585797953 0.028070981994132289 0.05152454839060161 0.047556163684180149 80.475187253542273 0.04485607460665815 0.15152948649080109 0.13905216936675158 1.9917172169931958e-06 85.442976634172567 0.013966476496177592 0.00012452065406517356 -0.20930884008004677 0.50112232774631515 0.0078144718388787043 0.026818464142388688 64.133219890338452 0.4358503026138395 0.10833333333333335 0.32500000000000001 0.017471735076544443 0.076583204502098295 -0.39165002798867188 0.018691587129630233 2.7283310934705266e-06
decision_type=2 2 2 2 2 2 2 2 2 2 2 2 2 2 2 2 2 2 2 2 2 2 2 2 2 2 2 2 2 2
left_child=2 3 8 15 5 6 -3 16 13 -7 17 -12 26 22 -14 27 18 -5 -4 -18 -17 24 -1 29 -9 -15 -6 -2 -23 -10
right_child=1 4 7 10 12 9 -8 21 23 -11 11 -13 14 25 -16 20 19 -19 -20 -21 -22 28 -24 -25 -26 -27 -28 -29 -30 -31
leaf_value=-0.022180763253351405 -0.0052149337729237083 0.031914500219221716 0.0028729333044333017 0.021189569576098168 0.035760686230475791 0.049680048608881887 0.041591056176349457 0.077391296170309487 0.098777380046219193 0.038943470249527365 0.048957416391389785 -0.013932834044485297 -0.021881106570496599 -0.016496700811024265 0.013667759584111983 0.015323084830183208 0.0036420530499005235 0.031089638565657558 -0.010805495645143113 0.022353457887731874 0.0231029629316887 -0.027723764872745606 -0.035656474408274005 0.015548012381316185 0.029274267968929232 -0.0030417194636928871 0.024069896996815533 0.0082456625581960458 0.029942068270355091 0.017746196172715285
leaf_weight=3350.0769935846329 747.81035241484642 38036.836082354188 7740.0195421874523 7054.2624980956316 1835.7796235829592 60809.545167595148 75782.221824258566 484.20901457965374 133.60988320410252 20444.107472613454 7000.46959631145 377.15343923866749 685.09942407906055 2739.1459511518478 2173.1640895754099 14421.186918482184 3228.7549552321434 27397.707401350141 4276.0528279840946 1890.9896139204502 12620.427657619119 41.091358661651611 4833.5455131977797 49.364648327231407 108.2406761944294 1025.6324068754911 1675.7010376006365 3710.4024636894464 123.73361897468567 13.425474643707274
leaf_count=15792 3186 130388 31837 25819 6167 183446 243036 1193 259 66765 21404 1689 3184 12483 8342 55084 13179 94532 18803 6947 45875 195 24154 193 381 4375 6093 14766 430 50
internal_value=0.0327226 0.0370549 -0.00690756 0.0256101 0.041221 0.0419483 0.0383573 0.00409482 -0.0231175 0.0469786 0.0320044 0.0457424 0.0189481 -0.0246862 0.00514702 0.0171189 0.00175429 0.0290625 -0.00199469 0.0105532 0.018954 0.0570571 -0.03014 0.0723188 0.0686003 -0.0128312 0.0301818 0.00598781 0.0155658 0.0913786
internal_weight=304810 274772 30037.9 73329.4 201442 195073 113819 17893.1 12144.8 81253.7 41829.6 7377.62 6369.74 11948.4 2858.26 31499.8 17135.8 34452 12016.1 5119.74 27041.6 757.275 8183.62 196.4 592.45 3764.78 3511.48 4458.21 164.825 147.035
internal_count=1040047 909776 130271 262355 647421 623635 373424 72965 57306 250211 143444 23093 23786 56804 11526 118911 70766 120351 50640 20126 100959 2199 39946 502 1574 16858 12260 17952 625 309
is_linear=0
shrinkage=0.03


Tree=2
num_leaves=31
num_cat=0
split_feature=3 3 3 1 2 3 1 4 8 13 4 2 8 8 10 8 3 13 8 4 10 13 1 2 13 10 4 4 4 11
split_gain=53230.3 13100.3 5671.24 4853.48 3264.89 3507.06 2496.83 2338.29 1882.55 1813.99 1747.84 1237.3 1453.68 1007.73 834.467 784.829 774.692 689.341 598.638 510.842 489.995 427.073 364.163 313.988 201.784 187.36 143.403 120.365 67.6801 35.8514
threshold=0.021569489696469556 0.031606904318085043 0.016573362836526048 1.327676623947428 0.17166676208370385 0.048246714622803624 1.6261494165036072 0.028070981994132289 0.047556163684180149 83.883864938585333 0.021716647011901662 0.15152948649080109 0.041543193120913008 0.13905216936675158 1.9917172169931958e-06 0.041543193120913008 0.025255028460031193 85.442976634172567 0.073103520079789264 0.013966476496177592 5.1704939156416072e-05 76.675219834580318 1.4637423261241838 -0.0047277191357603561 75.167080413904031 0.00032908738012415117 0.017471735076544443 0.076583204502098295 0.014397904784417449 -0.012053130591216684
decision_type=2 2 2 2 2 2 2 2 2 2 2 2 2 2 2 2 2 2 2 2 2 2 2 2 2 2 2 2 2 2
left_child=2 3 8 10 5 7 18 -3 14 -7 19 12 -5 27 23 25 -12 -15 20 -2 -4 -13 -10 -1 -17 -8 -16 -6 -20 -24
right_child=1 4 6 11 13 9 15 -9 22 -11 16 21 -14 17 26 24 -18 -19 28 -21 -22 -23 29 -25 -26 -27 -28 -29 -30 -31
leaf_value=-0.022920159103259209 0.0056342490009793729 0.030857570547556997 -0.0047997485889460113 0.033873244612176806 0.034144922798488214 0.047404980627855385 0.017598001594742892 0.039701130526884343 -0.020476754014427206 0.036159644167058275 0.016847500090144352 -0.03622435235771912 0.053844684171191502 -0.021442725378375754 -0.016126259093177268 0.074641397582140417 0.027644248215809228 0.01317662616129282 -0.026551046025382628 0.016846470287223438 0.0055951521007993246 0.029777834399294222 -0.0024652813669888613 -0.034856959346463309 0.018491818318282918 0.054642251946633774 -0.0029546457326659983 0.023096749491613437 0.083537700555482014 0.088539115214089276
leaf_weight=3512.0200020968914 4424.1910504847765 40053.136752486229 8523.7149106115103 8081.9324675947428 1864.5177227258682 60112.2514885813 749.05431888997555 81991.067894294858 34.639880612492561 16441.283879607916 7686.4512486606836 246.72914895415306 5520.8231032937765 678.23750570416451 2718.3251806795597 518.04799063503742 26959.680118709803 2186.3347056806087 5.3371886312961569 21094.916655182838 7830.6787885427475 137.34983186423779 3.9910653531551352 4556.146640047431 64.807765781879425 146.99279648065567 1024.2045295238495 1693.6341513544321 86.184306368231773 163.63666716217995
leaf_count=16834 17782 135074 36516 26705 6167 177318 2781 258102 160 53141 28524 1228 15674 3184 12483 1226 93204 8342 25 78744 31563 494 16 23112 238 425 4375 6093 191 326
internal_value=0.0312903 0.0353671 -0.00672604 0.0245611 0.0392754 0.0399562 0.00396323 0.0367988 -0.0226757 0.0449898 0.0208605 0.0404795 0.0419789 0.0182238 -0.0242299 0.041301 0.0252489 0.00497989 0.000605626 0.0149026 0.000177454 -0.0126214 0.0680736 -0.0296609 0.0683981 0.023675 -0.0125216 0.0288861 0.0771177 0.0863724
internal_weight=309110 279173 29937.8 74152.1 205020 198598 17924.8 122044 12013 76553.5 60165.2 13986.8 13602.8 6422.72 11810.7 1478.9 34646.1 2864.57 16445.9 25519.1 16354.4 384.079 202.268 8068.17 582.856 896.047 3742.53 3558.15 91.5215 167.628
internal_count=1040047 909776 130271 262355 647421 623635 72965 393176 57306 230459 218254 44101 42379 23786 56804 4670 121728 11526 68295 96526 68079 1722 502 39946 1464 3206 16858 12260 216 342
is_linear=0
shrinkage=0.03


Tree=3
num_leaves=31
num_cat=0
split_feature=3 3 3 1 2 3 1 8 13 3 2 8 8 8 1 10 13 3 13 9 1 1 10 10 13 9 2 7 3 12
split_gain=48831.4 11840.3 5403.85 4407.11 2951.59 3150.87 2317.47 1759.35 1670.5 1634.41 1130.69 1305.07 955.077 926.995 907.164 808.817 649.848 424.463 405.569 393.132 368.124 350.198 269.874 204.212 197.488 183.646 161.968 128.322 124.284 35.603
threshold=0.021569489696469556 0.031606904318085043 0.016573362836526048 1.327676623947428 0.17166676208370385 0.049014519013501255 1.5099293751906189 0.046658178033420893 79.332952427112431 0.026207481325079378 0.15152948649080109 0.045748498836444211 0.031535419371071675 0.13905216936675158 0.94424588419571764 1.9917172169931958e-06 85.442976634172567 0.018856647616787157 76.675219834580318 0.4358503026138395 0.7668253809195209 1.4637423261241838 0.00019918503381897957 4.9065324867553599e-05 59.166267894334418 0.50112232774631515 -0.071369412427641721 0.820610369327477 0.014915970880933988 0.15833333333333335
decision_type=2 2 2 2 2 2 2 2 2 2 2 2 2 2 2 2 2 2 2 2 2 2 2 2 2 2 2 2 2 2
left_child=2 3 7 9 5 14 17 15 -7 22 11 -5 26 27 -3 19 -15 25 -12 -1 -11 -9 -2 -19 -14 -4 -8 -6 -17 -23
right_child=1 4 6 10 13 8 12 21 -10 20 18 -13 24 16 -16 28 -18 23 -20 -21 -22 29 -24 -25 -26 -27 -28 -29 -30 -31
leaf_value=-0.021231165617989566 0.011743055688292542 0.033125422755984013 -0.0020704884906056291 0.032991684168461974 0.033105835205323453 0.045780167112353116 0.080730130134513342 -0.021549246846764729 0.035616260782553602 0.020382923386451941 -0.035747403888753242 0.052102107849322482 0.066082009741001271 -0.021012708802685978 0.038248176631069761 -0.017764975647529019 0.012706861650092402 -0.00074147898861700559 0.02849092681683086 -0.034790580849757106 0.026477355728967873 0.084416248085016271 0.018630215639210263 0.0079074087556837772 0.035945399591088743 -0.012783947173180554 0.012583181416038683 0.021771581893657146 -0.0067908440129602786 0.041179152777485781
leaf_weight=3267.1519810259342 16273.32829323411 74411.715101629496 3805.5345069020987 8757.0990712344646 1875.259021922946 54087.00141108036 32.421735361218452 37.01200857758522 19911.093249037862 15041.234994769096 242.58328983187675 5082.8687043339014 641.59851180016994 671.45746217668056 53465.388200506568 1852.2164303213358 2198.9506500065327 4552.2217435538769 139.21782283484936 4682.4881463944912 21919.048817157745 160.37916688621044 7471.6891832798719 5338.1994663625956 281.59386526048183 2316.6133359372616 985.57888427376747 1726.8413466960192 1862.9805105179548 19.191213309764862
leaf_count=15785 61999 239714 16073 28386 6151 155608 74 174 62839 53910 1228 13993 1565 3184 165474 8642 8342 19111 494 24147 75131 302 27214 21163 896 10353 3730 6109 8195 61
internal_value=0.029956 0.0338009 -0.00654985 0.0235733 0.037479 0.0381183 0.00383655 -0.0222445 0.0430453 0.0200516 0.0386052 0.0400102 0.0347927 0.0175374 0.0352672 -0.0238175 0.00481904 8.37574e-05 -0.0123239 -0.0292179 0.0239972 0.0624765 0.0139102 0.00392662 0.0568897 -0.00612445 0.0147536 0.0276722 -0.012262 0.0797954
internal_weight=313110 283275 29835.2 74927.1 208348 201875 17953.8 11881.4 73998.1 60705.3 14221.8 13840 1941.19 6472.51 127877 11664.8 2870.41 16012.6 381.801 7949.64 36960.3 216.582 23745 9890.42 923.192 6122.15 1018 3602.1 3715.2 179.57
internal_count=1040047 909776 130271 262355 647421 623635 72965 57306 218447 218254 44101 42379 6265 23786 405188 56769 11526 66700 1722 39932 129041 537 89213 40274 2461 26426 3804 12260 16837 363
is_linear=0
shrinkage=0.03


Tree=4
num_leaves=31
num_cat=0
split_feature=3 4 3 3 2 3 1 1 3 1 0 6 12 12 3 4 1 12 3 11 7 7 9 3 9 4 2 6 3 2
split_gain=44881.5 10832.6 5158.03 3413.9 3146.03 2969.61 2263.98 1943.13 1114.29 892.368 874.125 848.196 688.042 596.413 498.911 439.156 388.515 387.784 380.044 338.049 289.547 285.792 280.644 241.966 204.769 198.394 147.262 139.325 101.671 98.4563
threshold=0.021569489696469556 0.024735825067102101 0.016205057806040576 0.038392114791445907 0.17166676208370385 0.038700233678001843 1.5099293751906189 1.4070411240987362 0.027266222905352241 1.6044397482510067 0.81394061860725853 0.7666737126402281 0.10833333333333335 0.35833333333333334 0.018856647616787157 0.016129030469616983 1.3947123830378667 0.058333333333333341 0.011393882159678443 -0.020192562391165934 0.820610369327477 0.99251326261012773 0.4358503026138395 0.043435056780289957 0.50112232774631515 0.010471202689206619 0.021162644996912023 -0.13395452075952405 0.020430272940716473 -0.028213151772297673
decision_type=2 2 2 2 2 2 2 2 2 2 2 2 2 2 2 2 2 2 2 2 2 2 2 2 2 2 2 2 2 2
left_child=2 3 9 8 5 7 14 -3 16 18 -7 20 26 21 24 -10 -2 -13 29 27 -6 -8 -20 -21 -4 -16 -11 -5 -15 -1
right_child=1 4 6 19 11 10 13 -9 15 12 -12 17 -14 28 25 -17 -18 -19 22 23 -22 -23 -24 -25 -26 -27 -28 -29 -30 -31
leaf_value=-0.007036101160258529 0.012240269967071574 0.029398539193975708 -0.0026746529166811386 0.031197152989688677 0.029478368500864622 0.041965582246310751 0.038069483377959165 0.039923805912382322 0.013921920148506364 0.0027162871465250919 0.036925325840879514 -0.019549276288922304 -0.010788218214638434 0.0057727920869183333 -0.013295634595844763 0.023496349878337448 0.034531812984592535 0.0092973703560798246 -0.013878460407067285 0.027923367152171807 0.014511322913316442 0.07204657533505357 -0.02582209246255782 0.03499071492204657 -0.013332778153481998 0.0048560233478710003 0.074638903468111278 0.062128527531090091 0.028201259038279535 -0.034741671427878942
leaf_weight=120.21244679391384 20651.80615028739 63777.519100338221 4289.7113230824471 178.23192682862282 2201.3267841786146 58236.907392323017 928.40823309123516 20978.919448792934 5174.1301272660494 30.772009313106537 66136.162361383438 736.63071858882904 306.90439726412296 550.95259948074818 575.33250778913498 25863.162849456072 728.4936265796423 973.94574457406998 2963.577362254262 7034.7417422086 2466.9573675245047 293.15484203398228 4398.6245357692242 11466.907364249229 2609.1014785766602 9332.3358600586653 153.07469855248928 495.19652855396271 271.56390753388405 2907.0412364602089
leaf_count=551 77861 207391 18274 567 7323 169239 2829 62260 19023 127 199399 3398 1396 2138 2558 88501 2317 3794 13872 23170 9104 652 21947 35184 11826 37716 308 1245 919 15158
internal_value=0.028709 0.0323425 -0.00637866 0.0222321 0.0357012 0.0363343 0.00311462 0.0320038 0.0182699 -0.0228263 0.0392854 0.014947 0.0167049 0.0329262 -0.000511197 0.0219002 0.0129998 -0.00312495 -0.0246936 0.0330635 0.021569 0.0462234 -0.0210143 0.0323036 -0.00670551 0.00380197 0.0626006 0.0539421 0.0131778 -0.0336415
internal_weight=316832 287101 29730.8 71592.7 215508 209130 18850.6 84756.4 52417.6 10880.2 124373 6378.86 490.751 2044.08 16806.5 31037.3 21380.3 1710.58 10389.5 19175.1 4668.28 1221.56 7362.2 18501.6 6898.81 9907.67 183.847 673.428 822.517 3027.25
internal_count=1040047 909776 130271 247868 661908 638289 76912 269651 187702 53359 368638 23619 1831 6538 70374 107524 80178 7192 51528 60166 16427 3481 35819 58354 30100 40274 435 1812 3057 15709
is_linear=0
shrinkage=0.03


Tree=5
num_leaves=31
num_cat=0
split_feature=3 3 3 1 1 2 3 8 13 3 2 6 8 10 8 1 3 13 13 1 2 10 1 10 13 8 10 3 11 5
split_gain=41329.4 8343.65 6684.46 3341 2796.85 2381.41 2169.71 1588.13 1547.23 1450.35 1079.56 1253.78 1004.82 767.89 757.07 715.074 675.716 560.503 455.958 387.783 324.668 305.26 289.085 257.769 229.703 190.181 187.387 111.214 95.6061 68.5132
threshold=0.022758071267501834 0.033661729273229878 0.016573362836526048 1.2105539274411288 1.5099293751906189 0.17166676208370385 0.050893542544693547 0.039959318934073798 79.332952427112431 0.027266222905352241 0.17166676208370385 0.48782905111506991 0.034089756647855227 1.9917172169931958e-06 0.10768976842911412 0.61304396041403431 0.019400350904799739 85.442976634172567 77.42949730406842 1.4637423261241838 -0.0066857678988453571 0.000419061312817138 0.66276040560184846 0.00036973609706085015 74.396502217185756 0.066634164515105551 0.0003486162800898363 0.014915970880933988 0.011769944775619061 0.25588267213798394
decision_type=2 2 2 2 2 2 2 2 2 2 2 2 2 2 2 2 2 2 2 2 2 2 2 2 2 2 2 2 2 2
left_child=2 3 7 9 16 6 15 13 -8 22 11 -5 26 20 28 -3 25 -16 -12 -9 -1 -11 -2 -18 -14 -4 -6 -15 -7 -21
right_child=1 5 4 10 12 14 8 19 -10 21 18 -13 24 27 17 -17 23 -19 -20 29 -22 -23 -24 -25 -26 -27 -28 -29 -30 -31
leaf_value=-0.021113613924573039 0.0083779245906684969 0.028470717004900965 -0.0048302343140456967 0.027808199208355876 0.012961919298842214 0.03436830603736607 0.042609927739051506 -0.0064882549627076659 0.032396184915287507 0.022513475719177046 -0.038210481205297887 0.042285536843739688 0.058278466830393449 -0.017130716090222764 -0.017006764430324388 0.034227649628060845 0.0049617367622321511 0.013318372599750088 0.025450376558533567 0.074718424409058196 -0.033677061143037257 0.028960043412338744 0.016290597143264508 0.017277943918103857 0.022160986773903647 0.064412065285976747 0.042179299208736899 -0.0066206557267560308 0.023405899163547801 0.027720568128026105
leaf_weight=3102.9827010929585 5362.8549872785807 24252.121852010489 7783.1099820137024 11042.57403844595 1276.579528182745 1236.6512555927038 48577.878217026591 89.918873071670532 18406.029902413487 35193.531241908669 259.61994461715221 10505.91396343708 1142.4458944797516 1806.9819702506065 684.68561793863773 97424.704133152962 12101.604854121804 2758.8634713441133 165.99898856878281 184.2348692715168 4589.1533075273037 8139.8330181092024 18457.630832031369 1750.636325865984 184.00502544641495 35.864362895488739 233.73163960874081 1817.562911272049 1700.6741947829723 32.902029305696487
leaf_count=15388 20455 76915 33551 35365 4658 3886 134610 412 56427 119239 1350 29965 2761 8599 3173 295059 48188 10187 586 355 24344 26306 66538 6368 614 94 688 8096 5758 112
internal_value=0.02754 0.0313826 -0.00268149 0.0237782 0.00620498 0.0348576 0.0354673 -0.0214181 0.0398034 0.0204556 0.0339321 0.0348666 0.0342162 -0.0232447 0.0168326 0.0330802 0.00253831 0.00728878 -0.0133816 0.0459017 -0.028609 0.0237244 0.0145092 0.00651825 0.0532683 -0.00451263 0.0174835 -0.0118603 0.0280212 0.067597
internal_weight=320301 284170 36131.7 89128 24508 195042 188661 11623.7 66983.9 67153.9 21974.1 21548.5 2836.76 11316.7 6380.87 121677 21671.2 3443.55 425.619 307.056 7692.14 43333.4 23820.5 13852.2 1326.45 7818.97 1510.31 3624.54 2937.33 217.137
internal_count=1040047 885819 154228 299804 96922 586015 563011 57306 191037 232538 67266 65330 8721 56427 23004 371974 88201 13360 1936 879 39732 145545 86993 54556 3375 33645 5346 16695 9644 467
is_linear=0
shrinkage=0.03


Tree=6
num_leaves=31
num_cat=0
split_feature=4 5 4 2 10 5 4 0 11 0 6 6 2 11 5 4 9 1 12 10 2 5 0 7 9 4 10 5 9 4
split_gain=33407.5 6704.62 5489.24 2773.21 2563.51 1762.94 1342.01 853.965 917.816 825.674 754.06 727.562 702.724 659.008 650.815 557.486 674.149 435.688 363.244 345.324 321.412 312.496 295.819 260.898 259.44 257.539 148.877 119.687 105.051 92.7295
threshold=0.01914580052272474 0.31320256917392691 0.028070981994132289 0.17166676208370385 1.1802027948684367e-06 0.32581714757009167 0.013745729664476385 0.81394061860725853 -0.018650747098774376 0.71562513422689467 0.7666737126402281 0.33186678872670689 0.017336662034645661 -0.014744594949412675 0.39518239383590881 0.0096310375646284346 0.44835158831153471 1.6044397482510067 0.058333333333333341 1.6427223818581803e-09 0.021162644996912023 0.48625081274618465 0.6257330055976057 0.820610369327477 0.522557735267836 0.014184386956853657 0.00043348328215559156 0.27081027153463444 0.33704405816140248 0.0091407742115593871
decision_type=2 2 2 2 2 2 2 2 2 2 2 2 2 2 2 2 2 2 2 2 2 2 2 2 2 2 2 2 2 2
left_child=1 4 5 7 15 12 14 8 -4 13 23 -9 24 -7 19 28 -17 -14 -12 -3 -11 22 -8 -5 -2 29 -16 -27 -1 -6
right_child=2 6 3 10 25 9 21 11 -10 20 18 -13 17 -15 26 16 -18 -19 -20 -21 -22 -23 -24 -25 -26 27 -28 -29 -30 -31
leaf_value=-0.023972304362124351 0.011545269377204506 -0.020571184073206624 0.0546969068300057 0.027533960878784867 -0.017634934877350791 0.051828671136956952 0.018602710121668729 0.030085141552747861 0.03577759917851215 0.021167885860566189 -0.019130842183622352 0.034985797394719118 0.019158033463931416 0.028668194082379174 0.0073424724091161212 -0.0043767727182215024 -0.02604392006859477 0.047491705104840361 0.0087994318770997729 -0.0012053446523619018 0.027580693921974705 0.01978842193006225 0.0094842173978088307 0.013396245261593028 -0.00045975692874705959 0.00037726087754215697 0.022658511727363124 0.0092215200900471733 -0.03561210136282527 -0.0040339610852102381
leaf_weight=994.8493929952383 5121.9234968572855 1196.8779113590717 2380.8627464175224 2232.5817928463221 519.99578528106213 1150.3201911747456 5071.9557577520609 61671.161159291863 75143.008614048362 27108.738347753882 732.5812574326992 48870.790247276425 4474.06970949471 28507.107538670301 3678.9765902608633 2321.1973647028208 2915.9159768074751 548.30029828846455 979.25877520442009 2693.9319012761116 9498.8158743232489 10134.15770149231 8684.9583352208138 2479.4550430774689 2369.7251974195242 3204.0577697753906 676.16395038366318 2415.1139550954103 2337.3560399264097 3407.5368483364582
leaf_count=5002 19069 5756 5839 7274 2428 2930 17803 187910 218762 90960 3415 143537 15643 90075 14249 10325 14649 1480 3788 11200 30273 34637 32819 9027 9542 13108 2256 9190 12560 14541
internal_value=0.0264424 0.00396199 0.0305765 0.0332826 -0.0106328 0.0238958 0.0121893 0.0339447 0.0363586 0.025846 0.0138996 0.0322517 0.0135687 0.0295665 0.00175424 -0.0225442 -0.0164406 0.0222513 -0.00315332 -0.0071626 0.0228319 0.0157909 0.0128461 0.0200948 0.00774789 5.90596e-05 0.00972039 0.00417851 -0.032137 -0.0058347
internal_weight=323522 50253 273269 194490 18116 78779 32137 188066 77523.9 66265 6423.88 110542 12514 29657.4 8245.95 8569.32 5237.11 5022.37 1711.84 3890.81 36607.6 23891.1 13756.9 4712.04 7491.65 9546.7 4355.14 5619.17 3332.21 3927.53
internal_count=1040047 200523 839524 579552 81803 259972 118720 556048 224601 214238 23504 331447 45734 93005 33461 42536 24974 17123 7203 16956 121233 85259 50622 16301 28611 39267 16505 22298 17562 16969
is_linear=0
shrinkage=0.03


Tree=7
num_leaves=31
num_cat=0
split_feature=3 3 3 1 3 13 8 4 3 8 8 5 7 1 4 3 8 7 8 1 3 6 9 1 4 13 8 6 13 9
split_gain=35882 8653.61 4482.23 3265.77 2092.26 2221.01 1994.16 1448.32 1225.41 1166.94 990.655 872.234 790.047 669.998 646.173 528.255 513.058 488.157 460.443 342.06 325.928 319.813 291.177 264.211 225.591 203.312 198.15 95.6721 77.0039 54.6501
threshold=0.021569489696469556 0.031606904318085043 0.01583696826538802 1.3382446665651471 0.047073678585797953 86.227829049583178 0.05152454839060161 0.024735825067102101 0.026207481325079378 0.039959318934073798 0.13905216936675158 0.51769038475296558 0.93939178819526081 1.6496395504695969 0.020016679344503227 0.018856647616787157 0.048498370777751432 0.99999748988227977 0.13905216936675158 1.327676623947428 0.011393882159678443 -0.21719608232781448 0.44715570298084217 1.4782669428468387 0.018549006923273183 69.425355658176997 0.022407406056697696 -0.34467334824878004 15.200763682427178 0.41056608542420997
decision_type=2 2 2 2 2 2 2 2 2 2 2 2 2 2 2 2 2 2 2 2 2 2 2 2 2 2 2 2 2 2
left_child=2 3 9 8 7 11 13 24 21 20 -9 -6 16 15 -10 -4 -5 -7 -14 28 29 -2 -22 27 -3 -21 -15 -11 -8 -1
right_child=1 4 6 12 5 17 19 10 14 23 -12 -13 18 26 -16 -17 -18 -19 -20 25 22 -23 -24 -25 -26 -27 -28 -29 -30 -31
leaf_value=-0.027814091421408484 0.0052983591958255787 0.018738793002924178 -0.0073004821061820602 0.025164582364738151 0.042340244819518591 0.027567021279976438 0.050705268313782331 0.03121940927614705 0.013728907914064345 0.070815850101150463 0.01078338328093556 0.035239189721948581 0.050263228277299281 0.010348606295548133 0.022600133566658392 0.0031220438601382316 0.038492702716638835 0.01086516935721194 -0.0067870809803128084 0.062668934488635197 -0.013519363676747454 0.013557798439616542 -0.026280533366943987 0.065043688740902619 0.024718162388650385 0.014999273825959815 0.035613265092890749 -0.024666702678543057 0.0020411997857776058 -0.03607243179251677
leaf_weight=1232.5626488476992 5416.8631217479706 8024.5909533202648 7739.3373469561338 8179.6650585383177 22367.44284273684 18306.981102108955 35.916134729981422 96014.74802583456 9960.6550152301788 11.552287936210631 2183.4207969754934 51211.28205755353 2547.798758149147 579.69652803242207 28629.308240249753 10072.923029243946 3810.2237696051598 1723.2218666523695 134.0190757215023 591.97292444109917 2875.7978637814522 19084.234830200672 3653.8251391947269 161.74955777823925 19425.889887288213 93.20104593038559 539.31508523225784 51.763630494475365 158.01108780503273 1738.2666267752647
leaf_count=6490 20614 26921 34203 25560 59586 56216 103 284902 35733 36 8052 143559 6441 2118 93892 40585 10533 6146 572 1260 13801 69010 18924 328 62039 316 1581 259 635 9632
internal_value=0.0254061 0.028542 -0.00612931 0.0199436 0.0315916 0.0349868 0.00205917 0.0290621 0.0169789 -0.0228088 0.030765 0.0373979 0.0326925 8.08376e-06 0.0203103 -0.00140649 0.0294001 0.0261301 0.0474122 0.046229 -0.0244083 0.0117317 -0.0206602 0.0447071 0.0229702 0.0561847 0.0225251 -0.00724546 0.011054 -0.0326461
internal_weight=326556 297020 29535.9 77762.8 219258 93608.9 19810.4 125649 63091.1 9725.52 98198.2 73578.7 14671.7 18931.3 38590 17812.3 11989.9 20030.2 2681.82 879.101 9500.45 24501.1 6529.62 225.065 27450.5 685.174 1119.01 63.3159 193.927 2970.83
internal_count=1040047 909776 130271 262355 647421 265507 80801 381914 219249 49470 292954 203145 43106 78487 129625 74788 36093 62362 7013 2314 48847 89624 32725 623 88960 1576 3699 295 738 16122
is_linear=0
shrinkage=0.03


Tree=8
num_leaves=31
num_cat=0
split_feature=3 3 3 4 2 3 8 4 6 8 7 11 8 10 9 10 4 8 9 6 3 7 4 5 6 4 8 4 3 11
split_gain=33183 7945.39 4279.64 2557.09 1967.62 2183.65 1849.19 1513.05 1205.44 1103.58 923.279 884.391 710.525 597.816 583.568 525.894 487.91 429.539 352.642 331.117 267.308 251.551 249.967 144.195 118.254 111.732 98.6403 79.4223 78.588 72.058
threshold=0.021569489696469556 0.031606904318085043 0.01583696826538802 0.023419202360017533 0.17166676208370385 0.050893542544693547 0.05152454839060161 0.024874726465951045 0.43930853616681237 0.039959318934073798 0.93939178819526081 -0.015508409646628939 0.13905216936675158 5.1704939156416072e-05 0.49878878663457038 1.1802027948684367e-06 0.014184386956853657 0.0073794356292396562 0.4358503026138395 -0.20930884008004677 0.026818464142388688 0.76922485211652136 0.018691587129630233 0.21307618293896377 -0.4214296688202307 0.052307680236689469 0.055884115418462769 0.010048305885248745 0.014915970880933988 0.0027702162584249167
decision_type=2 2 2 2 2 2 2 2 2 2 2 2 2 2 2 2 2 2 2 2 2 2 2 2 2 2 2 2 2 2
left_child=2 3 9 16 5 7 13 -3 19 15 -10 -7 26 14 -4 18 24 -15 -1 -5 -18 -14 29 27 -2 -24 -6 -11 -17 -8
right_child=1 4 6 8 12 11 22 -9 10 23 -12 -13 21 17 -16 28 20 -19 -20 -21 -22 -23 25 -25 -26 -27 -28 -29 -30 -31
leaf_value=-0.020468328101298432 -0.0068298936522869945 0.022837455580951366 0.00050634347546249416 0.01479465609857155 0.027671000095713227 0.045460241301920723 0.028043497504174016 0.030316489429039455 0.026949122915937814 0.011813336183252227 0.045514828070276833 0.034076195697222214 0.017492313694650471 0.00036463586858497286 -0.014572999190501361 -0.016355838168381358 0.011628142787452597 0.01378555395618696 -0.03439322513680293 0.022036691849699835 0.01748859413889324 -0.0021890017926819256 0.054229108944842376 0.0089402902468779539 0.0061453292018255621 0.013133422667001441 0.017969672090111178 0.069494282149440589 -0.0054261309828689827 -0.017066212286828485
leaf_weight=2845.0806759148836 742.94871744513512 30918.879683092237 6231.535523250699 7945.5550315082073 1925.0030574053526 6809.2663309425116 63.338923990726471 114496.98354773223 14464.365782141685 25.887835651636124 2892.9102935343981 62653.258876666427 806.4233283251524 5510.7664925456047 3670.1445555835962 1797.8126423209906 14827.105839073658 3515.3626910597086 3854.040778324008 19945.223615407944 13277.339683100581 2123.532627210021 698.40101937949657 75.361066877841949 4239.3407209515572 65.091831296682358 1849.5711809396744 126.30161462724209 882.82799369096756 64.146980211138725
leaf_count=14604 3089 98436 26055 27143 6017 17049 214 334162 44394 96 7551 173988 2866 22569 16787 8725 54126 13076 21542 64356 45384 8660 1613 290 16312 202 6243 237 3976 285
internal_value=0.0244311 0.0274138 -0.00597001 0.0192015 0.0303171 0.0308165 0.00199563 0.0287263 0.0238364 -0.0224022 0.0300434 0.0351921 0.0143128 7.4456e-06 -0.00508295 -0.0239859 0.0128629 0.00559162 -0.0284794 0.0199736 0.0143968 0.00322796 0.0442323 0.0428776 0.00421049 0.0507255 0.0229173 0.0596826 -0.0127563 0.00534568
internal_weight=329344 299918 29426.1 78334.8 221583 214878 19818.8 145416 45248.1 9607.31 17357.3 69462.5 6704.53 18927.8 9901.68 9379.76 33086.7 9026.13 6699.12 27890.8 28104.4 2929.96 890.979 227.551 4982.29 763.493 3774.57 152.189 2680.64 127.486
internal_count=1040047 909776 130271 262355 647421 623635 80801 432598 143444 49470 51945 191037 23786 78487 42842 48847 118911 35645 36146 91499 99510 11526 2314 623 19401 1815 12260 333 12701 499
is_linear=0
shrinkage=0.03


Tree=9
num_leaves=31
num_cat=0
split_feature=3 3 3 3 13 8 8 8 3 5 6 8 8 10 12 10 9 3 10 8 9 6 7 13 12 13 12 13 3 6
split_gain=30725.2 7314.44 4089.83 1792.65 2070.24 1597.32 1287.76 1177.27 1063.39 891.211 861.953 819.76 788.408 597.021 510.057 494.851 553.722 491.24 396.223 384.243 369.743 359.018 300.338 274.793 251.619 178.568 152.727 101.418 86.3026 73.1036
threshold=0.021569489696469556 0.031606904318085043 0.016205057806040576 0.050893542544693547 86.227829049583178 0.050541447313543549 0.048498370777751432 0.036265349914376591 0.025887398536140735 0.52911912992088317 0.27555424183041394 0.13905216936675158 0.13905216936675158 1.9917172169931958e-06 0.10833333333333335 4.732654042420477e-05 0.52123373024027753 0.038392114791445907 0.00025079314270284777 0.0073794356292396562 0.4358503026138395 -0.17884258583065654 0.99999748988227977 64.133219890338452 0.10833333333333335 15.575879396255239 0.32500000000000001 59.925495901535371 0.014915970880933988 -0.53274291641571148
decision_type=2 2 2 2 2 2 2 2 2 2 2 2 2 2 2 2 2 2 2 2 2 2 2 2 2 2 2 2 2 2
left_child=2 6 7 11 9 15 8 13 21 -5 25 17 -12 20 -13 16 -4 -3 -10 -17 -1 -2 -6 26 27 -8 -7 -9 -15 -26
right_child=1 3 5 4 22 23 10 24 18 -11 12 14 -14 28 -16 19 -18 -19 -20 -21 -22 -23 -24 -25 29 -27 -28 -29 -30 -31
leaf_value=-0.019635733653341998 0.0057538167501961857 0.025551771449875596 0.00040224477739817291 0.041279217831044504 0.024922375454372467 0.055915035456149446 0.028262332767797074 0.066150328112738549 0.017992583670738718 0.033164644356934003 0.036238609369943962 -0.0028063719138729385 -0.0087461429262894012 -0.016180036392689556 0.021900525899879168 0.00049564135751260243 -0.015789289129139766 0.029060851170983688 0.024096892024878091 0.013160161634019929 -0.033660336735924508 0.01418837517406512 0.010588505449889495 0.0093126934157822354 0.091903013341802203 0.0064725380362032235 0.019924283644887655 -0.0042979757216748361 -0.0059842201811791855 0.0011115352204689663
leaf_weight=2928.2003345638514 5908.0538832992315 62847.144910231233 6285.3487830460072 17603.449093848467 15413.747251793742 596.09627382457256 436.77683620154858 161.03218875825405 30222.660831749439 39546.968704611063 6790.3612209409475 1249.8358050882816 369.73351120948792 1745.6819737702608 1887.9995645135641 5530.1694342195988 2725.0364556610584 83752.318828165531 14004.40423117578 3533.9131747484207 4007.0037293732166 19641.217961624265 1438.3776723593473 194.02626523375511 8.4419423341751081 1504.1248050183058 129.09594185650349 20.762893617153168 1306.2813216298819 146.37740130722523
leaf_count=15148 22087 189620 26246 44779 46504 1294 1345 291 100509 107511 18594 5081 1544 8545 6098 22602 12585 242776 44232 13073 22746 68741 5052 687 21 5303 425 86 5888 634
internal_value=0.0235093 0.0263503 -0.00581481 0.0291196 0.0329393 0.00244605 0.018495 -0.0210131 0.0171106 0.0356641 0.0291088 0.0272318 0.0339157 -0.022873 0.0120595 0.000484092 -0.00449461 0.0275565 0.0199255 0.0054333 -0.0277388 0.012238 0.0236989 0.0410238 0.0341686 0.0113761 0.0495081 0.0581044 -0.0118161 0.00606219
internal_weight=331935 302617 29317.5 223740 74002.5 18993.7 78877.3 10323.8 69776.3 57150.4 9101 149737 7160.09 9987.17 3137.84 18074.5 9010.39 146599 44227.1 9064.08 6935.2 25549.3 16852.1 919.218 336.614 1940.9 725.192 181.795 3051.96 154.819
internal_count=1040047 909776 130271 647421 203846 76912 262355 53359 235569 152290 26786 443575 20138 52327 11179 74506 38831 432396 144741 35675 37894 90828 51556 2406 1032 6648 1719 377 14433 655
is_linear=0
shrinkage=0.03


Tree=10
num_leaves=31
num_cat=0
split_feature=3 4 3 3 3 1 13 8 6 8 3 3 4 8 10 7 3 1 4 8 3 5 5 13 3 10 6 4 10 5
split_gain=28479.3 6954.88 3906.23 2254.71 1660.63 1537.03 1431.98 1254.12 1166.47 1110.27 1014.03 737.297 724.709 662.792 648.068 600.487 442.025 356.135 329.278 236.022 219.5 232.727 199.375 141.063 133.498 104.643 104.09 101.667 100.991 83.5807
threshold=0.021569489696469556 0.024735825067102101 0.016573362836526048 0.038392114791445907 0.038700233678001843 1.4782669428468387 87.01224649083268 0.036265349914376591 0.4354452485863432 0.13905216936675158 0.052315880082202927 0.028136248772268359 0.015954760746189713 0.031535419371071675 1.9917172169931958e-06 0.99999666794619235 0.026818464142388688 1.4782669428468387 0.011224488600893446 -0.0070312905349200613 0.043435056780289957 0.46115056805108395 0.31086933163326813 74.396502217185756 0.01063274604942599 0.00034341974160155027 0.065241779773472716 0.017471735076544443 2.7283310934705266e-06 0.30850308783067265
decision_type=2 2 2 2 2 2 2 2 2 2 2 2 2 2 2 2 2 2 2 2 2 2 2 2 2 2 2 2 2 2
left_child=2 3 7 12 8 18 10 14 11 -10 -6 -3 22 25 24 -8 -14 26 28 -20 29 -22 -2 -15 -1 -7 -9 -16 -4 -5
right_child=1 4 5 20 6 13 15 17 9 -11 -12 -13 16 23 27 -17 -18 -19 19 -21 21 -23 -24 -25 -26 -27 -28 -29 -30 -31
leaf_value=-0.033510186194675599 -3.6421409337297032e-05 0.015744618043795879 -0.020572435129773206 0.0087015954646179582 0.02902318459275588 0.00720041241555154 0.025165544525075429 0.037325669207991567 0.030006370040171197 -0.00046785505553491964 0.034775664093321355 0.023959928912687285 0.011736698281827988 0.047648291659920718 -0.014214077465618443 0.0099631101989772486 0.018150020323999323 0.054747148493331475 -0.0037826839287189817 0.0042101597670138394 0.034432022316506543 0.025652356424913588 0.0095890234378754463 0.01384349881678291 -0.024327067541156204 0.033793964161220595 -0.018568363131505998 -0.0027146015135997696 -0.0062193096089145136 0.022624569228271777
leaf_weight=1963.320389971137 2484.2684460729361 12748.736866593361 779.83554509282112 410.39696241915226 65196.106277033687 1008.3949499577284 23374.296374633908 41.002088367938995 34222.934787660837 1110.9164178520441 47799.162107765675 42972.528279513121 14534.754399761558 925.03969703614712 2557.5113516300917 2598.348856985569 28910.866112992167 246.83649948239326 5349.2567758262157 8786.6530508100986 3899.4662581384182 8962.9448860436678 8787.4217487573624 126.25978800654411 5193.8099800795317 153.43066933751106 111.61152012646198 948.57526698708534 1016.0199017226696 7125.4966580420732
leaf_count=11312 9728 42286 3695 1400 184301 3756 69192 148 97768 4432 125593 129288 51941 2157 12360 9048 94184 526 22643 35428 10642 26091 31849 426 28228 456 549 4183 4404 22033
internal_value=0.0226362 0.0253451 -0.00566396 0.0174193 0.0279332 0.00290258 0.0299966 -0.0197147 0.0247842 0.0290482 0.0314566 0.0220803 0.0142459 0.0263294 -0.0216697 0.0236447 0.0160044 0.0324736 -0.000351712 0.00118554 0.025932 0.0283141 0.00746759 0.0435884 -0.0268462 0.0107124 -0.00355154 -0.0111029 -0.012452 0.0218663
internal_weight=334346 305139 29207.6 75115.6 230023 18144.9 138968 11062.7 91055.1 35333.9 112995 55721.3 54717.3 2213.13 10663.2 25972.6 43445.6 399.45 15931.8 14135.9 20398.3 12862.4 11271.7 1051.3 7157.13 1161.83 152.614 3506.09 1795.86 7535.89
internal_count=1040047 909776 130271 247868 661908 72965 388134 57306 273774 102200 309894 171574 187702 6795 56083 78240 146125 1223 66170 58071 60166 36733 41577 2583 39540 4212 697 16543 8099 23433
is_linear=0
shrinkage=0.03


Tree=11
num_leaves=31
num_cat=0
split_feature=4 5 4 10 5 4 13 0 0 11 11 7 4 9 5 7 1 10 10 1 0 5 4 11 6 11 7 10 9 13
split_gain=23231.2 5016.15 3852.52 2060.59 1295 987.562 935.742 839.4 662.598 607.74 582.589 577.964 517.61 623.644 506.044 504.447 447.854 340.902 286.342 262.652 228.864 233.782 201.127 185.79 176.473 175.854 116.769 107.015 101.995 71.8968
threshold=0.01914580052272474 0.31320256917392691 0.029041623491735797 1.1802027948684367e-06 0.32790373909185627 0.013745729664476385 88.603605967381881 0.81790532428506113 0.71562513422689467 -0.018650747098774376 -0.018650747098774376 0.99999582423059885 0.0096310375646284346 0.44835158831153471 0.39518239383590881 0.8999953709506231 1.6261494165036072 1.9917172169931958e-06 1.6427223818581803e-09 1.4945762448153548 0.6257330055976057 0.47064930568839519 0.011571753017209334 0.014696607941465047 0.2845827521553686 -0.016384160650818193 0.29595902390707202 0.00043348328215559156 0.33704405816140248 42.955130080728253
decision_type=2 2 2 2 2 2 2 2 2 2 2 2 2 2 2 2 2 2 2 2 2 2 2 2 2 2 2 2 2 2
left_child=1 3 4 12 16 14 7 9 10 -4 -6 23 28 -14 18 -9 17 -2 -3 -10 25 -22 29 -8 -18 -7 -24 -16 -1 -5
right_child=2 5 6 22 8 20 11 15 19 -11 -12 -13 13 -15 27 -17 24 -19 -20 -21 21 -23 26 -25 -26 -27 -28 -29 -30 -31
leaf_value=-0.022272704351217403 -0.0014922437016209372 -0.019376621666341392 0.045803964955666597 -0.015799601952362179 0.050361313476982895 0.04742731385636114 0.025901638701205286 0.025525347150354365 0.018586308140102099 0.030330833115753589 0.024090133376058514 0.01024012928366284 -0.0032893983142073106 -0.024499912984661022 0.005948857100257816 0.031093340645266053 0.0097531270876688551 0.012317750534376818 -0.0015383123686225416 0.03017272738454305 0.0073434943526166346 0.014836621456937812 -0.0038185671958417739 0.02040315458216212 0.040810574494478453 0.016145873503898869 0.0040658787521804397 0.018716778675758574 -0.03409347795843512 -0.0033079628566936728
leaf_weight=943.1127562969923 1869.2016367763281 1156.7244518697262 2364.5279223322868 869.93626326322556 777.36361601948738 164.60527773201466 15381.764902561903 79714.524540022016 40896.233109384775 67556.918410465121 33445.586536839604 3140.9744486957788 2271.3220122754574 2768.0627586245537 3738.2343263328075 17939.630794778466 222.29746167361736 11544.886080041528 2700.9409456402063 1840.0858516395092 8264.9733042418957 6855.8312436491251 2445.157972484827 8635.7522345781326 635.06407903134823 9296.5731421858072 5477.8488262891769 701.71378387510777 2165.0506135374308 792.40138666331768
leaf_count=5002 7716 5756 5449 4103 1737 397 44573 229536 129720 185701 100476 10785 10325 14649 14249 49589 786 40291 11200 5279 30720 23061 10131 26224 1662 31081 21604 2256 12560 3429
internal_value=0.0218085 0.00307402 0.0251243 -0.00978628 0.020037 0.0100099 0.0275077 0.0283449 0.0215762 0.0308541 0.0246869 0.0223419 -0.0208785 -0.01494 0.001061 0.0265482 0.0117369 0.0103934 -0.00688715 0.0190852 0.0130307 0.0107409 -0.000357902 0.0239246 0.032758 0.0166901 0.00163262 0.00796677 -0.0305067 -0.0098451
internal_weight=336577 50612.5 285965 17732.9 91230.7 32879.6 194734 167576 76959.3 69921.4 34223 27158.5 8147.55 5039.38 8297.61 97654.2 14271.4 13414.1 3857.67 42736.3 24582 15120.8 9585.34 24017.5 857.362 9461.18 7923.01 4439.95 3108.16 1662.34
internal_count=1040047 200523 839524 81803 287667 118720 551857 470275 237212 191150 102213 81582 42536 24974 33461 279125 50455 48007 16956 134999 85259 53781 39267 70797 2448 31478 31735 16505 17562 7532
is_linear=0
shrinkage=0.03


Tree=12
num_leaves=31
num_cat=0
split_feature=4 10 4 2 5 5 5 8 8 2 2 4 9 8 11 0 12 4 1 9 2 5 5 5 9 11 8 4 4 9
split_gain=21542.9 4533.06 3874.55 2150.58 1517.98 1304.64 1051.78 965.336 706.222 816.348 694.289 666.552 697.55 659.873 646.76 528.962 400.61 398.514 364.095 274.499 220.567 200.173 168.439 167.333 139.177 135.721 124.55 122.731 80.9986 66.6092
threshold=0.018691587129630233 1.1802027948684367e-06 0.029041623491735797 0.15152948649080109 0.35479688771483081 0.32581714757009167 0.28033158476445613 0.13905216936675158 0.032811751522733121 -0.071369412427641721 0.015746957864215354 0.0096310375646284346 0.46932536318097223 -0.12321342598899913 -0.020192562391165934 0.64915431053144002 0.058333333333333341 0.013745729664476385 1.4637423261241838 0.49996773536430245 -0.016707619722967405 0.45134569295599719 0.52447731987627322 0.49425753484648555 0.32467943772927538 0.0031958856113788602 0.0061700905840079961 0.014397904784417449 0.011571753017209334 0.46561514404605658
decision_type=2 2 2 2 2 2 2 2 2 2 2 2 2 2 2 2 2 2 2 2 2 2 2 2 2 2 2 2 2 2
left_child=1 4 5 8 11 10 26 25 13 -10 19 24 -13 -4 20 -16 -9 21 -12 -2 -7 -8 27 -19 -1 -5 28 -6 -3 -28
right_child=2 6 3 7 22 14 17 16 9 -11 18 12 -14 -15 15 -17 -18 23 -20 -21 -22 -23 -24 -25 -26 -27 29 -29 -30 -31
leaf_value=-0.019874386660529847 0.0095412239658200105 -0.015307173069219122 0.038726953178289954 0.027418924572948103 -0.0059596283348489088 0.017437414402996065 0.00034905834714332989 -0.016156662494826904 0.044037297324137581 0.029063693345396296 0.015244069299811116 -0.0034867874163333839 -0.023476103387878706 0.025618277354010496 0.023496922267188167 0.018426829986338041 0.0063614054515761225 0.010178229546499402 0.03475128982514291 -0.0015752509080352616 0.051849037602431002 0.010683995536505824 0.018604528489286211 0.015647863349803393 -0.033420038466495043 0.016937521212022182 0.0065537323969704839 0.0089519706218818412 -0.004522919997648726 -0.003676773561430053
leaf_weight=947.18252532184124 5211.0592809617519 785.70564419031143 3551.9150248765945 1494.0863499492407 947.89631788432598 212.81267675757408 4602.4827117025852 1032.2872298955917 3497.6125724613667 51932.13312703371 5213.9671711474657 3254.0085835456848 3038.0642081946135 128110.91759037971 29343.585547849536 50207.255253151059 2284.9675638079643 13142.211870849133 1031.48270650208 3243.5069379657507 789.71917600929737 2662.3581402748823 741.5501034706831 8159.2026251405478 2444.5573530048132 4346.2363427579403 1307.6691295653582 1043.7593962401152 3099.5830328464508 1019.1872022747993
leaf_count=5021 18819 3708 8822 4292 4150 623 18677 4538 8249 141536 17671 14758 15994 362398 87292 157739 8340 46929 2829 12798 1704 9481 2447 26821 14354 13682 5191 3831 13035 4318
internal_value=0.0210191 0.00221563 0.0240634 0.026473 -0.0133445 0.0190989 0.0077711 0.0122781 0.0271678 0.0300085 0.0108801 -0.0189171 -0.0131384 0.0259719 0.0205988 0.020297 -0.000645929 0.010204 0.0184658 0.0052765 0.0445443 0.00413652 0.00639937 0.0122733 -0.0296373 0.0196189 -0.00341642 0.00185504 -0.00670377 0.00207266
internal_weight=338699 47195.4 291504 196250 12417 95253.4 34778.4 9157.58 187093 55429.7 14700 9683.81 6292.07 131663 80553.4 79550.8 3317.25 28566.3 6245.45 8454.57 1002.53 7264.84 2733.21 21301.4 3391.74 5840.32 6212.15 1991.66 3885.29 2326.86
internal_count=1040047 188715 851332 551857 60555 299475 128160 30852 521005 149785 52117 50127 30752 371220 247358 245031 12878 101908 20500 31617 2327 28158 10428 73750 19375 17974 26252 7981 16743 9509
is_linear=0
shrinkage=0.03


Tree=13
num_leaves=31
num_cat=0
split_feature=3 3 3 1 2 3 1 4 3 2 6 5 3 4 7 1 12 12 10 9 1 6 10 10 4 7 0 2 6 10
split_gain=23654.9 5935.38 3239.53 2559.11 1514.4 1666.99 1413.11 1102.96 923.536 791.985 860.216 716.406 471.293 458.792 454.276 450.846 381.242 323.853 262.565 301.477 252.317 228.354 189.357 170.666 150.789 147.403 106.287 97.3022 80.8957 62.0567
threshold=0.021335801610775491 0.031606904318085043 0.015404002657241999 1.327676623947428 0.15152948649080109 0.047073678585797953 1.6496395504695969 0.028070981994132289 0.025726501412663947 0.15152948649080109 0.50450675332229677 0.51769038475296558 0.018253953607670487 0.020016679344503227 0.820610369327477 1.6044397482510067 0.10833333333333335 0.39166666666666677 1.3473978053655293e-05 0.44835158831153471 1.9257504940172263 -0.21719608232781448 9.0870595487218344e-09 0.00012911188997999555 0.052857137786441015 0.96666337997015017 1.8275921369203538 0.021162644996912023 0.34463336231401565 0.00029368885213919559
decision_type=2 2 2 2 2 2 2 2 2 2 2 2 2 2 2 2 2 2 2 2 2 2 2 2 2 2 2 2 2 2
left_child=2 3 15 8 5 7 12 -3 21 10 -5 -7 22 -10 26 18 27 25 19 -1 -16 -2 -4 -14 -11 -8 -6 -17 -19 -18
right_child=1 4 6 9 14 11 17 -9 13 24 -12 -13 23 -15 20 16 29 28 -20 -21 -22 -23 -24 -25 -26 -27 -28 -29 -30 -31
leaf_value=-0.019371540908382681 0.0025982527712918612 0.019447731012582313 -0.014873262990148892 0.020227538661805211 0.020916891431311219 0.032607274820415429 0.029913337052505505 0.025344287247706921 0.010511440781108392 0.02160634094432037 0.034357510784690799 0.026898733875783593 -0.00071972325355515779 0.017537920400924858 0.014681528646563113 -0.013535433797704758 -0.018140310140788516 -0.006459278734637682 -0.012945786544122383 -0.0326094521379778 0.00080358191797434068 0.0098263487208108125 -0.0044467701819969323 0.0072231369726944838 -0.024303354690777244 0.054800243395058505 -0.0044479038040158908 0.057573761704150822 0.017560601933745364 0.049107393481010106
leaf_weight=2949.9239855855703 5038.0794012844563 42721.118011340499 2453.842958137393 7464.8938755989075 4398.3417637646198 28661.036455929279 805.38304524123669 86067.232045978308 11352.50593753159 80.534639835357666 8069.1761356592178 63893.68537864089 7695.9485219120979 31763.736827522516 2084.2006897181273 20.052725985646248 212.06898164749146 211.54542125761509 1678.3446843922138 3258.6562695354223 2714.9772166311741 17945.672278180718 4340.7071655988693 3561.2688794732094 321.14606229960918 291.79801373183727 153.88402523100376 127.02025228738785 312.75271339714527 13.113972961902617
leaf_count=16001 18880 130245 12036 22323 13420 73666 2219 240415 39648 267 20703 172145 31792 99925 6792 92 1060 834 8185 19620 10197 63417 18795 13491 1463 589 541 233 1013 40
internal_value=0.0202686 0.0226312 -0.00618287 0.0157005 0.0250958 0.0255954 0.000436826 0.0233883 0.0130988 0.0264919 0.0275674 0.0286665 -0.00197289 0.0156878 0.0132703 -0.0219509 0.0103117 0.027264 -0.0234737 -0.0263196 0.00683054 0.00824194 -0.00821228 0.00179303 -0.0150987 0.0365321 0.0200595 0.0478783 0.00786899 -0.014224
internal_weight=340663 312730 27932.4 82035.7 230694 221343 19673.2 128788 66100 15935.8 15534.1 92554.7 18051.8 43116.2 9351.4 8259.18 372.256 1621.48 7886.92 6208.58 4799.18 22983.8 6794.55 11257.2 401.681 1097.18 4552.23 147.073 524.298 225.183
internal_count=1040047 914047 126000 266626 647421 616471 80769 370660 221870 44756 43026 245811 76114 139573 30950 45231 1425 4655 43806 35621 16989 82297 30831 45283 1730 2808 13961 325 1847 1100
is_linear=0
shrinkage=0.03


Tree=14
num_leaves=31
num_cat=0
split_feature=3 3 3 4 3 13 8 8 4 2 2 8 5 3 6 4 13 8 9 8 3 9 3 9 4 5 13 5 8 0
split_gain=22020.8 5851.61 2763.95 1762.36 1471.91 1619.34 1374.18 1183.56 941.813 1044.85 793.416 760.812 749.267 479.491 350.101 333.707 280.361 255.764 231.46 262.078 222.41 211.365 196.384 189.315 131.085 93.2182 86.4476 82.1027 80.7967 43.9239
threshold=0.020892516602777481 0.030791459895503592 0.014915970880933988 0.022758000040753373 0.048246714622803624 83.883864938585333 0.05152454839060161 0.043995517387005204 0.024070020688249129 0.17166676208370385 0.15152948649080109 0.039959318934073798 0.55809530743671221 0.018253953607670487 -0.20930884008004677 0.014184386956853657 62.627904036496325 0.13031826613744177 0.44835158831153471 0.0094375021161471062 0.041385319468052038 0.50598765065768048 0.024572405429898626 0.56421164215619835 0.010048305885248745 0.2375940270240616 59.166267894334418 0.43576822660147768 0.066634164515105551 1.0146846762146813
decision_type=2 2 2 2 2 2 2 2 2 2 2 2 2 2 2 2 2 2 2 2 2 2 2 2 2 2 2 2 2 2
left_child=2 3 11 15 8 12 13 14 20 -10 -9 18 -6 21 -5 24 28 -7 19 -1 -3 -4 -17 -15 -2 26 -13 -20 -8 -18
right_child=1 4 6 7 5 17 16 10 9 -11 -12 25 -14 23 -16 22 29 -19 27 -21 -22 -23 -24 -25 -26 -27 -28 -29 -30 -31
leaf_value=-0.023002981363883814 -0.010038983686958615 0.015975130802179799 -0.0044199387049408149 0.010285569543309451 0.03338036407758322 0.021058029337843235 0.035853972215750526 0.030699715527047887 0.023774912007020345 0.0035909602510553972 -0.016902430545276452 0.062093416864909289 0.026908489701047027 0.0038755364375656666 0.017529694190984137 0.006991741050271354 -0.016574487388230828 0.0099999723044725836 -0.02979017370633007 -0.0031552659957896937 0.022140664675146939 -0.014633984678765912 0.012409905984862529 -0.006567421295568773 0.0040581254132129891 -0.0075416370608812049 -0.018969485695346632 0.014079584428416838 0.057630092708250522 0.016365492581086209
leaf_weight=2663.497859403491 679.11748459935188 22826.841317743063 4971.0251415967941 7545.0455928295851 25452.955554783344 20579.713430270553 289.69880147278309 7708.1484812945127 116175.40970151126 2355.0481941848993 328.56289641559124 114.71394497156143 43812.347093239427 7821.3613046258688 29403.551572009921 9362.8620031327009 67.410245925188065 2071.9779012948275 3690.9364455938339 772.39321552217007 6844.5970503985882 2879.6708076745272 16866.316521018744 1952.3450420200825 4717.3819823414087 27.081384867429733 13.202677905559538 38.798111408948898 325.80715200304985 79.283361852169037
leaf_count=14661 2854 71816 22073 25125 63232 59273 738 20239 325948 8791 1438 205 115411 30968 91330 34215 284 7026 21968 3887 20172 13875 57072 8196 18057 116 60 171 601 245
internal_value=0.0195565 0.0217238 -0.00714678 0.0145047 0.0240271 0.0270096 -0.000939772 0.0183199 0.0221773 0.0233739 0.0287536 -0.0227364 0.0292867 -0.00264534 0.0160504 0.00907801 0.0384983 0.0200465 -0.0241588 -0.0185412 0.0173974 -0.0081665 0.0104758 0.00178951 0.00228409 0.0430218 0.0537267 -0.0293338 0.0473808 0.00122855
internal_weight=342437 316730 25707.2 76611 240119 91917 18386.6 44985.3 148202 118530 8036.71 7320.62 69265.3 17624.4 36948.6 31625.7 762.2 22651.7 7165.63 3435.89 29671.4 7850.7 26229.2 9773.71 5396.5 154.998 127.917 3729.73 615.506 146.694
internal_count=1040047 921999 118048 250330 671669 244942 76980 138132 426727 334739 21677 41068 178643 75112 116455 112198 1868 66299 40687 18548 91988 35948 91287 39164 20911 381 265 22139 1339 529
is_linear=0
shrinkage=0.03


Tree=15
num_leaves=31
num_cat=0
split_feature=3 3 3 1 2 3 8 3 13 2 8 8 8 10 9 1 13 13 3 0 13 8 9 2 10 1 7 5 13 1
split_gain=20515.6 5454.58 2649.77 2620.6 1336.41 1310.02 1285.34 1196.29 949.809 819.638 801.996 722.057 516.857 502.985 554.585 482.755 399.069 330.759 302.197 279.997 260.124 251.798 227.858 254.744 248.471 132.219 91.8658 86.7709 80.2454 49.9908
threshold=0.020892516602777481 0.033661729273229878 0.014915970880933988 1.327676623947428 0.15152948649080109 0.027127507584504672 0.05152454839060161 0.050893542544693547 79.332952427112431 0.17166676208370385 0.040715918428487409 0.039959318934073798 0.13905216936675158 4.732654042420477e-05 0.52123373024027753 0.61304396041403431 77.42949730406842 69.425355658176997 0.023690025832815601 1.5042388996797049 64.133219890338452 0.0073794356292396562 0.44835158831153471 -0.0066857678988453571 1.1802027948684367e-06 1.327676623947428 0.99999748988227977 0.2375940270240616 59.166267894334418 1.6988078001046383
decision_type=2 2 2 2 2 2 2 2 2 2 2 2 2 2 2 2 2 2 2 2 2 2 2 2 2 2 2 2 2 2
left_child=2 3 11 5 7 18 13 15 -9 10 -5 22 26 14 -4 -3 -11 -14 -2 -7 25 -15 23 -1 -24 -8 -6 28 -13 -22
right_child=1 4 6 9 12 19 20 8 -10 16 -12 27 17 21 -16 -17 -18 -19 -20 -21 29 -23 24 -25 -26 -27 -28 -29 -30 -31
leaf_value=-0.0082913784379071275 0.0048953278122287006 0.018887563996962602 -0.0023981576499365765 0.020626995287716089 0.019404257249960939 0.016561413009228268 0.015647981170381201 0.029398392113975432 0.021598344386702151 -0.03847720919571318 0.032665780194011437 0.059800014472856586 -0.024102616501407007 -0.0013137744754232639 -0.018097572374266974 0.02343232868533239 0.020060759182814088 0.0062750128855198553 0.010711403737896329 0.0051331462386458165 -0.018001510681067326 0.0095052552861398902 -0.033363652881041726 -0.024997396596662006 -0.015110169379119924 0.051573331220085096 0.009266933814886507 -0.0073387002815826601 -0.018547199917269039 0.018472683179616915
leaf_weight=1388.3297938853502 12914.418350622058 26297.275134369731 6515.5883327722549 11531.813464447856 4982.1742354929447 48806.662812039256 112.09974670410156 53013.696038961411 19116.80490103364 267.74400717020035 8765.9883797764778 115.52679063379765 363.54415287077427 4978.6507475078106 2938.341422021389 105123.22293426096 172.23869778215885 2863.292711943388 21303.567267388105 2008.874095544219 70.903270840644836 3167.9957438409328 2781.0696531385183 2012.0107698738575 884.65642815828323 519.39773988723755 959.48653480410576 26.996661007404327 13.099756732583044 64.660265550017357
leaf_count=7204 47635 76876 28350 33547 14751 151435 380 133884 53491 1387 22011 205 1659 20551 14420 291817 583 10333 72688 6698 310 11791 17615 11344 4524 991 3204 116 60 187
internal_value=0.0188773 0.0209537 -0.00696634 0.015386 0.0237221 0.013054 -0.000913083 0.0242268 0.0273311 0.0249481 0.0258262 -0.0223622 0.0125181 -0.00256983 -0.00727764 0.0225229 -0.0155615 0.00285259 0.00851632 0.0161096 0.0371017 0.00289343 -0.02377 -0.0181765 -0.0289585 0.0451961 0.0177672 0.0415582 0.0518209 -0.000604273
internal_weight=344080 318491 25589.3 105771 212719 85033.5 18367.6 203551 72130.5 20737.8 20297.8 7221.69 9168.5 17600.6 9453.93 131420 439.983 3226.84 34218 50815.5 767.061 8146.65 7066.07 3400.34 3665.73 631.497 5941.66 155.623 128.627 135.564
internal_count=1040047 921999 118048 335984 586015 278456 76980 556068 187375 57528 55558 41068 29947 75112 42770 368693 1970 11992 120323 158133 1868 32342 40687 18548 22139 1371 17955 381 265 497
is_linear=0
shrinkage=0.03


Tree=16
num_leaves=31
num_cat=0
split_feature=4 5 4 10 2 13 4 5 4 9 2 13 7 11 5 7 1 6 10 11 9 4 2 5 2 10 4 4 2 2
split_gain=16564.1 4159.69 2350.11 1703.5 1648.1 1204.39 867.895 767.721 507.62 599.237 498.143 493.723 726.365 480.921 412.084 361.697 280.864 220.003 216.481 200.069 197.731 196.622 186.247 186.044 176.255 148.668 130.828 115.556 104.269 101.459
threshold=0.019867543090217467 0.31086933163326813 0.029041623491735797 1.1802027948684367e-06 0.15152948649080109 66.040987490097251 0.013745729664476385 0.32790373909185627 0.0096310375646284346 0.40470733782297946 0.015746957864215354 72.497374480496859 0.63635784127841888 -0.020192562391165934 0.36066971885310833 0.820610369327477 1.4637423261241838 0.67893130054381623 1.2742179230993246e-09 -0.018650747098774376 0.520000088516822 0.023419202360017533 -0.039186129274174003 0.47452882339680635 0.017336662034645661 0.00022360025269296864 0.010869562208333881 1.0000000180025095e-35 0.0033440785483468574 -0.035655916052675991
decision_type=2 2 2 2 2 2 2 2 2 2 2 2 2 2 2 2 2 2 2 2 2 2 2 2 2 2 2 2 2 2
left_child=1 3 7 8 11 17 14 10 29 -10 20 12 -4 22 18 -7 -12 -6 -3 28 -2 -15 -9 -21 26 -13 -5 -16 -8 -1
right_child=2 6 4 24 5 15 19 13 9 -11 16 25 -14 21 27 -17 -18 -19 -20 23 -22 -23 -24 -25 -26 -27 -28 -29 -30 -31
leaf_value=0.0016210493932683492 0.0086451739148692905 -0.021379890368163266 0.02264358297422283 -0.012867859895593279 -0.00021937767800408916 0.020482005846446241 0.0055021443347550653 0.0096147030039025732 0.0018593273742535431 -0.020437210481952361 0.013981281723353887 0.020137857918080072 0.027109344722091713 0.015853969303042587 0.017079866378665345 0.008072531415938871 0.031481988552090001 -0.034478008511066464 -0.0032818270136693562 0.008891775489496552 -0.0017933818355411178 0.019098313783270645 0.045298258751459909 0.01362781812064073 0.0060307954580578896 0.023416340174404634 -0.0012500952130491275 0.0034841011021419874 0.049799749398934202 -0.030119613545145221
leaf_weight=93.697861298918724 5046.4843378067017 886.7849942445755 78160.187906771898 1010.2143249064684 239.47483332455158 4001.5141985118389 64.803740411996841 157.73422640562057 1603.6457428634167 3353.2879670709372 4804.5922805070877 38839.813106775284 56457.792553856969 25984.131825357676 632.05441892147064 4481.1394189298153 996.5072448849678 570.88792589306831 1806.7928201407194 16020.362865656614 2414.6376840025187 47628.166475310922 795.83464358747005 13978.446186035872 2774.0851140618324 18320.084448724985 6392.9063736498356 5122.6472769379616 182.50998993217945 2773.7321051061153
leaf_count=477 17816 4721 213979 4802 822 11797 202 467 7170 18199 15803 108713 148291 80740 2018 15414 2662 2819 7643 56412 9403 139461 1691 44853 10632 50022 25992 19694 391 16941
internal_value=0.0182289 0.0034031 0.0211385 -0.00851054 0.0229267 0.0105883 0.00894561 0.0170444 -0.0190357 -0.0132239 0.0103937 0.0235246 0.0245165 0.0182273 0.000444384 0.0139264 0.0169875 -0.024354 -0.00924011 0.0113202 0.00526695 0.0179531 0.0393957 0.0110986 -0.00041869 0.0211886 -0.00283543 0.00497736 0.0381924 -0.0290824
internal_weight=345595 56696 288899 18001.6 201071 9293.02 38694.4 87828.1 7824.36 4956.93 13262.2 191778 134618 74565.9 8448.28 8482.65 5801.1 810.363 2693.58 30246.1 7461.12 73612.3 953.569 29998.8 10177.2 57159.9 7403.12 5754.7 247.314 2867.43
internal_count=1040047 220147 819900 84213 551857 30852 135934 268043 42787 25369 45684 521005 362270 222359 34076 27211 18465 3641 12364 101858 27219 220201 2158 101265 41426 158735 30794 21712 593 17418
is_linear=0
shrinkage=0.03


Tree=17
num_leaves=31
num_cat=0
split_feature=3 3 3 4 2 3 8 13 6 4 7 8 13 4 10 9 10 9 7 6 3 13 8 6 2 12 12 13 11 6
split_gain=18162.3 4897.11 2440.6 1525.25 1175.22 1313.31 1109.58 946.503 931.498 857.713 729.411 712.215 645.314 410.926 390.315 479.817 295.695 302.118 282.801 282.69 271.863 242.962 214.011 193.054 173.324 157.604 119.331 112.706 47.2622 40.7157
threshold=0.020892516602777481 0.031606904318085043 0.015404002657241999 0.026315786954594366 0.17166676208370385 0.050893542544693547 0.049536332651801317 79.332952427112431 0.45961956022205425 0.03163444075554487 0.92856451118232564 0.033425220016347047 75.167080413904031 0.015954760746189713 4.732654042420477e-05 0.52123373024027753 1.3473978053655293e-05 0.41872726098943963 0.820610369327477 -0.20930884008004677 0.024572405429898626 63.359574240834966 0.0057533984517055261 0.67893130054381623 -0.028213151772297673 0.29166666666666669 0.32500000000000001 56.11142567319029 -0.00025281167179918266 -0.30913506027454035
decision_type=2 2 2 2 2 2 2 2 2 2 2 2 2 2 2 2 2 2 2 2 2 2 2 2 2 2 2 2 2 2
left_child=2 3 11 13 5 9 14 -7 19 -3 -10 16 23 24 15 -4 17 -1 -14 -5 -15 26 -16 -6 -2 27 -8 -13 -18 -27
right_child=1 4 6 8 12 7 21 -9 10 -11 -12 25 18 20 22 -17 28 -19 -20 -21 -22 -23 -24 -25 -26 29 -28 -29 -30 -31
leaf_value=-0.017175069442458821 -0.0026350860473501386 0.018005868639273549 -0.0019405830882629335 0.0087165979565519101 0.0030889668734531213 0.027504539747931347 0.046741326927145742 0.01990417365128453 0.020187483377797823 0.022514267372424616 0.036332671616185142 0.048155297690034703 0.01932666511580753 0.0071888748370004304 -0.0015568611693807552 -0.017135226307436049 -0.016942306440456214 -0.031070294477548419 0.0066911844659428123 0.016064774229302931 0.012868858492478036 0.0003301701955165775 0.0084589028606080873 -0.032750599523767958 0.0065769262979477909 0.052431903594169202 0.011887637083489676 -0.012603605187699115 -0.0069063716286963013 -0.020354434307039673
leaf_weight=2326.18602193892 2425.1522578001022 66885.468671917915 6104.7150794714689 6444.7533985227346 208.01996716856956 53817.659868329763 563.43735431134701 20312.654130205512 11912.155519723892 87876.38044372201 3193.6020000725985 180.39745137095451 2927.3693977594376 10728.770087048411 4643.578282520175 2696.6254884600639 765.9854673743248 3568.8725305944681 3500.4898921698332 17523.989959776402 25873.823817953467 162.08653323352337 3273.6386081278324 386.7734482884407 7594.9176449179649 7.7539740949869147 104.86345067620277 32.414156183600426 941.29376108944416 64.062535628676414
leaf_count=13051 9385 194613 26315 20866 742 134610 1152 56427 33869 237985 7747 432 8804 38032 19069 13218 3912 22743 12281 52894 83834 595 12126 1959 27951 27 342 151 4571 344
internal_value=0.0176064 0.0195365 -0.00679715 0.0133944 0.0217677 0.0221385 -0.000567334 0.0254219 0.0177662 0.0205658 0.0236008 -0.0206589 0.00967928 0.00973036 -0.00224852 -0.00659604 -0.0224032 -0.0255872 0.0124456 0.014089 0.011204 0.0332807 0.00258449 -0.0202163 0.00434735 0.0259326 0.0412724 0.0389009 -0.0114091 -0.0124957
internal_weight=347048 321612 25435.9 85697.2 235915 228892 17548.9 74130.3 39074.5 154762 15105.8 7886.97 7022.65 46622.7 16718.6 8801.34 7602.34 5895.06 6427.86 23968.7 36602.6 830.387 7917.22 594.793 10020.1 284.628 668.301 212.812 1707.28 71.8165
internal_count=1040047 921999 118048 274578 647421 623635 72817 191037 115376 432598 41616 45231 23786 159202 70728 39533 44277 35794 21085 73760 121866 2089 31195 2701 37336 954 1494 583 8483 371
is_linear=0
shrinkage=0.03


Tree=18
num_leaves=31
num_cat=0
split_feature=3 3 3 1 1 2 3 3 13 8 2 7 8 1 8 10 8 13 9 3 13 0 7 1 13 11 2 0 3 12
split_gain=16955.6 4221.76 2757.11 2072.1 1160.54 1105.41 1025.61 929.186 815.017 745.312 698.89 689.029 451.099 412.216 409.965 397.679 364.897 358.071 346.935 344.999 282.299 258.933 217.123 198.93 122.939 114.906 96.8879 91.9597 54.5351 36.8749
threshold=0.021569489696469556 0.033661729273229878 0.01583696826538802 1.327676623947428 1.6496395504695969 0.15152948649080109 0.050893542544693547 0.027127507584504672 67.944449414772805 0.034787368191585753 0.17166676208370385 0.93939178819526081 0.13905216936675158 0.61304396041403431 0.078786654166697959 1.1802027948684367e-06 0.028428168402375154 77.42949730406842 0.41872726098943963 0.018856647616787157 80.475187253542273 1.5042388996797049 0.32510144722751055 1.6044397482510067 74.032043452181924 0.011769944775619061 -0.069861473015319378 0.64532122421402238 0.014915970880933988 0.17500000000000002
decision_type=2 2 2 2 2 2 2 2 2 2 2 2 2 2 2 2 2 2 2 2 2 2 2 2 2 2 2 2 2 2
left_child=2 3 9 7 14 6 13 22 -8 15 11 -5 25 -3 19 18 26 -12 -1 -4 -14 -9 -2 27 -18 -7 -6 -11 -17 -25
right_child=1 5 4 10 16 12 8 21 -10 23 17 -13 20 -15 -16 28 24 -19 -20 -21 -22 -23 -24 29 -26 -27 -28 -29 -30 -31
leaf_value=-0.016159161909873564 0.0046148497242495404 0.016937678822970582 -0.0063349133848650411 0.020852618261679352 0.061620679524877653 0.020922629696791269 0.027141675059173885 0.014850707578024364 0.020599993400743387 0.034977784023872457 -0.037691972780958996 0.035552067818354752 -0.016875271416214661 0.021107444817552588 0.059496901213472266 -0.014183255853672749 0.040827000051076055 0.017953635944356165 -0.031189825723221112 0.0020279303716892981 0.0063295006157810521 0.003921240740875612 0.0097661481140248439 0.053287398560631548 0.0093910929376185507 0.012539124229193838 0.006336296915687099 -0.016611705663432803 -0.0048534275378010897 0.0137668958149447
leaf_weight=2271.0408761650324 11524.537173002958 26668.651851996779 7718.5470197945833 16500.634255498648 29.748399585485458 2562.762343108654 45796.51812300086 49498.680899485946 27393.737560674548 45.620072066783905 257.0496854186058 3474.251687079668 572.95903174579144 106739.49117465317 99.631756961345673 1676.7145594209433 847.77145017683506 174.88385203480721 3530.8294653743505 10451.199275434017 2673.5967735648155 2030.9314337074757 20398.114403992891 148.0428050160408 129.00205589830875 3455.2347515821457 696.80136029422283 97.681622326374054 849.55689771473408 24.809376701712608
leaf_count=12861 40347 76876 34529 45525 66 7296 113448 151435 73927 175 1374 8180 2545 291817 180 8646 1847 582 23051 41334 9447 6698 69620 256 411 10659 2434 492 3902 87
internal_value=0.0170135 0.0189937 -0.00510982 0.0140238 0.00101626 0.0213849 0.0218395 0.0119284 0.0246932 -0.0192642 0.0225929 0.0234093 0.0112471 0.0202739 -0.00119184 -0.0209805 0.0246998 -0.0151618 -0.0253063 -0.00152462 0.00223427 0.0144199 0.00790646 0.0259475 0.0366753 0.0161092 0.0085999 -0.0001882 -0.0110457 0.047615
internal_weight=348339 319722 28617 103859 19972.7 215863 206598 83452.3 73190.3 8644.3 20406.8 19974.9 9264.55 133408 18269.4 8328.14 1703.32 431.934 5801.87 18169.7 3246.56 51529.6 31922.7 316.154 976.774 6018 726.55 143.302 2526.27 172.852
internal_count=1040047 909776 130271 323761 80801 586015 556068 268100 187375 49470 55661 53705 29947 368693 76043 48460 4758 1956 35912 75863 11992 158133 109967 1010 2258 17955 2500 667 12548 343
is_linear=0
shrinkage=0.03


Tree=19
num_leaves=31
num_cat=0
split_feature=4 10 4 2 5 13 5 0 8 2 8 4 9 5 2 13 8 4 8 1 4 9 5 1 0 8 5 4 9 4
split_gain=13729.2 3088.87 2452.05 1305.62 1127.26 1063.31 715.971 691.044 645.709 742.489 620.358 597.091 616.224 484.008 504.145 324.74 318.323 258.397 208.952 205.755 138.996 134.75 122.902 119.715 112.904 111.465 100.318 90.555 62.0578 52.7122
threshold=0.018691587129630233 1.1802027948684367e-06 0.026852844885515263 0.15152948649080109 0.35479688771483081 65.676880338963443 0.28033158476445613 0.71160568652159772 0.032811751522733121 -0.074596498212654974 -0.12321342598899913 0.0096310375646284346 0.46932536318097223 0.3568596465137629 0.015746957864215354 44.5125456917336 0.13905216936675158 0.013745729664476385 0.10768976842911412 1.8195146423219077 1.0000000180025095e-35 0.32467943772927538 0.52447731987627322 1.7865759511421111 0.6257330055976057 0.0033898411762912696 0.29178894279963113 0.014397904784417449 0.46561514404605658 0.013274331850895023
decision_type=2 2 2 2 2 2 2 2 2 2 2 2 2 2 2 2 2 2 2 2 2 2 2 2 2 2 2 2 2 2
left_child=1 4 7 8 11 19 25 15 10 -10 -4 21 -13 14 -9 18 -7 20 -2 -5 -8 -1 27 -15 -19 29 -17 -6 -27 -3
right_child=2 6 3 5 22 16 17 13 9 -11 -12 12 -14 23 -16 26 -18 24 -20 -21 -22 -23 -24 -25 -26 28 -28 -29 -30 -31
leaf_value=-0.017803328254644153 0.020631404055636002 -0.011912479113827918 0.031566023901703003 0.0052504865787892305 -0.0057660072677077684 0.016466643696549144 0.016678792260329742 0.0012561920237446752 0.036590209751168647 0.022609805515487774 0.019496945896453888 -0.0023523015316654731 -0.021595175768132618 0.01335977206725176 0.014042364362387949 0.0068836862373617509 0.0041651516858321512 0.012176751539897373 -0.0053036488850987853 -0.032034980520527119 0.0017062385631908586 -0.031659571695361592 0.015159322349951177 0.029563473169645658 0.0077459061828588621 0.0052595343978197612 0.015043276201527058 0.0070178297727993104 -0.0040308134492090756 -0.0042296731001288139
leaf_weight=886.65390045940876 17293.315236225724 1228.2287223935127 3933.3090217411518 169.96431605517864 939.39552839100361 5839.8302965164185 608.39197680354118 6897.4368569850922 3630.9639479368925 58554.301658034325 150269.04201582074 3173.2064130008221 2836.6617751270533 31454.411213666201 4643.9375937730074 1502.1825523078442 2801.3500003069639 8403.5255043357611 284.18043586611748 615.86190231144428 6740.287106782198 2196.3015007227659 764.59735798835754 415.78153300285339 13475.476238250732 1501.0410202145576 13942.300950989127 1063.0035559237003 1137.476990878582 2325.5378118753433
leaf_count=5021 49837 5741 9396 562 4150 17268 1835 25859 8221 154033 412421 14758 15994 96624 14996 5266 10152 27189 913 3039 26323 14354 2447 1090 46561 5980 41655 3831 4864 9667
internal_value=0.0164457 0.00141265 0.0187973 0.0203694 -0.0118389 0.0094403 0.00584974 0.0141528 0.0208455 0.0234261 0.0198048 -0.016941 -0.011435 0.0116649 0.006401 0.0174234 0.0124787 0.00781298 0.0202121 -0.0239706 0.00294581 -0.0276745 0.00492743 0.0135712 0.00944775 -0.00341678 0.0142496 0.00102048 0.00125442 -0.00688495
internal_weight=349528 47279.8 302248 225815 11859.8 9427.01 35420 76433.5 216388 62185.3 154202 9092.82 6009.87 43411.6 11541.4 33022 8641.18 29227.7 17577.5 785.826 7348.68 3082.96 2767 31870.2 21879 6192.28 15444.5 2002.4 2638.52 3553.77
internal_count=1040047 188715 851332 615092 60555 31021 128160 236240 584071 162254 421817 50127 30752 138569 40855 97671 27420 101908 50750 3601 28158 19375 10428 97714 73750 26252 46921 7981 10844 15408
is_linear=0
shrinkage=0.03


Tree=20
num_leaves=31
num_cat=0
split_feature=3 3 3 4 1 2 8 6 2 3 13 8 10 8 9 4 3 9 10 1 1 4 7 13 1 2 7 10 6 6
split_gain=15073.8 3263.23 3246.81 1774.72 1339.12 981.304 888.499 827.905 871.228 561.477 735.492 549.293 476.752 368.873 360.612 355.851 334.645 297.153 446.729 265.865 220.023 204.92 192.88 174.188 163.973 131.795 105.875 102.908 94.9306 73.2398
threshold=0.022758071267501834 0.016573362836526048 0.038080720519753648 0.024735825067102101 1.5099293751906189 0.13673398306637577 0.036265349914376591 0.4354452485863432 0.17166676208370385 0.052315880082202927 72.497374480496859 0.028428168402375154 1.9917172169931958e-06 0.13905216936675158 0.4358503026138395 0.014184386956853657 0.028136248772268359 0.49022841787285165 2.7283310934705266e-06 0.50237350978378148 1.4782669428468387 0.010869562208333881 0.74820089428497127 74.780868870613446 1.1744588434479182 -0.072968864198083391 0.99999748988227977 1.7918960262738256e-05 0.065241779773472716 -0.52084231563837202
decision_type=2 2 2 2 2 2 2 2 2 2 2 2 2 2 2 2 2 2 2 2 2 2 2 2 2 2 2 2 2 2
left_child=1 6 3 15 17 9 12 16 -9 19 -11 25 14 26 -1 27 -5 21 -19 -4 28 -3 -15 -13 -17 -6 -7 -2 -8 -14
right_child=2 4 5 7 11 13 20 8 -10 10 -12 23 29 22 -16 24 -18 18 -20 -21 -22 -23 -24 -25 -26 -27 -28 -29 -30 -31
leaf_value=-0.015528687357783609 -0.0035264693599062888 -0.0087452289534081223 0.015151643168541635 0.010483013093782009 0.05860378918536506 0.016854514417483812 0.036305647790207424 0.021549456258639792 -0.0094915838520989379 0.025698261113851151 0.018922258320637344 0.037061606948808619 -0.026125545421916179 0.014884999562746273 -0.029996235979928024 0.010532299693730332 0.016126382302846905 -0.015708960534138262 3.3275068187057267e-05 0.020389603619011168 0.043629394465785572 0.0045448236872853093 -0.0016895908892313506 0.0093933043040507081 0.017374417972079996 0.0061600168213022206 0.0066485460719156175 0.0055829198708581898 -0.017239526926499341 -0.0086241832660137793
leaf_weight=2734.0766892582178 1606.9780818670988 1143.2534858137369 9678.5402503758669 12150.703220933676 44.525261610746384 6673.0047042816877 41.273508250713348 33779.203395992517 833.85863238573074 43733.968177810311 21506.648029997945 1446.3813549280167 230.84209023416042 892.24990077316761 3582.0841017514467 43282.829271525145 42657.155171781778 2122.3113475888968 6887.4483773708344 88174.317789539695 253.6499086022377 12048.528794839978 2165.5376189947128 238.55998946726322 3399.973512172699 1373.6333679705858 1060.139823615551 3654.0774436742067 107.19200995564461 3176.2457351833582
leaf_count=15661 6219 5144 27562 37954 95 18989 148 90894 3629 107341 57925 3248 1200 2808 23879 139586 121335 10006 26930 236627 526 46121 8136 732 10220 4646 3452 13142 549 15343
internal_value=0.0158988 -0.00265438 0.017984 0.0146073 0.00310486 0.0207291 -0.0170475 0.0171693 0.0208017 0.0213088 0.0234645 0.0215646 -0.0188547 0.0119675 -0.0237337 0.010197 0.0148753 0.000524752 -0.00367492 0.0198715 0.0266518 0.00339305 0.00314681 0.0331442 0.0110306 0.00780657 0.0154554 0.00280048 -0.00235393 -0.00980996
internal_weight=350679 35430 315249 141365 25304.6 173884 10125.4 89420.9 34613.1 163093 65240.6 3103.1 9723.25 10790.9 6316.16 51943.9 54807.9 22201.5 9009.76 97852.9 402.115 13191.8 3057.79 1684.94 46682.8 1418.16 7733.14 5261.06 148.466 3407.09
internal_count=1040047 154228 885819 422979 96922 462840 57306 253812 94523 429455 165266 8721 56083 33385 39540 169167 159289 88201 36936 264189 1223 51265 10944 3980 149806 4741 22441 19361 697 16543
is_linear=0
shrinkage=0.03


Tree=21
num_leaves=31
num_cat=0
split_feature=3 3 3 3 13 8 8 10 6 2 8 7 11 3 11 2 0 10 9 7 9 2 10 13 8 13 13 12 12 2
split_gain=14123.6 3891.67 2080.24 1036.96 1163.29 982.133 937.47 607.973 601.746 675.817 598.215 566.533 514.697 467.256 456.03 475.469 398.507 378.333 480.81 290.422 216.388 247.89 217.867 212.077 203.416 163.594 121.498 88.835 85.3948 49.7449
threshold=0.020892516602777481 0.030791459895503592 0.014915970880933988 0.046161301862761836 81.617716727924119 0.05152454839060161 0.05152454839060161 0.00042578834929401436 0.33186678872670689 0.15152948649080109 0.032811751522733121 0.33333055557870417 -0.01740985936368461 0.024749368836494191 -0.010275055584840353 0.17166676208370385 1.7589349967570624 4.732654042420477e-05 0.52123373024027753 0.99999748988227977 0.44715570298084217 -0.0062180618703732704 1.9917172169931958e-06 62.627904036496325 0.0073794356292396562 24.131036541637638 47.59363374934771 0.32500000000000001 0.29166666666666669 0.0498553598830506
decision_type=2 2 2 2 2 2 2 2 2 2 2 2 2 2 2 2 2 2 2 2 2 2 2 2 2 2 2 2 2 2
left_child=2 6 10 14 12 17 7 13 25 -10 20 -9 -5 -2 16 -16 -3 18 -4 -6 21 -1 -22 27 -19 -8 28 -7 -12 -28
right_child=1 3 5 4 19 23 8 11 9 -11 26 -13 -14 -15 15 -17 -18 24 -20 -21 22 -23 -24 -25 -26 -27 29 -29 -30 -31
leaf_value=-0.0068889326332535897 0.0050921050251301067 0.01218922542485578 -0.0021672446173698272 0.031015575194988126 0.016772863927678013 0.043994536225223979 0.018687106860983245 0.0094104209304345376 0.027963159123701838 -0.0162987395982582 0.047564465929542124 0.022775240333188656 0.02223309593928062 0.010771289751094103 0.017854502234737769 0.0028982371054846142 -0.01588895928455903 -0.0016418290754379044 -0.016956944912870291 0.0052148258236235983 -0.032063296562408618 -0.023881073980713319 -0.014294152036460478 -0.00043515443976986016 0.0080287856079993541 -0.0010366446086897399 -0.02607711853345325 0.011124732532959231 -0.0046941310523948201 0.040894877909470002
leaf_weight=1338.578632697463 19293.251815140247 8745.9891614764929 6477.396571174264 6542.559792086482 26797.504379838705 543.41984859108925 563.51598778367043 5398.6988407671452 5729.4151253849268 328.2512511909008 148.95676912367344 6057.4904655665159 73181.608709841967 40217.673272773623 128084.52746793628 1942.0219671428204 479.88686273992062 4999.5606315135956 2848.2243496328592 2110.7237937450409 2502.0990718156099 1827.7474903017282 826.03248484432697 147.63047286868095 3217.3238687068224 1152.5343711674213 46.543623715639114 85.665590852499008 34.697594285011292 12.706788912415503
leaf_count=7301 67797 25348 28350 15064 74421 1069 1638 17184 14213 1457 346 17186 185704 126991 355213 7239 1653 20551 14420 7027 17650 10943 4355 529 11791 3864 262 270 175 36
internal_value=0.0153768 0.017042 -0.00632932 0.0188876 0.0210844 -0.00108718 0.0112318 0.0101484 0.0211222 0.0255647 -0.020583 0.0164771 0.0229538 0.00893012 0.0171738 0.0176311 0.0107287 -0.00254881 -0.0066843 0.015929 -0.0223118 -0.0166976 -0.027653 0.0319245 0.0021447 0.00544023 0.0256401 0.0395185 0.0376913 -0.0117144
internal_weight=351682 326626 25056.6 247885 108632 18319.2 78740.8 70967.1 7773.72 6057.67 6737.36 11456.2 79724.2 59510.9 139252 130027 9225.88 17542.5 9325.62 28908.2 6494.46 3166.33 3328.13 776.716 8216.88 1716.05 242.905 629.085 183.654 59.2504
internal_count=1040047 921999 118048 671669 282216 76980 250330 229158 21172 15670 41068 34370 200768 194788 389453 362452 27001 75112 42770 81448 40249 18244 22005 1868 32342 5502 819 1339 521 298
is_linear=0
shrinkage=0.03


Tree=22
num_leaves=31
num_cat=0
split_feature=4 5 4 10 8 12 4 5 13 7 4 9 8 11 5 13 7 13 11 9 1 10 11 4 6 5 7 9 5 13
split_gain=11474.7 2974.78 1665.45 1296.46 902.006 695.887 601.25 540.383 479.403 626.644 469.038 525.761 428.829 406.188 318.028 254.164 241.823 224.925 205.244 197.984 177.869 175.112 164.658 130.532 126.329 121.862 109.66 91.3774 88.8289 73.9146
threshold=0.019867543090217467 0.31086933163326813 0.029180692531248026 1.1802027948684367e-06 0.13905216936675158 0.091666666666666688 0.013745729664476385 0.303903681381889 72.497374480496859 0.69999300006999865 0.0096310375646284346 0.40470733782297946 0.039187549771775722 -0.020192562391165934 0.36066971885310833 46.038238194764894 0.88135443001281366 85.825649269780499 0.013358740762909308 0.58859146825705533 1.4945762448153548 1.2742179230993246e-09 -0.018650747098774376 0.010869562208333881 -0.097696743659237001 0.47452882339680635 0.33332222259258093 0.33704405816140248 0.45134569295599719 38.754752459011598
decision_type=2 2 2 2 2 2 2 2 2 2 2 2 2 2 2 2 2 2 2 2 2 2 2 2 2 2 2 2 2 2
left_child=1 3 7 10 8 17 14 12 9 -4 27 -12 19 24 21 -14 -7 -6 -10 -2 -15 -3 -8 29 -9 -24 -25 -1 -16 -5
right_child=2 6 4 23 5 16 22 13 18 -11 11 -13 15 20 28 -17 -18 -19 -20 -21 -22 -23 25 26 -26 -27 -28 -29 -30 -31
leaf_value=-0.019295709745048007 0.0066542956425198344 -0.019884412396766783 0.018617628746515718 -0.01789654583652955 -0.02061357181371198 0.01840030534144815 0.033146299903221675 0.015562202048778319 0.018016461849178204 0.022898119319583052 0.0024374653799742155 -0.018740942679647703 0.040749022214570475 0.014166204879772012 2.7551360336443044e-05 0.012368223397228553 0.0045875167430701937 0.0016706568790591635 0.014192933296841596 -0.0063340673379764694 0.022155553677242902 -0.0033130260159061529 0.0070913708431338141 -0.0042501387052815342 0.039200075408666046 0.010886527473544596 0.0027656849092422236 -0.031290774394777232 0.0074612932431956979 -0.0028517829770931197
leaf_weight=839.24073362350464 7095.2732056230307 842.24508571624756 87496.211615592241 574.27736593782902 793.32278090715408 3168.2477498203516 253.44881185889244 274.32914647459984 45418.428664386272 47485.685303643346 1583.4320093691349 3161.1001397371292 484.38969685137272 78102.575770273805 2734.8771455138922 686.45446082949638 1782.4995464086533 838.52248054742813 17505.152370080352 1240.9839230626822 2591.1649587154388 1801.3305198848248 16287.443291798234 3006.9904547184706 787.92853547632694 14300.382450655103 6017.9095531105995 1792.1545652300119 3071.4800417125225 601.98221750557423
leaf_count=4964 24818 4721 233328 2908 3590 8786 593 728 122768 121416 7170 18199 1124 229603 11002 2078 5945 3087 49009 4904 7059 7643 56412 12365 1657 44853 23452 12454 10710 2701
internal_value=0.0148749 0.00253349 0.017248 -0.00772511 0.018752 0.00782695 0.00712271 0.0138782 0.0191154 0.0201235 -0.0173069 -0.0116729 0.0071086 0.0146654 3.28002e-05 0.0241096 0.0134271 -0.00916284 0.0169528 0.00472077 0.0144228 -0.00859268 0.00906521 -0.000797046 0.0330956 0.00886568 0.000428095 -0.0274651 0.00395989 -0.010197
internal_weight=352619 56868.3 295751 17577.1 204488 6582.59 39291.2 91263.1 197905 134982 7375.93 4744.53 9507.1 81756 8449.93 1170.84 4950.75 1631.85 62923.6 8336.26 80693.7 2643.58 30841.3 10201.2 1062.26 30587.8 9024.9 2631.4 5806.36 1176.26
internal_count=1040047 220147 819900 84213 547929 21408 135934 271971 526521 354744 42787 25369 32924 239047 34076 3202 14731 6677 171777 29722 236662 12364 101858 41426 2385 101265 35817 17418 21712 5609
is_linear=0
shrinkage=0.03


Tree=23
num_leaves=31
num_cat=0
split_feature=10 8 10 10 7 2 11 8 8 9 6 13 11 2 2 11 0 6 1 2 8 1 12 9 13 7 12 0 10 11
split_gain=4969.4 1232.02 1088.99 1062.28 978.34 941.398 822.718 774.479 669.775 603.287 527.778 487.412 480.663 436.003 418.156 387.197 360.665 344.131 321.785 391.756 275.634 231.637 220.656 216.746 171.915 133.47 112.92 102.091 98.9297 61.5457
threshold=1.3086434789844696e-07 0.030224818763473004 1.8621959633261403e-10 0.00021236620983340048 0.33898246872500842 0.15152948649080109 -0.01740985936368461 -0.075081801015098801 0.022897047145466559 0.46932536318097223 -0.32713565384001558 69.425355658176997 0.0026307223805577965 -0.08418034436055051 -0.01565308585957936 -0.018650747098774376 1.3157509326186154 0.63720902955061864 1.4070411240987362 0.14344570029858453 -0.026408299901781274 0.7609497031134671 0.10833333333333335 0.54266986544719187 48.734116972338903 0.62499218759765329 0.058333333333333341 0.66067784881351088 7.2666111932784904e-11 0.0082087880982652361
decision_type=2 2 2 2 2 2 2 2 2 2 2 2 2 2 2 2 2 2 2 2 2 2 2 2 2 2 2 2 2 2
left_child=1 2 20 6 10 17 14 25 12 -9 26 -7 -8 -10 -2 -12 -16 -6 23 22 27 -22 -20 24 -3 -4 -5 -1 -25 -21
right_child=3 18 7 4 5 11 8 9 13 -11 15 -13 -14 -15 16 -17 -18 -19 19 29 21 -23 -24 28 -26 -27 -28 -29 -30 -31
leaf_value=0.01971336719059584 0.012753300551729997 0.023230274918025935 0.043704470920846547 -0.006008922382221467 0.019453729753070761 -0.023844666104759511 0.011109330391067648 -0.003209802789362406 0.0288779186972206 -0.0190968061600192 0.033466011929770535 0.0086811713924260757 0.014712335931347522 0.015742456964294799 0.036152848719360593 0.01478918104713129 0.0093095747689746107 0.025431866676206605 0.054166246715806061 -0.037633734655898816 0.0084521127369605719 -0.002681168231039532 0.024442456145688626 0.010905041348659423 0.00511688579235022 -0.01362568680329904 0.0073441173352545219 0.0078109969389922032 -0.013183917622378711 0.017125173461733364
leaf_weight=1108.066117271781 1455.234573751688 1196.108471557498 275.26420770585537 630.85585135221481 64622.619409799576 486.01656386256218 83064.39678928256 4062.4187290817499 2356.8484346717596 4572.554862126708 1028.6118584573269 2823.8298046588898 55648.861139550805 64906.29104231298 2882.0013286024332 34707.865256518126 533.93828448653221 10008.520946592093 394.29931093752384 78.081778585910797 2679.4677048027515 4517.6893672645092 522.81353861093521 249.53522709012032 778.52368222177029 42.142995655536652 5905.9228899478912 1564.0574025213718 398.43184292316437 24.19735062122345
leaf_count=3166 3906 3474 598 2139 174319 2282 254443 19018 5571 24563 2330 9170 159039 182628 6309 99130 1512 25234 654 359 9503 20958 1393 802 2704 141 17879 5033 1717 73
internal_value=0.0143909 0.000736328 -0.00235418 0.0153174 0.017568 0.0195611 0.0140342 -0.00993085 0.013746 -0.0116226 0.0138931 0.00390509 0.0125548 0.0162027 0.02622 0.0153268 0.031957 0.0202554 0.016708 0.0310111 0.00451857 0.0014637 0.0372218 0.0111484 0.0160888 0.0360926 0.00605543 0.0127466 -0.00390714 -0.0246788
internal_weight=353525 22463.7 18821.7 331062 120214 77941 210848 8952.38 205976 8634.97 42273.3 3309.85 138713 67263.1 4871.17 35736.5 3415.94 74631.1 3641.99 1019.39 9869.28 7197.16 917.113 2622.6 1974.63 317.407 6536.78 2672.12 647.967 102.279
internal_count=1040047 94156 82980 945891 332483 211005 613408 44320 601681 43581 121478 11452 413482 188199 11727 101460 7821 199553 11176 2479 38660 30461 2047 8697 6178 739 20018 8199 2519 432
is_linear=0
shrinkage=0.03


Tree=24
num_leaves=31
num_cat=0
split_feature=5 10 2 8 11 9 2 10 7 2 5 2 6 2 12 1 8 10 2 5 7 6 8 1 10 7 9 11 8 10
split_gain=6271.69 3596.23 1547.9 1224.33 836.759 815.287 788.354 585.223 637.291 819.683 483.786 743.619 432.327 410.47 393.194 359.09 288.103 278.074 316.689 228.219 182.599 178.108 155.614 154.584 153.764 143.73 136.241 90.9005 68.7695 43.5879
threshold=0.33345799478033694 1.9917172169931958e-06 0.016798193136417387 0.042354744287408659 -0.018650747098774376 0.4766060903073267 -0.011119545315732973 9.342285719924743e-05 0.3865977333413772 0.15152948649080109 0.43970798474956063 0.019490249634101727 -0.19438062985732721 -0.069861473015319378 0.17500000000000002 1.2871818053330493 0.13905216936675158 0.00020174098635555775 0.14344570029858453 0.25588267213798394 0.079999680001283643 0.076320049396163173 0.050541447313543549 1.4637423261241838 0.00017366734311282151 0.33333055557870417 0.5940199445506672 0.003650866666288072 0.06089825694556935 0.00043348328215559156
decision_type=2 2 2 2 2 2 2 2 2 2 2 2 2 2 2 2 2 2 2 2 2 2 2 2 2 2 2 2 2 2
left_child=1 3 19 5 6 13 22 10 12 -10 11 -6 -9 -1 16 21 -5 23 -19 25 -12 -8 29 -4 -21 -3 -7 -16 -17 -2
right_child=4 2 17 14 7 26 15 8 9 -11 20 -13 -14 -15 27 28 -18 18 -20 24 -22 -23 -24 -25 -26 -27 -28 -29 -30 -31
leaf_value=0.052451823856544573 0.012116915078358758 -0.0066329415544636077 0.010593334063010914 0.045753322112518348 0.0068043281338196456 -0.01890646226451153 0.027014055805737128 0.0093882773699656072 0.01837948718366738 0.0059386566755987849 0.020890657931495239 0.015640798838434566 0.01536640238081498 -0.0070030871453798053 0.015898303060012414 0.022562898124068514 -0.03453500957446716 0.022737505667287109 -0.0073554054958093733 0.0030062106942008136 0.014628339602165856 0.042055047252820041 0.035767477226755211 0.017539723938542497 0.0093104004468847739 0.0022280078881051881 -0.029602771384384365 -0.01252601379442359 0.0052232776269499773 0.0025920553501311691
leaf_weight=106.43280513584614 1507.7453603446484 2812.8932646214962 10037.880471333861 492.00895400345325 19208.597040295601 3017.591068983078 985.15768851339817 13897.563478976488 106647.62993822992 4989.384211525321 4422.9050673246384 15477.120070844889 50266.127365425229 5778.3914002031088 182.77946716547012 638.94010706245899 43.805299788713455 4778.3631958812475 336.92907349765301 10229.643774539232 79763.939058855176 2523.5875531286001 222.38653588294983 4045.2707275599241 5278.9901408404112 3976.6683927327394 1661.9925113767385 227.03000670671463 303.69996732473373 606.27979722619057
leaf_count=258 4029 11446 32134 955 63681 17440 2335 41043 286693 16675 11897 43829 140531 29047 601 1586 218 12754 1331 36014 222859 5040 478 11158 17077 15144 10178 900 974 1742
internal_value=0.0139213 0.00440485 0.00852025 -0.0104322 0.0155946 -0.0133595 0.0260085 0.0153547 0.0164541 0.0178235 0.0137289 0.0107473 0.0140716 -0.00592779 0.0222714 0.0334155 0.0391894 0.0147646 0.0207554 0.00314394 0.0149573 0.037832 0.0118964 0.0125886 0.0051521 -0.00144305 -0.0227053 0.00015154 0.0169764 0.00938529
internal_weight=354468 53006.7 41496.6 11510 301461 10564.4 6787.8 294673 175801 111637 118873 34685.7 64163.7 5884.82 945.624 4451.39 535.814 19198.4 5115.29 22298.2 84186.8 3508.75 2336.41 14083.2 15508.6 6789.56 4679.58 409.809 942.64 2114.03
internal_count=1040047 196655 137058 59597 843392 56923 16184 827208 484942 303368 342266 107510 181574 29305 2674 9935 1173 57377 14085 79681 234756 7375 6249 43292 53091 26590 27618 1501 2560 5771
is_linear=0
shrinkage=0.03


Tree=25
num_leaves=31
num_cat=0
split_feature=3 3 3 4 8 2 8 6 2 0 13 10 6 9 8 10 11 4 2 8 0 6 13 4 13 4 2 13 12 6
split_gain=11832.9 3078.71 2425.5 1321.91 1297.36 844.772 729.275 653.346 703.878 475.952 764.042 412.645 464.25 402.151 402.072 390.484 363.287 360.438 353.966 344.77 312.322 216.929 164.147 153.581 137.501 132.931 100.711 86.2616 73.2322 69.6307
threshold=0.023690025832815601 0.016573362836526048 0.038392114791445907 0.028070981994132289 0.05152454839060161 0.10833016145087403 0.036265349914376591 0.34463336231401565 0.17166676208370385 0.81394061860725853 64.521372755160215 0.00033347887276336793 0.54218732850874385 0.49022841787285165 0.055884115418462769 1.9917172169931958e-06 0.0042905552918093203 0.016129030469616983 -0.0066857678988453571 -0.1363467535539675 1.2127037795672309 0.26715463698496861 75.167080413904031 0.081077574654267334 48.734116972338903 0.021580323880241063 -0.028213151772297673 15.989314773090017 0.10833333333333335 -0.52084231563837202
decision_type=2 2 2 2 2 2 2 2 2 2 2 2 2 2 2 2 2 2 2 2 2 2 2 2 2 2 2 2 2 2
left_child=1 6 3 17 11 9 15 20 -9 10 -4 13 -13 -3 16 18 -7 26 -1 -11 -5 27 -23 -16 28 -19 -2 -6 -8 -17
right_child=2 4 5 7 21 14 24 8 -10 19 -12 12 -14 -15 23 29 -18 25 -20 -21 -22 22 -24 -25 -26 -27 -28 -29 -30 -31
leaf_value=-0.0139476254930276 -0.00073528893803114447 0.0030523035786383088 0.022187308563156299 0.014099351080850421 0.029430127993664977 0.023807554391725987 0.047283180375819391 0.018918594025877943 -0.0081875848750828772 0.030268107148058769 0.015872898841002511 0.004935231558615626 0.029221111830197169 -0.0046392948718975684 0.010572382929661882 -0.025840204717339759 0.011314168625692072 0.0086408894107166782 -0.028721531317511931 0.016548695105035451 0.0076820120672265076 0.034962173569960869 0.0068704804477197927 0.0025446857538248043 -0.0043786817169217335 0.011573032409978617 0.0060641515280613354 -0.012665481985902111 0.016486641875133077 -0.0086974605020543987
leaf_weight=2502.8143661469221 2758.8645226061344 15586.234509378672 53936.618452087045 28634.745599657297 61.048153296113014 3391.9933407306671 167.19137543439865 34633.585550814867 884.20286791026592 1685.7005949020386 25352.791243553162 3258.5928740352392 905.2038866430521 10070.810586184263 4836.8938112407923 228.5830504745245 5477.2711373269558 23300.331578522921 3501.393139667809 74790.325781106949 8961.6489704400301 1402.8452228754759 216.03460273146629 3853.7260191887617 114.83043770492077 34548.774768799543 6775.1753352880478 155.1676681637764 118.92346899211407 3178.373432725668
leaf_count=15354 9829 58505 134898 80118 162 8487 292 91059 3810 3838 67540 11323 2479 40402 14236 1200 15508 73772 24186 197266 26277 3121 660 12832 494 102845 23184 590 437 15343
internal_value=0.0134717 -0.0015895 0.0154619 0.0125325 0.00296145 0.0178364 -0.0162718 0.0153261 0.0182438 0.0185396 0.0201683 0.00145487 0.0102149 3.32252e-05 0.0115986 -0.01796 0.0160922 0.00950129 -0.0225631 0.0168511 0.0125697 0.0274439 0.0312134 0.00701262 0.0233528 0.010392 0.0040966 -0.000779861 0.0344826 -0.00984762
internal_weight=355291 41468 313823 140497 31655.9 173325 9812.11 73114.2 35517.8 155765 79289.4 29820.8 4163.8 25657 17559.9 9411.16 8869.26 67383.1 6004.21 76476 37596.4 1835.1 1618.88 8690.62 400.945 57849.1 9534.04 216.216 286.115 3406.96
internal_count=1040047 174548 865499 410894 117242 454605 57306 201264 94869 403542 202438 112709 13802 98907 51063 56083 23995 209630 39540 201104 106395 4533 3781 27068 1223 176617 33013 752 729 16543
is_linear=0
shrinkage=0.03


Tree=26
num_leaves=31
num_cat=0
split_feature=3 3 1 3 3 13 8 4 0 2 8 3 8 2 6 9 4 9 2 1 2 5 13 6 2 13 5 5 5 1
split_gain=11098 3648.29 1743.74 1346.64 999.289 986.643 720.832 683.7 588.588 506.499 504.27 446.829 419.034 626.408 309.805 255.517 213.561 208.181 240.996 206.127 185.139 172.948 163.699 159.894 159.208 156.249 95.4227 83.3787 65.5882 51.8834
threshold=0.019941266628653906 0.029837247234794233 1.4782669428468387 0.014915970880933988 0.044028892111409819 79.332952427112431 0.049536332651801317 0.03119841064699749 0.81394061860725853 0.17166676208370385 0.032811751522733121 0.023690025832815601 0.045748498836444211 0.14344570029858453 -0.24144214125334276 0.59598833248555005 0.021580323880241063 0.44715570298084217 -0.0062180618703732704 2.1282344367384662 -0.069861473015319378 0.21307618293896377 47.209769217497275 0.56873828641834745 -0.029368418660435786 62.627904036496325 0.26721885237369702 0.43576822660147768 0.39901249591207749 1.6044397482510067
decision_type=2 2 2 2 2 2 2 2 2 2 2 2 2 2 2 2 2 2 2 2 2 2 2 2 2 2 2 2 2 2
left_child=3 2 11 10 7 8 15 16 -6 -9 17 24 23 -14 -13 20 -3 18 -1 -7 -5 22 -12 -4 -2 26 -8 -19 -17 -23
right_child=1 4 12 6 5 19 25 9 -10 -11 21 14 13 -15 -16 28 -18 27 -20 -21 -22 29 -24 -25 -26 -27 -28 -29 -30 -31
leaf_value=-0.0060059218392384348 -0.0033840428301799177 0.0094133542458438666 0.011019294075408958 0.052222874340504787 0.021918989718955322 0.014510936328982475 0.046313467987044686 0.016625947737610339 0.017052701888943689 -0.0002898313184736158 0.05804282932099826 0.0033145973963468862 0.029884276606042794 -0.014343216145791003 0.0094304816083906149 -0.017250332024685355 0.013155837023823136 -0.027258195996405367 -0.022991632666259622 0.0070507434889556788 -0.003189392969270797 -0.028683947466849092 -0.015872917230752764 0.021023461443374115 0.0039360582277849594 -0.0027068997018429024 0.019173801172362635 0.017372168476814408 -0.0011487065585724446 0.020645489819339908
leaf_weight=1311.2989063560963 3277.8848890662193 20065.113598003983 3900.5865166187286 54.519547611474991 47634.519361436367 31843.624846786261 308.42273481190205 70404.814173534513 42175.687288448215 1629.9614744782448 121.5806763023138 9358.5834343582392 4124.6330220103264 309.86613631248474 36636.534420445561 1582.2640165388584 43415.569159790874 3112.7111930549145 1761.8287713676691 3723.0406923592091 11670.25841614604 55.350099727511406 34.651468902826309 2277.3192752897739 14516.721812412143 115.37941086292267 187.46629896759987 38.135101661086082 265.95146481692791 29.372381240129471
leaf_count=7301 12379 61207 11369 150 116933 86834 567 186596 108427 6256 235 31124 9296 1304 114128 7853 122415 21835 10943 11500 50600 315 186 5880 52140 427 501 170 1093 83
internal_value=0.013043 0.0143575 0.00849764 -0.00830296 0.0160287 0.017959 -0.00313077 0.0142428 0.0196337 0.0162432 -0.0196509 0.00662436 0.0197576 0.0267938 0.00818609 -0.00456598 0.0119729 -0.0212995 -0.0157439 0.01373 -0.00293173 0.0229322 0.0416487 0.0147071 0.00258765 0.0287374 0.0360536 -0.026718 -0.0149334 -0.011582
internal_weight=355944 335294 74402.1 20649.2 260892 125377 14184.3 135515 89810.2 72034.8 6464.93 63789.7 10612.4 4434.5 45995.1 13573 63480.7 6223.97 3073.13 35566.7 11724.8 240.955 156.232 6177.91 17794.6 611.268 495.889 3150.85 1848.22 84.7225
internal_count=1040047 937788 237620 102259 700168 323694 61191 376474 225360 192852 41068 209771 27849 10600 145252 59696 183622 40249 18244 98334 50750 819 421 17249 64519 1495 1068 22005 8946 398
is_linear=0
shrinkage=0.03


Tree=27
num_leaves=31
num_cat=0
split_feature=3 3 1 8 3 3 13 5 4 2 7 3 8 6 1 13 4 8 2 7 7 2 5 3 13 5 1 13 5 2
split_gain=10413.5 3653.85 1696.57 1105.82 967.667 946.419 985.199 662.084 598.419 556.729 490.368 476.824 365.867 292.939 278.858 222.643 216.342 208.595 521.107 195.015 178.508 143.639 138.819 100.916 91.2168 83.1713 70.5799 56.6074 53.2996 34.5186
threshold=0.019400350904799739 0.029837247234794233 1.4782669428468387 0.042354744287408659 0.014915970880933988 0.047073678585797953 86.620860675300705 0.51769038475296558 0.03163444075554487 0.17166676208370385 0.96666337997015017 0.023690025832815601 0.048498370777751432 -0.44290502383027869 1.4637423261241838 82.369170321885619 0.021580323880241063 0.0094375021161471062 -0.0066857678988453571 0.99999748988227977 0.33898246872500842 -0.071369412427641721 0.36842085149008458 0.011393882159678443 59.560647871520395 0.26721885237369702 1.2688323031384272 18.675156641233887 0.24261126370317498 0.039761085128853214
decision_type=2 2 2 2 2 2 2 2 2 2 2 2 2 2 2 2 2 2 2 2 2 2 2 2 2 2 2 2 2 2
left_child=3 2 11 4 17 8 7 -7 16 -10 12 20 -4 -13 27 -12 -3 23 -19 -8 -2 26 -23 -1 25 -16 -6 28 -5 -26
right_child=1 5 10 14 21 6 19 -9 9 -11 15 13 -14 -15 24 -17 -18 18 -20 -21 -22 22 -24 -25 29 -27 -28 -29 -30 -31
leaf_value=-0.029229332844407926 -0.0012528374531224453 0.0095717180584123616 0.011925294356156657 0.069963180678821332 -0.0077390916546311046 0.023299987741536229 0.012912297045141007 0.01745281390156719 0.01616475475559984 0.00075940512379964653 0.038844285529045286 0.0010664977459434717 0.024460756615204134 0.0087576332605218236 0.049147455058026937 0.0098410915564239847 0.013130996853656925 0.021120296738714753 -0.020162637952053971 0.0027068869780564656 0.0046099230718315018 -0.0077444271454044609 0.00029254481247630742 -0.020154025986124244 -0.041043356466311416 0.020298417429198103 0.072287846792991148 -0.0061921691840879775 0.0063163019153369415 0.015480322993191227
leaf_weight=1814.9983774498105 7604.8359487503767 21961.646876201034 5992.4817679822445 18.096150800585747 14.463295161724089 25080.535613507032 19813.346043884754 57125.72771281004 82263.525048211217 2166.8778932839632 1398.9416933059692 4999.1604622751474 3222.2683821022511 41093.284084975719 349.83762946724892 287.09659998118877 51202.903234377503 351.43656181544065 1268.3471989780664 1841.8483102172613 12128.532744094729 8725.8109941184521 2485.0760614275932 2810.177353464067 11.174870163202284 121.06469616293907 31.565723553299904 234.07869076728821 34.261390909552574 74.881989508867264
leaf_count=13061 28487 66396 17067 34 65 60158 54824 144425 217089 8099 2941 16884 7824 128368 584 803 143077 1826 8157 6100 43665 40466 10199 17711 47 300 64 991 124 211
internal_value=0.0126304 0.0138245 0.00806817 -0.00938298 -0.0109998 0.0155138 0.0177371 0.0192367 0.0140485 0.0157694 0.0190305 0.0062528 0.0163088 0.00792346 0.0241697 0.0339057 0.0120626 -0.0204706 -0.0112057 0.0120443 0.00235054 -0.00574576 -0.0059629 -0.0237153 0.0365405 0.0417306 0.0471417 0.00011526 0.0283143 0.00814047
internal_weight=356528 338183 76726.6 18345.3 17501.9 261456 103861 82206.3 157595 84430.4 10900.8 65825.8 9214.75 46092.4 843.395 1686.04 73164.6 6244.96 1619.78 21655.2 19733.4 11256.9 11210.9 4625.18 556.959 470.902 46.029 286.436 52.3575 86.0569
